//Numpy array shape [64]
//Min -0.204110696912
//Max 0.589018583298
//Number of zeros 0

#ifndef B22_H_
#define B22_H_

#ifndef __SYNTHESIS__
model_default_t b22[64];
#else
model_default_t b22[64] = {17.0841674805, -7.5661988258, -4.0302805901, 17.8964824677, -8.6705369949, 0.2138361782, 14.9689254761, 3.2961063385, -0.2488462925, 0.6029841304, -2.6201367378, 8.1740398407, -3.7290279865, 6.0156373978, 17.8705139160, -0.2892091572, -3.4160389900, -0.7618834972, 0.3645189106, 25.3722248077, -0.2238586545, 0.0954971462, 4.7231411934, 0.6902104616, 9.5673723221, 0.2577730417, 0.8204988837, -15.1573362350, 10.0502347946, 9.3638010025, 9.8732290268, 19.2427845001, 1.1530771255, 10.9868373871, 6.9794373512, 13.2825441360, 6.4679341316, -5.3680610657, 2.7499928474, 1.0105031729, 1.9828231335, -14.9088296890, -0.6654504538, 23.8285007477, -13.4982519150, -19.5004653931, 13.5426063538, 9.7232131958, 20.2235565186, -3.5480394363, -15.9645919800, -0.8126544356, -0.7004554272, -0.7446787953, 0.4174150229, 16.2332611084, -1.0106008053, -0.8633951545, 22.2465476990, -2.3498106003, -0.2035043687, -22.0385456085, 1.8452416658, -0.2743033469};
#endif

#endif
