//Numpy array shape [256]
//Min -0.022233445197
//Max 0.021896556020
//Number of zeros 0

#ifndef B40_H_
#define B40_H_

#ifndef __SYNTHESIS__
model_default_t b40[256];
#else
model_default_t b40[256] = {3.8141331673, 9.3269786835, -4.3416137695, -6.4715285301, -6.5952587128, -7.2917170525, -5.4269471169, -4.1387548447, 6.1358876228, 10.0302200317, -5.4198999405, -12.7985086441, -3.9301016331, -3.5600066185, -4.1663742065, 10.0338945389, -2.7486350536, -5.2549433708, -1.3634687662, -4.5297117233, 12.5829305649, -8.0517520905, -5.8145775795, -6.7811169624, -4.1663627625, -6.9765415192, 3.2388994694, -6.7915577888, 13.3460674286, -6.9229879379, -9.1121749878, -18.0258178711, -6.9828939438, 7.4275426865, -9.4514684677, -5.8024191856, -7.9343423843, -3.3667879105, -2.8945541382, 4.6550407410, -4.1218414307, -5.5525612831, 4.9399023056, -22.9943370819, -3.4809782505, 3.0793986320, -5.4090270996, 35.5287055969, -7.5121474266, -4.4055247307, 5.3185453415, -8.7110509872, 11.1578264236, -5.2643561363, -3.4423265457, -6.2933716774, -5.4546113014, 4.0466852188, -2.6361155510, -6.4067811966, -5.5643978119, -5.1103491783, 11.4568462372, 11.2939310074, -3.2065691948, -4.0427231789, -8.6123666763, -5.3469257355, -4.3830556870, -4.5168023109, -8.9257516861, -4.1649932861, -2.6587293148, -5.1931214333, -5.2070307732, -14.2580547333, -4.8119287491, -3.7452952862, -7.8917589188, -3.6996815205, 8.2328195572, -4.9619073868, 8.5489578247, -3.4668915272, 6.6797375679, -4.1742763519, -4.3547925949, -4.5582556725, -3.1652626991, 6.6961064339, -4.8758316040, -17.2538547516, -5.7055621147, -4.6618113518, -4.5446949005, -3.1583323479, -7.1805496216, -5.3290710449, -4.2352614403, -5.1721343994, -5.8576335907, -9.0937500000, -4.1191182137, 2.4229891300, -4.8611006737, -3.6690578461, -8.1483125687, 11.4795217514, 5.3652186394, 24.6718673706, 3.7495925426, -6.5936164856, -5.3996062279, -11.4597206116, -7.3472175598, 0.4686877131, 6.1458230019, -5.0013961792, -4.9561724663, -6.5819787979, 5.8591823578, -3.7655425072, -4.6147856712, -5.0070567131, -4.7008070946, -6.0013933182, -6.6116290092, -8.0469217300, -5.3371028900, -7.0149431229, -16.9688320160, -5.3178839684, -5.5980753899, 58.2297058105, -8.4538898468, -6.7889566422, -4.8076577187, -3.2946105003, -5.2601418495, 4.5794296265, -13.9650611877, -7.2066259384, 5.6174087524, -5.7292227745, -3.9672603607, 10.9329624176, 8.7502651215, -3.2182340622, -5.3425941467, -6.1486949921, -6.4587135315, -4.4384708405, -5.5494780540, -5.7036938667, 18.9665470123, -4.6334452629, -4.0880889893, -2.9188089371, -3.9083361626, -3.7581586838, -28.0472202301, -5.6140875816, -9.3770780563, -5.8487973213, 4.8623967171, -26.3823547363, 5.2148461342, -4.8875093460, -6.1025199890, -3.5796260834, -3.5068259239, -9.0693454742, -3.8915362358, 16.0438137054, -5.6065921783, 3.3190681934, -4.5143661499, -9.1411161423, 6.1517467499, -7.1838731766, 19.7960319519, -44.2010879517, -6.1756477356, -6.2502036095, -8.8445558548, -6.2841920853, 9.7511138916, -5.7124619484, -4.1548423767, 0.2351545542, -7.8327546120, -4.2796955109, -12.4844379425, -9.8738937378, -5.0586986542, -9.9659566879, -5.9176659584, -4.4778485298, -4.9974608421, -7.8591504097, -4.8804435730, -8.3901443481, 39.1868019104, -5.4546561241, 5.3379979134, -5.8261852264, -5.0921626091, -8.7467460632, -7.2310442924, -3.6047899723, 52.8961410522, 2.9212265015, -3.8723218441, -10.9533147812, -4.6534576416, -11.5007553101, -5.7728252411, -4.9934992790, -2.1197080612, -6.2315645218, -4.2689332962, 15.0503530502, -5.0622096062, -15.6895780563, -3.6938900948, -4.3441467285, -4.7437744141, -7.5074019432, -5.1342411041, -20.8360157013, 5.5745887756, -10.3751802444, -5.0442357063, -6.3372759819, 3.2205977440, -4.3583269119, -7.5534706116, -10.7728090286, -18.4115543365, -7.8020582199, -9.2476930618, -4.5569229126, -5.7595524788, -6.2146902084, -8.9683609009, -9.2728252411, 28.8395462036, -6.1183204651, -5.8724355698, 3.3329815865, 6.5452570915, -27.8898334503, -5.1213288307, -6.4202151299, -7.0620889664, -6.4269771576};
#endif

#endif
