//Numpy array shape [256]
//Min 0.000000000000
//Max 0.000000000000
//Number of zeros 256

#ifndef B45_H_
#define B45_H_

#ifndef __SYNTHESIS__
bias45_t b45[256];
#else
bias45_t b45[256] = {-51.0865936279, -3.5082027912, -3.7932205200, -3.7183315754, -2.0167646408, -4.1941800117, -5.2771582603, 6.1689000130, -5.0995316505, -7.0342798233, -4.7852973938, -58.0042037964, 17.3542118073, -7.0359010696, -6.2152552605, -6.8614230156, -6.4324159622, -8.7658472061, -5.8832850456, -5.0450263023, -29.9743347168, -4.5137853622, -4.4805212021, 4.0806307793, -6.1211524010, -6.0644588470, -5.3531370163, -5.5990252495, -8.5665740967, -5.8182067871, -7.1215167046, -8.2024412155, -4.5947260857, 6.1870446205, -5.1105055809, -6.4499111176, 13.1335430145, 9.4724817276, -17.9806900024, -4.0281476974, -5.5105504990, 21.1171417236, 6.1236438751, -5.7405428886, -3.8506722450, -3.5397357941, -5.4884834290, -7.8188934326, 36.7559967041, 54.4515762329, -7.6503062248, -6.3710269928, 20.8588562012, 29.6328601837, -5.7853097916, 15.1898384094, -6.3298649788, -6.8443117142, -6.2863636017, -5.8903532028, -4.2800288200, -5.4378004074, -5.3474225998, -5.4430146217, -4.8038101196, -4.7364912033, -5.2628827095, 6.2463421822, -4.7730870247, -4.6174120903, 6.3244452477, 4.8389620781, -5.5622549057, -5.2122244835, -4.2851233482, -4.9771862030, -4.6284856796, -4.5245604515, -4.5000510216, -6.3083758354, -5.0399751663, -5.9900031090, -5.3496408463, -7.4013276100, -7.3956341743, -4.9688820839, -12.3502655029, 19.5282783508, -4.6205382347, -4.9907269478, -6.0901379585, -4.4877367020, -5.7145681381, -5.8945736885, -6.7055916786, -5.2435603142, -8.3568372726, -5.5677676201, 17.6113605499, -6.4631762505, -6.7622957230, -5.4318981171, -3.4021911621, -3.0683426857, -6.1772341728, -4.3295192719, -5.0734405518, -4.8634190559, -6.3305821419, -4.9310121536, -8.9309358597, -4.6371045113, -4.1413302422, -5.0543732643, -2.3301517963, -40.1991767883, -15.7676715851, 12.1162576675, -5.0729384422, -3.1739833355, -4.8522949219, -9.4187841415, -3.9231340885, -6.5050435066, -3.0149829388, -4.8097124100, -5.8446869850, 22.8361263275, -4.2817482948, -5.0228443146, 53.8370895386, 21.1446533203, -5.1850762367, -5.9215812683, -4.6707572937, -5.3000173569, 4.9772486687, -4.7794322968, -9.5892324448, 5.5765104294, -7.7972049713, -5.0180215836, -6.0904669762, -4.0742564201, -7.6245918274, -4.7629585266, -5.2693037987, -5.4669823647, -4.4879546165, -4.9690132141, -8.9376916885, -5.2295584679, -15.6557703018, -5.6195569038, -4.2796254158, -6.4666366577, -17.9386806488, -6.0733704567, -5.1521930695, -5.8796858788, -8.0785512924, -5.3516182899, -6.2321720123, -6.8873934746, -3.8601682186, -6.0450849533, 5.1587681770, -10.0948467255, 6.2763295174, -4.6851739883, -5.9108796120, -4.7589840889, -4.1144003868, -3.9020497799, 62.9280090332, -3.8240919113, -4.7653326988, -4.2997918129, 4.4972276688, 46.3012313843, -4.0018033981, 14.6792249680, -5.1467332840, 1.6409816742, -5.5035853386, 6.2136902809, 5.6710343361, -4.8169088364, 4.9230031967, -5.2311234474, 10.3426675797, -5.8599648476, -6.4731283188, -5.4882922173, -7.9005842209, -4.4361314774, 8.8621187210, 66.3468704224, -10.2824058533, -6.1923584938, -4.2389883995, -4.5702500343, -5.0996670723, -5.0735754967, 6.1612257957, 52.0477600098, 46.6548919678, -4.1948342323, -3.2298483849, -5.3982677460, -3.7386138439, -4.5282735825, -54.9297409058, -3.9682192802, -4.0617866516, -4.5943293571, -5.2149581909, -5.0435566902, 77.0557098389, 9.3287639618, 24.5019760132, 23.4612083435, -5.2542433739, -7.4712743759, -5.1302466393, -5.6987819672, -5.0288438797, -5.2250413895, -5.8573141098, 5.6229267120, -5.8885440826, 55.9561004639, -10.3985652924, -13.4551048279, -7.6643762589, -5.3093152046, -4.5593996048, -4.8820433617, -4.6472992897, 5.8182082176, -6.6728544235, -6.6023817062, -5.2366828918, -4.0342106819, -3.5771028996, -6.2458868027, -4.5503768921, -33.7152099609, -6.7413334846, -0.9481547475, -4.8905010223, -2.2806119919, -4.4278163910, -5.9077124596, 0.0001316071, -7.3009190559};
#endif

#endif
