//Numpy array shape [3, 3, 64, 64]
//Min -111.389564514160
//Max 98.307991027832
//Number of zeros 0

#ifndef W22_H_
#define W22_H_

#ifndef __SYNTHESIS__
model_default_t w22[36864];
#else
model_default_t w22[36864] = {0.0027917332, 0.0026323695, -0.0574490800, 0.0117609575, -0.0894791409, 0.0037513780, -0.0135878557, 0.0024547246, -0.0047119469, -0.0058920393, -0.2151279151, -0.0088463975, 0.0016927575, -0.0205227099, -0.0016499710, -0.0239221882, -0.0292537045, -0.0061368444, 0.0318160690, -0.0094055505, 0.0605222508, 0.0019082909, -0.0075616464, -0.0002060632, 0.0164414514, 0.0309946239, -0.0157983657, 0.0284893252, -0.0116163194, -0.0143933594, -0.0664022639, -0.1054255590, -0.0072700228, -0.0546128005, 0.0118701663, -0.0014304625, -0.0240161326, -0.0033796846, -0.0167627782, 0.0002108975, -0.0832510516, -0.0744977444, -0.0091047427, 0.0068660290, 0.0100583397, -0.0109049352, -0.0032339031, 0.0348773301, -0.0081800409, -0.0037104122, -0.0118588684, -0.0203363989, 0.0036748073, -0.0151441274, -0.0153722065, -0.0175039750, -0.0112640308, -0.0009316425, 0.0292852260, 0.0397098921, 0.0150552867, 0.0301351156, -0.0065479651, 0.0277816374, -0.0385871381, 0.0041029421, -0.0177310221, -0.0253869947, -0.0089543462, -0.0073368875, -0.0224174857, -0.0302533079, -0.0182265081, 0.0113486778, -0.1385631263, -0.0260394327, -0.0502037220, -0.0319587067, -0.0230731014, -0.0401291437, -0.0163607206, -0.0777302235, 0.0316041745, -0.0106727518, 0.0227034930, -0.0280174185, -0.0247618258, -0.0392025821, -0.0157301128, 0.0288099460, 0.0094394190, 0.0286960229, -0.0292765908, -0.0326577909, -0.0917866081, -0.0734297782, -0.0153238280, -0.0598601513, -0.0095329657, -0.0288588125, -0.0273779351, -0.0209091101, -0.0001391828, -0.0174533743, -0.0583948344, -0.0643896610, -0.0390841998, -0.0158400293, 0.0072972449, -0.0087687094, -0.0241579954, 0.0371938869, -0.0173120387, -0.0326549932, -0.0183982085, -0.0236138329, -0.0221992694, 0.0038937326, -0.0027568922, -0.0209684316, -0.0535389595, -0.0279061794, 0.0306583475, -0.0750050917, 0.0066187144, 0.0009297457, -0.0273216758, 0.0264371987, -0.0341415294, -0.0029753165, -0.0100967959, -0.0017245299, -0.1006657481, -0.0447349884, -0.0158514697, -0.0098897293, -0.0157214887, 0.0104857357, -0.0969893560, -0.0258137099, -0.0275954567, -0.0131107159, -0.0060109398, -0.0226743910, -0.0129071632, -0.0300775487, 0.0054377429, -0.0121153230, 0.0209258664, 0.0084943743, -0.0109066209, -0.0257116389, -0.0092737861, -0.0006638676, -0.0161353033, 0.0028763695, -0.0026143114, -0.0324636064, -0.0706939846, -0.0001767122, 0.0134948976, 0.0461837426, 0.0131772235, -0.0059168688, -0.0145862130, -0.0227988753, -0.0134255691, -0.0068155155, -0.0965272114, -0.1327936500, -0.0147045851, -0.0114065539, 0.0098164408, 0.0009781714, -0.0281651709, 0.0084548555, -0.0105573870, -0.0262043271, 0.0182452928, -0.0193211045, -0.0078987395, -0.0135900369, -0.0090080407, 0.0082582142, -0.0637235790, -0.0205545574, 0.0055277110, 0.0262968279, 0.0168941934, -0.0022822523, -0.0012506184, -0.0008990263, 0.0381495878, 0.0022679330, -0.1081957743, 0.0103393449, -0.0670895800, 0.0169672705, -0.0041133841, 0.0297609419, 0.0123632215, -0.0205962826, -0.0823542997, 0.0057239607, 0.0164783690, 0.0048254468, 0.0347708911, -0.0193132684, -0.0230381936, 0.0087581342, 0.0468886048, -0.0125786252, 0.0482763201, 0.0213317666, 0.0064738099, 0.0234371684, 0.0349795595, 0.0209294669, -0.0283653904, 0.0113120647, 0.0190174840, 0.0249624848, 0.0633416101, -0.0928595737, 0.0002514528, -0.0829159468, 0.0198457483, 0.0081811408, 0.0078442236, 0.0537353195, -0.0106247114, -0.0300908666, 0.0079849325, -0.0231189188, 0.0234956983, 0.0224147011, 0.0242195912, 0.0227311682, 0.0349465422, 0.0109675154, 0.0150127457, 0.0354151167, -0.0112951817, 0.0108936559, 0.0025284612, 0.0009952389, 0.0054320903, 0.0007388447, 0.0476269238, 0.0335726924, 0.0096679041, 0.0202184152, 0.0019837564, -0.0729994029, 0.0038970720, 0.0225946084, 0.0046578962, -0.0046717431, -0.0715345740, -0.0168770589, 0.1160395294, 0.0139825726, -0.0051812278, 0.0138849812, -0.0066522649, 0.0023104395, -0.0038944175, 0.0295065157, 0.0054671098, -0.0031841593, 0.0029215252, -0.0038418944, -0.0235041790, -0.0384153873, 0.0148944128, 0.0160102993, -0.0229911413, 0.0158314053, 0.0053097089, 0.0081868367, 0.0059131677, -0.0144124655, 0.0271347724, -0.0225572623, -0.0065850997, 0.0275869630, 0.0318883732, -0.0472804122, 0.0097729554, -0.1091224998, 0.0234175958, 0.0040514707, -0.0037116695, 0.0248466935, -0.0004313755, -0.0096691977, 0.0315013677, -0.0185169056, -0.0200885460, -0.0160610732, -0.0095882695, 0.0287499782, 0.0263743773, -0.0224382598, 0.0118714906, 0.0387908220, -0.0540844351, 0.0034223171, 0.0180132240, 0.0198350679, 0.0162583943, 0.0388243608, 0.0575057007, 0.0077671916, -0.0235668514, -0.0122406501, 0.0070398324, -0.0643766969, -0.0048447778, -0.0107322596, 0.0080767032, -0.0088508278, -0.0539636798, 0.0148552833, 0.0944510847, -0.0108834244, 0.0082903812, 0.0279230084, 0.0044659926, 0.0443547368, -0.0058791069, 0.0353894122, 0.0459430665, 0.0229435060, 0.0353031568, 0.0569823347, -0.0284816548, -0.0341906138, -0.0320075303, 0.0256818086, -0.0365916193, 0.0720070228, 0.0188576058, 0.0117476229, 0.0369047411, -0.0560631715, 0.0221030917, -0.0599398427, 0.0239810012, 0.0334802195, 0.0012812573, -0.0040769801, 0.0613330416, -0.0018918852, 0.0389362983, 0.0108282249, 0.0089480430, 0.0353715681, -0.0019960932, 0.0270447247, -0.0117463591, -0.0449163914, 0.0175791252, -0.0287689101, -0.0181522407, 0.0107252803, 0.0060720816, -0.0608235933, 0.0185280889, 0.0311425626, -0.0165623073, 0.0103206616, 0.0357882865, 0.0028430200, 0.0269422885, 0.0608188286, 0.0313528553, 0.0076033929, -0.0592753775, 0.0046228203, 0.0292558465, -0.0706798732, 0.0285421517, -0.0513858944, 0.0031215420, -0.0004275122, -0.0297675636, -0.0131264580, -0.1059726775, 0.0126961637, -0.0125880120, -0.0035417438, 0.0093784602, -0.0183615033, -0.1172238514, -0.0172755048, -0.0027076486, -0.0156663749, 0.0063206614, -0.1118647009, 0.0255097188, -0.0012224537, 0.0265603326, -0.0088518113, 0.0185563378, -0.0134423431, -0.0156150972, -0.0017013841, 0.0011696469, 0.0323835239, -0.0444546714, 0.0238131415, 0.0062580830, -0.0092900097, -0.0351437032, -0.1785740554, -0.0109791700, -0.0568780191, -0.0041405330, -0.0096944310, -0.0019337327, -0.0124736885, -0.0123574305, -0.0142963137, -0.1143338233, -0.0115506416, 0.0124939838, 0.0020265977, 0.0318308063, 0.0010756237, -0.0038697678, 0.0227464642, -0.0025496623, -0.0172658693, 0.0042189681, -0.0070244591, -0.0322741084, -0.0097116046, -0.0318955556, -0.0229653940, -0.0099410936, 0.0199356750, 0.0237578154, -0.0380506814, 0.0068811593, -0.1476094872, 0.0022244814, 0.0340693891, -0.0277463235, -0.0033717721, -0.0334360152, -0.0329436436, -0.0202806368, 0.0006980390, -0.0174970459, -0.0287935846, -0.0010251451, -0.0042843120, -0.0407710448, -0.0072899498, -0.0171905104, -0.0094923275, -0.0153309712, -0.0975656137, -0.0878266394, -0.0983932465, -0.0099472394, 0.0094404891, -0.0177225918, -0.0176568739, -0.0280504320, -0.0168277752, -0.0355645046, 0.0033135340, -0.0083364397, -0.0036486285, -0.0178305525, -0.0083363550, -0.0144531904, -0.0894060656, -0.0193819739, -0.0058318814, -0.0000013466, 0.0007942606, -0.0243427586, -0.0234466810, -0.0063308412, -0.0162515547, -0.0408409461, -0.0019537203, -0.0281606410, -0.0113013918, -0.0005250503, 0.0021444240, -0.0015395195, -0.0060727452, -0.0076858173, -0.0234029088, -0.0070597278, -0.0116901137, -0.0240631830, -0.0071831415, -0.0194055699, -0.0210687760, -0.0449106656, -0.0134005900, -0.0030927861, -0.0488147102, 0.0001700156, -0.1349473298, -0.0150632709, 0.0056182737, -0.0361051522, -0.0075463993, -0.0501534231, -0.0178621374, -0.0131458389, -0.0081032822, -0.0129931709, -0.0225852877, -0.0119289607, 0.0064853532, -0.0091947624, 0.0057267109, -0.0063719116, -0.0129607618, 0.0030392332, -0.0135136498, -0.1235471368, -0.0659744367, -0.0474208370, 0.0257914029, -0.0139450729, 0.0107663050, -0.0089514432, -0.0161598008, -0.0000562332, -0.0288363434, -0.0082588317, -0.0335786119, -0.0083303573, 0.0017511962, 0.0379202180, 0.0163507853, 0.0030203722, 0.1488680393, 0.0049346294, -0.0048627779, -0.0123289218, -0.0053914771, -0.0055638310, -0.0064793765, -0.0196187161, 0.0577755459, -0.0157538373, -0.0368186310, -0.0106577221, -0.0325956531, -0.0243780185, -0.0385048725, -0.0021633990, -0.0186849982, 0.0362186842, -0.0081487568, -0.0040007625, -0.0161967389, 0.0032354973, -0.0150649464, -0.0716645122, -0.0118376650, -0.0330476947, -0.0100268181, 0.0063694767, -0.0100770658, 0.0098697534, -0.0248193443, -0.0005311230, -0.0004473536, -0.0012306472, -0.0001095666, -0.0025295760, -0.0012020114, -0.0000023172, -0.0000082521, -0.0012365718, -0.0011528681, -0.0012445261, 0.0005410432, -0.0018537254, -0.0010908993, 0.0000221346, -0.0002470984, 0.0045468560, 0.0116828671, -0.0008355902, 0.0012394267, -0.0035502284, -0.0003562126, -0.0002644953, 0.0016289852, -0.0005839879, 0.0009182785, -0.0001201696, 0.0010104199, -0.0009079025, 0.0011683513, -0.0086690132, -0.0076109790, -0.0007463540, -0.0029606468, 0.0008799346, 0.0008185958, 0.0000432857, 0.0003070750, 0.0009814268, 0.0009686601, 0.0008142518, -0.0025825927, 0.0000862109, 0.0016636977, -0.0011933377, -0.0008436198, -0.0002196895, 0.0023697617, -0.0006371283, -0.0008361052, -0.0013695663, -0.0021729562, 0.0001484172, 0.0015474667, 0.0007589135, -0.0032452333, 0.0030422199, 0.0005615431, 0.0006783036, -0.0012893248, 0.0008852172, -0.0024600970, 0.0009743688, -0.0003239700, -0.0026104967, 0.0009736072, -0.0000964280, -0.0000695474, -0.0120784054, -0.0018002733, -0.0002268890, -0.0000587319, -0.0014900115, -0.0013284620, -0.0013017330, -0.0012678704, -0.0011775835, -0.0010663944, -0.0008024728, 0.0002714621, 0.0013012489, 0.0040318221, 0.0009666685, 0.0004214590, -0.0055351797, -0.0011876160, -0.0009185973, 0.0018496595, -0.0013845827, 0.0078087496, -0.0007846876, 0.0075926301, -0.0018960217, -0.0007968382, -0.0044952412, -0.0013730357, -0.0020490680, 0.0023433245, -0.0006874531, 0.0012060984, -0.0009347021, -0.0004830021, -0.0022273876, -0.0015117758, -0.0084133381, 0.0006596943, -0.0023386353, 0.0004271914, 0.0009970940, -0.0014247665, -0.0022228584, 0.0076493607, -0.0022408706, -0.0006415212, -0.0006003882, -0.0016248418, 0.0000929865, -0.0024566452, -0.0027454905, -0.0034441077, 0.0022254610, -0.0019142776, 0.0071338136, -0.0047116140, 0.0013118250, 0.0029373763, -0.0004196882, 0.0068300269, -0.0023604541, 0.0013487622, -0.0037693449, -0.0013707110, -0.0025753917, -0.0008016460, -0.0008023947, 0.0009565089, -0.0012929492, -0.0006598160, -0.0003057217, -0.0015400858, -0.0014145530, -0.0005437582, -0.0008956200, 0.0035161762, 0.0000387809, 0.0025208304, 0.0025200006, 0.0003996094, -0.0057401145, -0.0009964081, -0.0001613530, 0.0011244604, -0.0007519121, 0.0091615086, 0.0000789370, 0.0092742499, -0.0004814915, -0.0002222852, -0.0034754209, 0.0023828901, -0.0023094551, 0.0040710159, -0.0008844753, -0.0001264178, -0.0003100555, 0.0007715823, -0.0036263114, -0.0031330043, -0.0067525678, 0.0012362128, -0.0015076103, 0.0019508974, 0.0024307142, -0.0031746684, -0.0021874069, 0.0093453126, -0.0010802111, -0.0009259505, 0.0008789166, -0.0020285114, -0.0002183808, -0.0016330350, -0.0071736309, -0.0029674575, 0.0014465409, -0.0020927640, 0.0089098709, 0.0081048962, 0.0004267070, 0.0024686388, 0.0006572115, 0.0080208797, -0.0011188177, 0.0002661229, -0.0019345186, 0.0008249518, -0.0007574048, 0.0002499463, 0.0006781950, 0.0009016040, 0.0004535438, 0.0009192100, -0.0017937873, 0.0011734732, -0.0018315555, -0.0018815950, 0.0008931789, 0.0007032159, -0.0026318133, 0.0057400749, -0.0011392074, 0.0023974788, -0.0019150155, 0.0014726687, -0.0001513269, 0.0018107535, -0.0001689007, 0.0017347799, 0.0004510861, 0.0009780625, -0.0009089304, 0.0008608041, -0.0060706264, 0.0000551456, 0.0019126413, 0.0018716679, -0.0000971590, -0.0006531882, 0.0026598165, -0.0000292541, 0.0006189467, -0.0004366229, -0.0039309263, 0.0035658726, 0.0000351663, -0.0010462085, -0.0001880956, 0.0006820789, 0.0011607442, 0.0022149009, 0.0003319574, -0.0001386315, 0.0035735525, -0.0013591737, 0.0011748727, 0.0014960187, 0.0006021814, 0.0004497182, 0.0041615381, 0.0009477307, 0.0004210026, 0.0055402117, 0.0009353154, 0.0074587120, 0.0020757143, 0.0008434031, -0.0012246964, 0.0021024719, -0.0013421498, 0.0013840660, 0.0001237143, 0.0001496072, 0.0014888475, 0.0013693438, 0.0009524656, 0.0007158610, -0.0066910367, -0.0004132231, -0.0003942958, -0.0015731815, 0.0002504906, 0.0005844025, -0.0030428402, -0.0046251593, 0.0008560927, 0.0020166736, 0.0010548695, 0.0005273001, -0.0003198527, 0.0020114537, -0.0002740207, 0.0113327410, 0.0002749614, 0.0094340453, -0.0016508736, 0.0000841295, -0.0028283268, 0.0024071934, 0.0015059728, 0.0040349253, -0.0010943078, -0.0000793614, 0.0017500976, -0.0007388486, -0.0019465178, -0.0023530726, -0.0041940035, 0.0125224702, -0.0020295025, -0.0015373479, 0.0042206920, 0.0004855587, 0.0003225280, 0.0091878856, -0.0001330370, -0.0004264780, 0.0031149671, -0.0004911241, 0.0003810955, -0.0026118571, 0.0004274383, 0.0005796933, -0.0014862433, -0.0001829501, 0.0083027929, -0.0013822997, 0.0018759555, 0.0026632994, 0.0011045116, 0.0109592071, -0.0013500251, 0.0034843155, -0.0008454688, -0.0000951830, -0.0051861485, 0.0012873211, 0.0014591120, 0.0025707998, 0.0004226527, -0.0005045423, -0.0053488752, -0.0001634403, 0.0004333128, -0.0004576021, 0.0001350325, 0.0011845741, -0.0025398785, -0.0077306163, 0.0052334163, 0.0016299563, 0.0076799938, -0.0006782932, 0.0012740861, 0.0012046571, -0.0003426223, 0.0166994743, 0.0009876571, 0.0151046403, -0.0004487193, 0.0010034717, 0.0001220586, 0.0073318137, 0.0007247220, 0.0059757372, -0.0007366874, -0.0008736947, 0.0020551723, 0.0016900417, -0.0020521085, -0.0015312333, -0.0017743971, 0.0090485597, -0.0003318503, 0.0013836923, 0.0083415871, -0.0015616448, 0.0004756740, 0.0142894909, 0.0007087686, 0.0001729450, 0.0035824098, -0.0007658552, 0.0008693291, -0.0006633219, -0.0003559477, 0.0017167279, -0.0017739445, -0.0003354296, 0.0140559031, 0.0025957760, 0.0013647249, -0.0000160495, 0.0017346775, 0.0164272692, -0.0004840643, 0.0020264806, 0.0020719154, -0.0018085997, 0.0057153758, -0.0002870229, 0.0006691774, -0.0018370865, -0.0013163089, 0.0013867879, -0.0020100111, 0.0008501948, -0.0011270728, -0.0002792382, 0.0005759760, -0.0033922961, -0.0003043098, 0.0002026368, 0.0023104460, 0.0009600876, 0.0031825837, 0.0015319414, -0.0001889102, 0.0018533277, 0.0000028228, 0.0022027125, 0.0000577209, 0.0020890522, -0.0002374277, 0.0017862746, 0.0012869218, 0.0085885329, 0.0003260687, -0.0031443997, -0.0003989541, -0.0013504914, 0.0023935474, 0.0002010428, 0.0003166477, -0.0010424122, 0.0041534239, 0.0028400416, -0.0011638175, -0.0001991326, 0.0023549516, 0.0007009102, -0.0006196708, 0.0031143634, 0.0005565040, 0.0005895130, 0.0036329639, -0.0013326586, -0.0003878135, 0.0013215673, -0.0014176869, 0.0014900238, -0.0085444981, 0.0006353987, 0.0018979306, -0.0103494730, -0.0008359487, -0.0028547221, 0.0008147012, 0.0016664106, 0.0004064115, 0.0027373508, 0.0025758080, -0.0007572878, 0.0014613009, 0.0005653790, 0.0015106351, -0.0022161959, -0.0011640923, 0.0021690216, -0.0024205092, -0.0004553492, -0.0001069589, -0.0009507177, -0.0002579610, 0.0018317652, 0.0031659927, 0.0020979301, 0.0032985492, 0.0008101562, 0.0027274794, 0.0017866378, -0.0006251455, 0.0017999666, -0.0003313926, 0.0069418945, 0.0001038208, 0.0063795885, -0.0016393345, -0.0000981433, -0.0003510023, 0.0037497322, 0.0006674581, -0.0047617266, -0.0009178356, -0.0001419500, 0.0009497642, -0.0006990372, -0.0005705927, -0.0009223648, 0.0100545799, 0.0053734132, -0.0020894567, -0.0008147846, 0.0037679547, 0.0005386797, -0.0017241515, 0.0066450993, -0.0000592736, 0.0004130527, 0.0013856350, -0.0001543114, -0.0013126064, -0.0018140448, -0.0000658630, 0.0012632839, -0.0063279024, 0.0005348620, 0.0060617463, -0.0093798693, 0.0002094980, -0.0019681687, -0.0011031693, 0.0065028970, 0.0012985714, 0.0031299414, 0.0051952875, -0.0007647984, 0.0027226177, 0.0009304490, 0.0014047789, -0.0013994825, -0.0009217038, 0.0009570529, -0.0032588535, 0.0004976870, 0.0001838986, -0.0005911043, -0.0007001175, 0.0039711986, 0.0021351194, 0.0026473014, 0.0065718945, 0.0006117602, 0.0029719588, -0.0003032537, 0.0000264171, 0.0005039825, -0.0009266653, 0.0104894675, -0.0001865659, 0.0102348328, -0.0016896084, -0.0000908671, -0.0001469008, -0.0000788160, 0.0002864742, -0.0060217753, -0.0016301591, -0.0011997561, 0.0010079785, 0.0001183594, -0.0001155101, 0.0010256399, 0.0116498293, -0.0084285149, -0.0004542836, 0.0012191854, 0.0059164106, -0.0001055392, -0.0005563484, 0.0104044285, -0.0006746080, 0.0005866808, -0.0003523013, -0.0005876774, 0.0002751895, -0.0005026880, 0.0012788944, -0.0013476432, -0.0053770258, 0.0010166254, 0.0099861249, -0.0103101339, -0.0006017078, -0.0025923476, -0.0005384681, 0.0101761511, 0.0305187423, -0.0003741203, 0.0482761115, 0.0142700328, 0.0155357337, 0.0264136884, 0.0022461456, 0.0115968864, 0.0093244966, -0.0011489582, -0.0030163752, -0.0072752708, 0.0121278316, -0.0006610341, 0.0198013075, -0.0670852065, -0.0944433957, -0.0456271023, 0.0173581056, -0.0059118620, 0.0040267631, 0.0123629859, -0.0034027777, -0.0027057272, 0.0187564008, 0.0148766870, 0.0042359945, 0.0180564448, 0.0036328204, -0.0141968885, -0.0060254699, 0.0005813488, 0.0076277964, -0.0090052122, 0.0063015549, -0.0002545011, -0.0047843526, -0.0039428086, 0.0028342181, 0.0112743666, 0.0138041377, -0.0140560884, 0.0204452462, -0.0085437745, 0.0168147068, -0.0099104345, 0.0131767206, 0.0095253978, -0.0040570539, 0.0020046295, -0.0082171345, -0.0032710803, -0.0103505841, 0.0083880061, 0.0353158116, -0.0029354231, -0.0464322269, -0.0065803682, 0.0184363816, -0.0646004751, 0.0001342589, -0.0706897900, 0.0029444154, 0.0201334488, -0.0049983747, 0.0021224669, 0.0117311357, -0.0127876354, 0.0024648341, 0.0043703932, -0.0045070481, 0.0007318298, -0.0045557371, 0.0116020795, 0.0001372408, 0.0164965633, 0.0094674788, -0.0021635699, 0.0194878541, -0.0253217444, -0.0375549644, -0.0550694130, 0.0008606549, 0.0072587770, -0.0024394493, 0.0033041537, 0.0272979420, -0.0074358042, 0.0201126765, 0.0189566780, 0.0187140629, 0.0205572136, 0.0009548669, 0.0031334932, 0.0049800896, 0.0151993725, 0.0044926875, 0.0354943499, -0.0168679617, 0.0058799367, 0.0074972580, -0.0035098889, -0.0083897691, 0.0136556486, 0.0213079341, 0.0072898651, 0.0000308723, 0.0056757214, 0.0012461183, 0.0022327590, -0.0351667888, 0.0125615280, 0.0165676661, 0.0062539582, 0.0490902513, -0.0180378705, -0.0089999791, -0.0162653457, -0.0183748174, 0.0348256491, -0.0362666734, -0.0204561967, 0.0215756278, -0.0685155168, 0.0213285498, 0.0013546074, -0.0006994547, 0.0226419494, 0.0085025411, -0.0089572733, -0.0674953833, -0.0042883470, 0.0043171588, 0.0051116082, -0.0128670810, 0.0017775700, 0.0013881099, 0.0185172670, 0.0322727636, -0.0027788673, -0.0068341885, 0.0089475010, 0.0118346559, -0.0308131706, -0.0802378953, -0.0512930006, -0.0261522699, 0.0009801864, 0.0046343077, 0.0180114340, -0.0091726631, -0.0189903658, 0.0087546622, -0.0133724771, 0.0065171467, -0.0119936252, -0.0107598482, -0.0100854477, -0.0067211054, 0.0282135885, 0.0225699991, 0.0372098871, 0.0096074920, 0.0023368362, -0.0175350085, -0.0184792578, 0.0080946377, 0.0106773805, 0.0518722981, 0.0004655342, -0.0033044948, -0.0124987485, -0.0250611696, 0.0050414596, 0.0229334962, -0.0163595527, 0.0055463668, -0.0002935831, 0.0436287671, 0.0061100349, 0.0019993498, 0.0087062074, 0.0101131881, 0.0006768585, -0.0116387215, -0.0010961134, -0.0107154408, 0.0572127849, 0.0015365967, -0.0084831268, -0.0060527832, -0.0128951250, 0.0143242404, -0.0139054740, 0.0272795781, 0.0014173414, 0.0293844938, 0.0097176246, 0.0012648911, 0.0064497269, 0.0058352575, 0.0003736116, 0.0161979906, -0.0177416112, 0.0022186744, -0.0145997973, 0.0147729386, 0.0114091113, -0.0261204634, 0.0208608974, -0.0097581865, 0.0007818645, -0.0555326715, 0.0059933891, 0.0005575849, -0.0044399230, 0.0002677783, -0.0144543527, -0.0234699231, -0.0145947002, -0.0124386344, 0.0053622993, 0.0412465744, 0.0269462205, 0.0215696208, -0.0566492118, -0.0040725907, 0.0001636908, 0.0027811436, -0.0000447679, -0.0030954699, 0.0041450378, -0.0159690101, -0.0691243708, 0.0085552139, -0.0079686251, -0.0045338520, -0.0206174701, 0.0034676122, -0.0233805962, -0.0135150859, 0.0100634424, -0.0315925851, 0.0034226386, -0.0108540412, 0.0179578774, 0.0238444600, -0.0259121656, -0.0234068446, -0.0082502225, -0.0151455309, 0.0368257575, -0.0226220079, -0.0764126629, -0.0069077723, -0.0083731432, -0.0206640605, -0.0089386851, 0.0317008123, -0.0239746980, 0.0046125031, 0.0011973017, -0.0003704492, -0.0152047742, -0.0144225927, -0.0099758524, 0.0033278177, 0.0047295848, -0.0067149089, -0.0123841939, 0.0001002399, 0.0082436018, 0.0208642334, -0.0246879868, -0.0141523704, 0.0003988794, -0.0512925684, -0.0127605833, 0.0189881548, -0.0080865016, -0.0054104668, -0.0014952185, -0.0155584030, -0.0057781315, -0.0329600386, -0.0058858730, 0.0029775626, 0.0362701155, -0.0156348739, -0.0300418157, -0.0172138568, -0.0038189136, 0.0055469135, -0.0007874535, -0.0130835706, -0.0027344308, -0.0336043313, -0.0102128154, -0.0094889402, 0.0021716864, -0.0100130765, -0.0062551815, -0.0338317193, -0.0134820929, -0.0047632651, -0.0144140823, -0.0031095992, -0.0016608924, -0.0122456234, -0.0223130882, -0.0092274556, -0.0031823639, -0.0475343689, -0.0243735090, -0.0055825240, 0.0477768593, 0.0055042622, -0.0754795000, -0.0099731432, 0.0033583883, 0.0059683579, -0.0072583635, 0.0114521245, -0.0173022188, -0.0319705568, 0.0056472169, -0.0025419139, -0.0138880098, -0.0097266985, 0.0033003457, -0.0069524120, -0.0161839500, -0.0024381180, 0.0096123163, 0.0157440975, -0.0099919392, 0.0030109247, -0.0562552102, -0.0049165385, -0.0150283277, -0.0223431643, -0.0141322268, -0.0130982921, -0.0112047214, -0.0069150752, -0.0116183907, -0.0139616132, -0.0168487988, -0.0190618932, -0.0284586381, 0.0007733863, 0.0096761789, -0.0024123946, 0.0012833729, 0.0119129838, -0.0098194405, -0.0065891193, -0.0196833014, 0.0153673403, 0.0025584858, -0.0244760122, 0.0130305449, 0.0057917647, -0.0011747308, -0.0141276149, 0.0042273412, 0.0020410800, -0.0199156422, -0.0195385478, -0.0146612832, 0.0048842812, 0.0143828522, -0.0045438050, -0.0133033916, 0.0198641364, -0.0205444079, -0.0395423919, 0.0068468652, -0.0162372496, 0.0295126606, -0.0086408649, -0.0614724122, -0.0054523759, -0.0097913584, 0.0253966209, -0.0200712606, 0.0289717522, 0.0063881185, 0.0097826952, -0.0010558704, -0.0010696829, -0.0027972136, 0.0005749408, 0.0072062169, 0.0263050124, 0.0064620459, 0.0054877470, 0.0056103044, -0.0036080631, 0.0423830263, 0.0642120838, 0.0970769003, -0.0066849692, -0.0107277371, 0.0207390487, 0.0108328220, -0.0013183071, 0.0019697780, 0.0046069901, -0.0307363328, -0.0152464602, -0.0287878681, -0.0074117561, 0.0061225886, 0.0544770509, -0.1045029089, 0.0175544452, -0.0588651299, 0.0006439204, -0.0021258446, 0.0058891559, -0.0007902461, -0.0127866743, 0.0053339587, -0.0004407165, -0.0416259766, 0.0012428091, -0.0144743659, -0.0091789169, -0.0249557756, 0.0093346909, -0.0338256396, -0.0140523771, 0.0213243607, -0.0106791994, 0.0082232617, 0.0034913584, 0.0093405349, 0.0078036813, -0.0070437859, -0.0116758505, -0.0028387918, -0.0258670375, 0.0267345160, -0.0141095445, 0.0210427213, 0.0031440307, -0.0255937129, -0.0030768700, -0.0060051875, 0.0273772255, -0.0092058256, -0.0328784473, 0.0013732833, 0.0117011899, -0.0095238583, -0.0131323291, 0.0039226641, 0.0022272808, 0.0237181131, 0.0016415180, -0.0029313571, -0.0177810788, 0.0360080823, 0.1731695384, 0.0866489708, 0.0049569644, -0.0064888941, -0.0076260390, 0.0013241131, -0.0037990124, 0.0102675334, 0.0050320467, -0.0009085578, -0.0053658928, 0.0023779771, -0.0044488809, -0.0031188298, -0.0303819086, -0.0726843849, -0.0027729310, -0.0924510732, -0.0142982965, -0.0019551490, 0.0104531273, -0.0010411533, -0.0104805958, -0.0108072134, -0.0621133856, -0.0164093394, -0.0086342990, 0.0035357957, -0.0032060770, -0.0140275685, -0.0159210674, 0.0007385242, -0.0059960932, 0.0053516421, -0.0130611537, -0.0111528728, 0.0048742276, -0.0055228467, 0.0077116839, 0.0093329148, 0.0101301977, -0.0195667539, 0.0059776227, 0.0819605067, 0.0059826057, 0.0012723409, -0.0033675521, -0.0006230628, 0.0037653586, 0.0020859642, 0.0241066292, -0.0114199575, -0.0767415836, 0.0074705891, 0.0156193674, -0.0018730109, 0.0032797926, 0.0216961298, -0.0227314383, 0.0061671552, 0.0106690796, -0.0023155925, 0.0217299834, 0.0550478511, 0.1828934699, 0.0451686159, 0.0176529139, 0.0042960476, 0.0047193808, 0.0090391729, -0.0049498347, 0.0122557543, 0.0023002280, -0.0061596381, 0.0132829007, -0.0003851364, 0.0192262400, 0.0017664174, -0.0374732912, -0.1626540422, 0.0168267637, -0.1084193662, 0.0170635208, 0.0031873879, 0.0026938261, 0.0045738490, 0.0000176723, 0.0085654818, -0.0575045422, -0.0200324226, 0.0004666250, 0.0157142486, -0.0020679664, 0.0148595311, -0.0027057922, 0.0040624556, -0.0037783887, 0.0079477988, -0.0274997540, 0.0162914786, 0.0203825515, -0.0028464778, 0.0275562163, 0.0196594931, -0.0106314877, 0.0208947528, 0.0028292318, 0.0406530164, 0.0055853305, -0.0350542478, -0.0032156915, -0.0088868542, -0.0387155674, -0.0009187135, -0.1610074788, -0.0094158063, -0.0999120176, -0.0034222042, -0.0271660704, 0.0110444846, 0.0101453559, 0.0129069723, -0.0965611637, 0.0173770990, -0.0142180324, -0.0056823641, 0.0026277332, -0.1071043611, 0.0650388449, -0.0045586945, -0.0404514894, 0.0306541007, 0.0015192201, 0.0008926582, 0.0150204739, 0.0128514385, -0.0070753265, -0.0331675038, -0.0265678447, -0.0269018617, 0.0172114130, 0.0234894715, -0.1689891517, 0.0282448679, -0.0027739918, -0.0663205907, -0.0235458352, 0.0208197888, -0.0083178710, 0.0125459665, -0.0323473290, 0.0285235606, -0.0872522295, 0.0620565452, -0.0128587112, -0.0028627522, -0.0238151476, -0.0076007862, -0.0437764265, -0.0180842802, -0.0136950873, 0.0002106107, -0.0432140417, -0.0093631232, -0.0081099039, 0.0100429812, -0.0233444106, 0.0087315049, -0.0122884735, -0.0147883622, -0.0243864115, 0.0499313138, -0.0025707230, -0.0291750003, -0.0085370140, -0.0421579741, -0.0091487169, 0.0164550189, -0.1333332807, 0.0062446063, -0.0186811909, -0.0053504873, 0.0221354030, 0.0010940864, 0.0078366306, 0.0275117774, 0.0102860527, -0.0066137239, -0.0214848872, 0.0064031561, 0.0034054522, -0.0586878657, 0.1393007487, 0.0908246115, -0.0133547038, 0.0140599227, -0.0409193859, 0.0004848018, 0.0219146293, -0.0001072898, -0.0205734950, -0.0517199673, -0.0158933010, -0.0400168560, 0.0001698787, 0.0218380764, -0.1044184268, -0.0154634016, 0.0013193191, -0.1554924846, 0.0091194725, 0.0028125658, 0.0047965813, -0.0091459826, 0.0044043753, -0.0036789747, -0.0937197804, -0.0745165870, -0.0132720498, 0.0049326275, -0.0311197173, -0.0013998501, -0.0108993966, -0.0324296094, -0.0014007394, 0.0040406664, -0.0677659139, 0.0224028807, -0.0103308149, 0.0060834978, -0.0128488028, -0.0207043849, 0.0321279168, -0.0096960515, -0.0381223224, -0.0344203301, 0.0145423301, -0.0788685977, -0.0065618716, -0.0568007790, 0.0039283852, 0.0264764037, -0.0293110739, -0.0021214269, 0.0289246775, -0.0012570169, 0.0338473096, 0.0261329953, 0.0421141349, -0.0144975614, -0.0465913713, -0.0053185089, -0.0248251706, 0.0285579544, -0.0126907751, 0.0061554019, 0.0177652407, 0.0138848638, 0.0351674519, -0.0088567147, -0.0554831177, -0.0025535054, -0.0034428972, 0.0002572299, 0.0166258160, -0.0204501394, 0.0236085355, -0.0052465908, -0.0243262108, -0.0024525283, -0.0494846925, -0.0376136936, -0.0031811465, -0.0952150375, -0.0058071138, 0.0075074928, 0.0021649010, -0.0191842578, 0.0240571406, -0.0001499758, 0.0158989765, -0.0028487241, 0.0014918783, 0.0192199424, 0.0142393410, 0.0447963737, 0.0086149722, 0.0017432339, -0.0102798603, -0.0004159985, -0.0190409124, 0.0041602007, -0.0134198079, -0.0214981027, 0.0317175277, -0.0400688909, -0.0300255623, 0.0048865005, -0.0016721073, -0.1032770053, 0.0252202209, -0.0215111375, -0.0108307265, -0.0192438494, -0.0053474419, 0.0135981413, -0.0429911129, 0.0040163337, -0.1114483550, -0.0077204565, -0.0048153531, 0.0128517523, 0.0114052724, 0.0078385146, -0.0869933590, 0.0365678594, -0.0005972568, -0.0059202844, -0.0245374870, 0.0006488511, 0.0594206043, -0.0007127023, -0.0255182516, 0.0090588247, -0.0241355505, 0.0272547603, 0.0060500391, 0.0280998778, 0.0018040716, 0.0013588899, 0.0495075658, -0.0074161110, 0.0235668104, 0.0259117279, -0.0309965573, -0.0484788343, 0.0193657652, -0.0868571028, -0.0149688628, 0.0004263278, 0.0368873328, 0.0110633783, -0.0054683243, 0.0106958039, -0.0440630652, 0.0460232385, 0.0073373662, 0.0085543822, 0.0117931562, -0.0228844956, -0.0182740297, -0.0026621933, 0.0140976179, 0.0310473926, -0.0022850658, -0.0068250066, 0.0103989234, 0.0252038706, -0.0005313666, 0.0723129511, 0.0900224373, 0.0050800610, -0.0094329901, 0.0502804108, 0.0013783519, -0.0353673473, 0.0326458141, -0.0011736751, 0.0248528700, 0.0304238759, -0.0790537670, 0.0214971527, 0.0137486132, -0.0146944765, 0.0261930190, -0.0073681520, 0.0329596698, 0.0182595309, -0.0170285534, 0.0249095093, 0.0192976985, 0.0227170773, -0.0000557456, -0.0254744403, 0.0072755655, -0.0331097580, -0.0196992755, -0.0106679620, -0.1196627915, 0.0160170514, -0.0048691044, 0.0050473968, -0.0327373706, -0.0220028870, 0.0362904519, -0.0254883096, 0.0214495622, 0.0276520997, 0.0037296847, -0.0749983937, 0.0150014767, -0.0923772827, 0.0119695999, -0.0089456756, 0.0332595296, 0.0000297600, 0.0149192410, 0.0184408668, -0.0739263818, -0.0111935502, -0.0108119566, 0.0116650024, -0.0115873544, 0.0040979125, 0.0456129126, -0.0197440907, 0.0443660170, 0.0238471255, 0.0202356651, 0.0315777101, 0.0057095406, 0.0305646025, 0.0182869975, 0.0476680994, 0.0832547471, -0.0042709396, -0.0275881272, 0.0541889071, -0.0034868924, -0.0170393977, 0.0336782336, -0.0242981017, 0.0286909472, 0.0282802396, -0.0806109831, 0.0158504508, 0.1045517251, 0.0014939473, 0.0046735266, 0.0185339488, 0.0396098681, -0.0098469276, 0.0088863159, 0.0066586295, -0.0034343237, 0.0252294112, -0.0261615589, -0.0321687274, 0.0269022677, 0.0029155132, 0.0278762802, -0.0161409602, -0.0634141117, 0.0134816943, -0.0079761287, 0.0081275674, -0.0039429949, -0.0043579205, 0.0392023437, -0.0044332785, -0.0077552735, 0.0037031819, -0.0042975843, -0.0814742222, -0.0254070144, -0.0188558120, 0.0010455631, 0.0194974095, 0.0086546242, 0.0027132949, 0.0431264788, 0.0593971945, 0.0676493421, 0.0871964544, 0.0019559027, 0.0185361449, 0.0244172495, 0.0456126966, 0.0387530774, 0.0009837629, 0.0274442993, 0.0034145834, 0.0407700762, 0.0347332135, 0.0027557935, 0.0265094358, 0.0598424375, 0.0407657810, -0.0281812213, 0.0149107696, -0.0056501483, -0.0224511046, -0.0075751920, -0.0976347625, 0.0021015722, -0.0059470343, -0.0172568820, 0.0088372594, 0.0391274132, -0.0040344168, 0.0117384130, -0.0128587428, -0.0013271510, -0.0207071826, -0.0030605465, -0.0199080762, -0.1132903919, -0.0096098362, -0.0084208157, -0.0269242544, -0.0449352451, -0.0688407943, -0.0416223630, 0.0748545304, 0.0108500626, 0.0077089649, 0.0161557570, -0.0080355871, -0.0254202951, 0.0125373090, -0.0204275884, 0.0263160896, -0.0254203212, 0.0148672555, -0.0158663895, -0.0071172798, -0.0529806875, -0.1257806271, 0.0212504156, -0.0421314351, -0.0034151289, -0.0085590463, 0.0159297157, -0.0133142220, -0.0304370075, -0.0340743400, -0.0836834237, 0.1177649572, -0.0111040790, -0.0001500540, 0.0235018320, -0.0415753908, -0.0283371191, 0.0213374421, -0.0218965467, -0.0038248484, -0.0551727451, -0.0543270111, -0.0011450034, -0.0143373115, -0.0242124777, -0.0467360578, 0.0345795751, 0.0070331781, 0.0156597700, -0.0621423088, 0.0127274068, -0.0700635239, 0.0137764039, 0.0206079092, -0.0228207447, 0.0228494257, 0.0298750699, -0.0121547021, 0.0343738608, -0.0093882410, 0.0071758204, -0.0395805314, -0.0025872528, -0.0145530747, -0.1030685902, -0.0097045014, 0.0109183947, -0.0316609666, -0.0101275500, -0.0910136923, -0.0295755472, 0.0425290316, 0.0023700027, -0.0088405833, -0.0604822338, -0.0167253856, -0.0368898064, -0.0401958190, -0.0407739356, 0.0212136693, -0.0191892069, 0.0114297448, -0.0316280872, -0.0096507715, -0.0740798041, -0.1888767630, -0.0097638266, -0.1805664152, -0.0053801923, -0.0154542532, -0.0042673964, -0.0096427370, -0.0231173653, -0.0085547436, -0.0781425908, -0.0752087981, -0.0211510267, -0.0264157802, 0.0058350298, -0.0201792512, -0.0140167922, 0.0179018024, -0.0015452023, -0.0183950607, -0.0596423261, -0.0270479396, -0.0004605121, -0.0189841110, -0.0410916582, -0.0683418438, 0.0069754836, -0.0121244835, 0.0122433398, -0.0975220352, 0.0194078367, -0.1067679673, -0.0091532664, 0.0153616387, -0.0377873518, 0.0140531873, 0.0153254615, -0.0040395050, -0.0238335524, -0.0329849832, -0.0424343124, -0.0117530553, -0.0168424156, -0.0067904028, -0.0912650302, -0.0426604673, -0.0358080640, -0.0550680906, -0.0325293615, -0.0088349627, -0.0140290996, -0.0040628915, 0.0153559372, -0.0312251858, -0.0224780645, -0.0195140261, -0.0348050147, -0.0460085124, -0.0146724377, 0.0337154903, -0.0121208159, 0.0221701618, -0.0262603071, -0.0358416103, -0.0853618979, -0.1222656146, -0.0444634967, -0.0485789925, -0.0426938348, -0.0192509443, -0.0189544186, -0.0115835341, -0.0377256088, 0.0063991919, -0.0166340768, 0.0389711671, -0.0138074085, -0.0141179655, 0.0286270082, -0.0194294360, -0.0175900422, 0.0236359816, -0.0024907615, -0.0493080653, -0.0251355302, -0.0261993799, -0.0087600974, -0.0584226772, -0.0345402099, -0.0695151612, -0.0156313758, -0.0187697187, 0.0225939695, -0.0499955006, 0.0098124556, -0.0475333892, -0.0515968949, 0.0314219072, -0.0011702058, -0.0016569854, -0.0038765087, -0.0015595065, -0.0029704766, -0.0015091790, -0.0019437486, -0.0009117580, -0.0004152629, -0.0016024315, -0.0009901739, -0.0018749551, -0.0028839379, -0.0028955978, -0.0014826749, -0.0111858789, -0.0023736216, -0.0010392163, 0.0014887070, -0.0004904339, 0.0000659613, -0.0016978784, -0.0006300514, -0.0000238034, -0.0006566721, 0.0039905831, -0.0023185336, 0.0042680209, -0.0001555296, -0.0022054983, -0.0007424570, -0.0004265509, -0.0032864336, 0.0017228526, -0.0027221127, -0.0013812227, -0.0027235560, -0.0007556929, -0.0020255998, -0.0020141592, 0.0025060179, -0.0044354387, 0.0002125313, 0.0010801948, -0.0020957780, -0.0013476604, -0.0064154761, 0.0050863707, 0.0006849891, -0.0019906680, -0.0010947756, -0.0031484985, -0.0016835425, -0.0015700979, -0.0057973252, -0.0024164757, 0.0076344865, -0.0023630057, 0.0039911834, -0.0011690863, 0.0005298440, 0.0047824844, -0.0005011142, 0.0033573445, 0.0011756816, 0.0004291938, -0.0001879175, -0.0011549628, -0.0076172696, -0.0018214590, 0.0002371829, -0.0003644775, 0.0012882848, -0.0016671863, -0.0044130199, -0.0027577055, -0.0011506607, -0.0003223019, -0.0011027985, -0.0091454973, 0.0002035532, -0.0040131360, 0.0058329045, -0.0003436353, -0.0025975551, -0.0012729741, -0.0011509670, 0.0003117915, -0.0010416356, 0.0133171063, -0.0026455249, 0.0132357636, -0.0011564543, -0.0018232414, 0.0023532331, 0.0032661215, -0.0041298680, 0.0036963257, -0.0035442961, 0.0004757546, -0.0004176390, 0.0001011033, -0.0014375680, -0.0011469276, -0.0072743646, -0.0029021942, 0.0009680655, 0.0008002652, 0.0014524987, -0.0010734516, -0.0016851305, 0.0124584967, -0.0014348839, -0.0005990816, -0.0005504495, -0.0027216810, -0.0019668813, -0.0005747492, 0.0013542701, -0.0032815868, 0.0030478078, -0.0022313115, 0.0124848550, -0.0018221186, 0.0016283448, 0.0017946345, -0.0001491753, 0.0125125898, -0.0000949367, 0.0015371196, 0.0017781052, -0.0008686807, 0.0006749404, -0.0005362551, 0.0001531728, 0.0008081212, 0.0015204172, 0.0004141696, -0.0040860702, -0.0025411220, -0.0011101115, 0.0001879523, 0.0001268581, -0.0038264797, 0.0011488015, -0.0064114546, 0.0066219135, 0.0002667493, 0.0000359058, 0.0003949213, -0.0012784421, 0.0000526614, -0.0003656232, 0.0167000182, -0.0013104179, 0.0160714108, 0.0000037042, -0.0006474861, 0.0039704703, 0.0041943337, -0.0024519174, 0.0049763522, -0.0020383170, -0.0001318261, 0.0007442020, 0.0008180562, -0.0030452313, -0.0030835636, -0.0104786437, 0.0052532400, 0.0011206958, 0.0018842772, 0.0025092543, -0.0008129958, -0.0025279857, 0.0151191875, -0.0007323583, -0.0005328084, 0.0012635014, -0.0019897488, -0.0009896680, 0.0004142467, -0.0016795055, -0.0028676582, 0.0020389606, -0.0008742569, 0.0152666308, -0.0015052229, 0.0020499306, 0.0031795565, 0.0018924783, 0.0158401560, -0.0026723614, -0.0003166845, -0.0056575332, -0.0004306873, 0.0001196063, -0.0010390439, -0.0031564755, -0.0009288730, -0.0017854065, -0.0007191043, 0.0049455096, 0.0009152847, -0.0019974119, -0.0031245023, 0.0009621650, -0.0033321134, 0.0033656072, 0.0008115284, 0.0040352042, 0.0008698712, 0.0012090626, -0.0035810401, 0.0004311635, -0.0002759958, 0.0002303338, 0.0061817802, 0.0011618114, 0.0064369356, -0.0022535084, -0.0016912513, 0.0021728717, 0.0061313515, 0.0014254848, -0.0035031457, 0.0003299664, -0.0007789306, -0.0001284805, -0.0017807722, -0.0018630142, -0.0000806713, -0.0022215943, -0.0019099101, -0.0040134438, -0.0019986012, -0.0017296156, -0.0004374759, -0.0006490820, 0.0077892430, 0.0019405109, -0.0019178521, -0.0022758809, -0.0023172870, -0.0013361607, -0.0030137850, -0.0025836676, 0.0003268608, 0.0020798962, -0.0016761997, 0.0060116136, -0.0038373068, -0.0016844401, -0.0054688416, -0.0004851640, 0.0049407529, 0.0009931878, 0.0019582657, 0.0015371338, 0.0008146604, 0.0013419637, -0.0005804196, 0.0000084197, -0.0000835972, 0.0011477302, -0.0011518534, -0.0014542107, 0.0005386688, 0.0001908168, 0.0000921625, 0.0003473301, -0.0014786326, 0.0014071666, -0.0036317818, 0.0091849351, 0.0015443126, 0.0032912339, -0.0019546966, 0.0006697159, 0.0000319993, 0.0006913082, 0.0223897230, 0.0014770898, 0.0222004931, -0.0003613320, -0.0006507869, 0.0024249274, 0.0047624498, 0.0005996578, -0.0004751320, 0.0000123273, 0.0011565160, 0.0022014293, -0.0007345615, -0.0005627297, 0.0019150879, -0.0037545380, 0.0054470613, -0.0026216290, -0.0012771122, 0.0049236957, 0.0016392682, 0.0033916449, 0.0215741824, 0.0004983305, 0.0003746667, -0.0004522165, -0.0007551346, -0.0014049259, -0.0007303110, 0.0061263405, -0.0004441369, -0.0022617211, -0.0007618999, 0.0212421026, -0.0061988160, -0.0000725487, -0.0001054568, 0.0005243414, 0.0211876724, 0.0007086475, 0.0019848160, 0.0070878989, 0.0006464665, -0.0004176597, 0.0000323334, -0.0005558655, 0.0011416670, 0.0000765684, -0.0016889949, 0.0003896635, 0.0003473615, 0.0006160598, 0.0008937716, 0.0011535254, 0.0030996487, 0.0010172015, -0.0040090918, 0.0089871427, 0.0026685523, 0.0087622683, 0.0001353857, 0.0002533126, -0.0005107810, 0.0007740645, 0.0223041922, 0.0028284260, 0.0227579139, 0.0012591380, 0.0000789161, 0.0034977095, 0.0054178657, 0.0008773509, 0.0000264182, 0.0013069098, -0.0002299674, 0.0029433579, 0.0000957512, 0.0012281949, 0.0008128409, 0.0009116256, 0.0011586467, -0.0018738935, 0.0021749767, 0.0053595905, 0.0005417753, 0.0022119591, 0.0225182828, 0.0002546415, 0.0010567139, 0.0006848188, -0.0006479164, -0.0000727401, 0.0003331249, 0.0041800360, 0.0018700458, -0.0041918373, 0.0005276436, 0.0218291301, -0.0124787912, -0.0003524313, 0.0033890654, 0.0024570774, 0.0210054256, -0.0024912581, 0.0006324167, 0.0065212799, -0.0007352812, -0.0027049733, 0.0002164052, -0.0014036095, -0.0048737517, -0.0022452297, -0.0010687528, -0.0043255938, 0.0027020003, -0.0018690536, -0.0029269643, 0.0003871450, 0.0052506877, 0.0007742661, 0.0145586897, 0.0051173181, -0.0017638153, 0.0008685915, -0.0001808829, -0.0011781921, -0.0008718582, -0.0001561239, 0.0080155870, -0.0031527397, 0.0069607594, -0.0027342665, -0.0002207149, -0.0026217522, -0.0055836150, -0.0021731921, -0.0049714725, -0.0004151680, -0.0018776727, -0.0000405253, -0.0005807554, -0.0009998711, -0.0016805951, 0.0005148475, 0.0039528552, -0.0041354005, -0.0006911053, 0.0019626671, 0.0004398134, -0.0021175616, 0.0076722838, 0.0002586019, -0.0018131007, -0.0009436743, -0.0010552453, -0.0001707835, -0.0034652271, -0.0066542607, -0.0024374330, -0.0093881721, -0.0007321965, 0.0066359849, -0.0031369214, -0.0023936522, 0.0019609546, -0.0026113312, 0.0072281128, -0.0010231137, 0.0024563666, 0.0051849885, -0.0001600609, -0.0039089238, -0.0004899089, 0.0009096306, -0.0031437271, 0.0002952805, -0.0019354374, -0.0071427533, 0.0021393688, 0.0000386317, 0.0004685123, -0.0004940643, 0.0043709879, 0.0068079862, 0.0104711186, 0.0083285701, -0.0010694636, 0.0003117379, 0.0002583312, -0.0000913651, 0.0001684872, 0.0007606844, 0.0137496507, -0.0017155968, 0.0127093466, -0.0007168202, -0.0001431199, -0.0062323571, -0.0052233743, -0.0007782748, -0.0035136321, -0.0004276168, 0.0012383589, 0.0017934978, -0.0005399699, 0.0005799915, -0.0011648552, 0.0030784290, -0.0001688561, -0.0010990340, -0.0003233421, 0.0048678969, 0.0004830250, 0.0003022605, 0.0129152155, 0.0002657298, 0.0009112136, -0.0017427413, 0.0002987694, -0.0005236426, -0.0004417913, -0.0000822627, -0.0013076389, -0.0033599427, 0.0013596296, 0.0123053240, 0.0045827567, -0.0004080272, 0.0009607113, -0.0017648777, 0.0131784156, 0.0027916345, 0.0012684322, 0.0063296314, 0.0019342529, 0.0066385651, 0.0003120482, -0.0007538995, -0.0009270874, -0.0003726194, -0.0036313757, -0.0016470475, 0.0025549114, 0.0013738208, 0.0002938788, 0.0000287264, 0.0058270041, 0.0021500192, 0.0037927965, 0.0071106236, 0.0004894115, -0.0021810431, -0.0000114771, 0.0016683474, -0.0000895181, 0.0011577798, 0.0129495896, -0.0013131237, 0.0122124013, 0.0014617873, 0.0005640117, -0.0062146997, -0.0062758713, 0.0000041208, -0.0020617344, 0.0000195411, -0.0005362483, 0.0006230106, 0.0000837163, 0.0024363350, 0.0003381996, 0.0059101097, -0.0083972821, 0.0005361746, 0.0011775446, 0.0038278284, 0.0003090551, 0.0000082769, 0.0125237415, 0.0001889254, 0.0009511225, -0.0023774859, 0.0006700220, 0.0016682993, -0.0002391872, 0.0006363416, -0.0004473121, 0.0030689822, 0.0019632236, 0.0118692964, -0.0002993455, -0.0013913154, -0.0021207840, 0.0005021761, 0.0121391034, 0.0128050409, -0.0061454247, 0.0075023929, 0.0073258942, 0.0204776395, 0.0022887259, 0.0013677843, 0.0060657435, 0.0028698677, -0.0063521173, -0.0196641721, 0.0031561148, 0.0118563371, 0.0093733910, -0.0028021063, 0.0270063002, 0.0071388725, 0.0491362475, -0.0037579234, -0.0038023836, 0.0042120786, -0.0047569922, 0.0070715295, -0.0045841252, 0.0062489333, -0.0051113428, 0.0086614722, -0.0070877802, -0.0059516137, 0.0013570022, 0.0058809025, -0.0421707593, -0.0024648351, -0.0315217189, 0.0039158193, 0.0095079467, -0.0017938882, -0.0038623738, 0.0101518547, 0.0063976729, -0.0041641435, -0.0016331767, 0.0125424108, 0.0097961146, -0.0077298530, 0.0044502150, 0.0135643603, -0.0007284638, 0.0024832701, -0.0000775596, -0.0024914274, 0.0085422471, -0.0044920039, 0.0067257350, 0.0211306214, 0.0051543573, -0.0072530112, 0.0060946541, -0.0085115535, -0.0093472227, -0.0034051680, -0.0025759602, 0.0054372940, -0.0087637482, 0.0042249747, -0.0027293921, 0.0235045608, 0.0116378088, 0.0024084339, 0.0029572197, -0.0053083310, 0.0074125146, 0.0051152697, 0.0114704045, -0.0308527835, -0.0008135785, 0.0067827892, 0.0092715565, 0.0051221657, 0.0275812857, -0.0020656418, 0.0119469138, 0.0075951046, 0.0055810073, 0.0029943197, 0.0055095428, 0.0098561682, 0.0081216209, 0.0056079123, 0.0301219467, 0.0010262431, 0.0280431323, 0.0035755350, 0.0013417907, 0.0090067741, -0.0317050852, -0.0025014081, -0.0161116663, 0.0113150571, 0.0039792606, 0.0024535430, -0.0008051186, -0.0005887558, -0.0015372862, -0.0101563893, 0.0121227959, -0.0042659789, 0.0059551899, -0.0050513363, 0.0042506466, 0.0130603258, 0.0312154982, -0.0051354398, 0.0109356809, -0.0013440396, 0.0081775291, 0.0026683931, 0.0029845955, 0.0110688182, 0.0056318468, -0.0160281155, 0.0047723032, 0.0264706649, -0.0035806841, -0.0054940013, 0.0023945742, -0.0048907669, 0.0261336435, 0.0118574398, -0.0010291589, 0.0302460175, 0.0082962643, -0.0086525781, 0.0014062452, -0.0098810177, 0.0077327709, 0.0028315354, 0.0042445934, -0.0238732472, -0.0000562029, 0.0107083153, 0.0027449534, 0.0026964380, 0.0520119108, 0.0009377723, 0.0138447285, 0.0117936963, -0.0008143788, 0.0105237253, 0.0025045525, 0.0057114218, 0.0035016197, 0.0112465024, 0.0303596482, 0.0065148328, 0.0289920736, 0.0082791839, -0.0000121357, 0.0047386107, -0.0203692578, -0.0015337260, -0.0204837993, -0.0002384976, 0.0028958910, 0.0044819526, 0.0036924304, -0.0026684916, -0.0042930562, -0.0005507504, 0.0003044590, 0.0083852382, 0.0124878073, -0.0050446824, -0.0033698438, 0.0152996872, 0.0319839530, 0.0023332895, 0.0020181814, 0.0017405510, 0.0060790004, -0.0014618961, -0.0055959662, 0.0045651384, 0.0096304854, -0.0133566642, 0.0083895670, 0.0275893006, 0.0060897516, -0.0020536114, -0.0048808111, 0.0029976498, 0.0264570434, 0.0024282313, -0.0085264295, -0.0011122437, -0.0014610462, -0.0131993247, -0.0032864050, 0.0026162914, 0.0056531434, 0.0067855287, -0.0026948929, -0.0195485707, -0.0009816044, 0.0058458871, 0.0030889874, -0.0037805287, 0.0057948404, -0.0337543115, 0.0239611231, -0.0072843153, -0.0045051924, 0.0087066879, -0.0012129735, 0.0011103519, -0.0058090985, 0.0035370432, -0.0007641655, 0.0039879051, -0.0002372206, -0.0029069898, -0.0030228449, -0.0305176675, 0.0075751548, -0.0078103691, 0.0091451006, -0.0037774916, 0.0056575895, -0.0076199607, -0.0037728611, 0.0058763507, 0.0043936730, -0.0143968556, 0.0139363464, 0.0151399132, 0.0037836547, -0.0049464987, 0.0003455622, 0.0043232781, 0.0057276008, 0.0049412842, -0.0051732035, 0.0073913657, 0.0039390009, -0.0057828217, 0.0085943332, 0.0161067024, 0.0045051090, -0.0010038213, 0.0024836308, -0.0020142826, 0.0235742070, -0.0095099546, 0.0379548743, -0.0003290980, -0.0029159524, -0.0037224309, -0.0003741788, 0.0016311764, 0.0066481307, 0.0085136378, 0.0008710517, 0.0000171767, 0.0008228450, 0.0066842427, 0.0169934668, -0.0507293679, -0.0047373893, 0.0001964548, 0.0020798557, 0.0010451652, -0.0051771794, -0.0126376459, -0.0152116157, 0.0063993027, 0.0074476479, -0.0015862128, 0.0085418951, 0.0010809790, 0.0025511074, -0.0016323089, 0.0496596135, -0.0032517218, 0.0481703542, 0.0043942262, -0.0015294548, -0.0486681312, 0.0007354702, -0.0011088642, 0.0133263255, 0.0005325337, -0.0011708898, -0.0015637396, -0.0039063054, -0.0050445497, -0.0014632435, 0.0004062973, 0.0107378662, -0.0006367188, -0.0030997230, 0.0009810481, -0.0031964513, -0.0019734791, 0.0508604199, -0.0045867153, 0.0028631720, 0.0019921770, 0.0091544930, 0.0029453479, 0.0068537029, 0.0056339419, 0.0058189710, 0.0117433034, 0.0002592612, 0.0459800884, 0.0098849740, -0.0117447395, 0.0165298562, -0.0096161887, 0.0463601649, 0.0118377125, 0.0036943725, 0.0075284927, 0.0003466229, -0.0198562723, 0.0049574794, 0.0000460463, 0.0021503584, 0.0067072390, 0.0053809173, -0.0232654698, -0.0057593705, 0.0013958121, -0.0034556659, 0.0002354963, 0.0086232582, -0.0408522077, -0.0140017569, 0.0181226339, 0.0003660047, 0.0099133626, 0.0033217112, 0.0015739573, -0.0002266341, 0.0066085006, 0.0551016852, 0.0052171983, 0.0550744981, 0.0087372232, 0.0024475437, -0.0407923684, 0.0026337143, -0.0025470513, 0.0173554067, -0.0083996020, -0.0003201711, 0.0037813068, 0.0002492642, 0.0060555139, 0.0055360664, -0.0035355112, 0.0056233536, 0.0116620809, 0.0086436225, 0.0009927045, -0.0051217661, 0.0061490657, 0.0583185852, 0.0034562533, 0.0018029218, 0.0026127638, 0.0059283101, 0.0048933378, 0.0010826355, 0.0023850070, 0.0071866359, 0.0264620390, 0.0082397209, 0.0532737002, 0.0198975205, -0.0066655665, 0.0112916837, -0.0006045655, 0.0512427837, 0.0051558353, -0.0041772402, -0.0346791409, -0.0041521960, 0.0267759487, -0.0040197344, 0.0019836179, 0.0011811578, 0.0047106771, -0.0048109544, -0.0275135525, 0.0078315362, 0.0122371772, 0.0069395746, 0.0055645565, -0.0408753492, 0.0065470221, -0.0213672202, -0.0007159522, 0.0000117771, 0.0172277912, -0.0051338924, 0.0048319013, -0.0019164489, 0.0000706545, -0.0137553988, 0.0069211419, -0.0123848571, -0.0003437175, 0.0049437284, 0.0001750832, 0.0237789135, -0.0049937023, -0.0029271787, -0.0076389681, 0.0021359699, -0.0008452728, 0.0017763574, 0.0088160885, 0.0061531966, 0.0173485167, -0.0298416745, 0.0066029825, 0.0049944962, 0.0000703011, 0.0049634366, 0.0024379569, -0.0107852658, 0.0019948354, -0.0035439564, 0.0053053373, -0.0017205261, -0.0005539117, 0.0063771559, 0.0113060940, 0.0032467667, -0.0261246897, -0.0000332130, -0.0132217901, -0.0005980210, 0.0000657390, -0.0165534336, 0.0028103855, -0.0149562191, -0.0004088765, -0.0002257230, -0.0143286651, 0.0025474550, -0.0126926545, 0.0021364421, 0.0052051614, -0.0015138480, 0.0031323764, 0.0128565384, -0.0399055555, 0.0036443491, 0.0071905418, 0.0005741359, 0.0076292674, -0.0447693579, 0.0079684760, -0.0362833776, 0.0095654158, 0.0081723677, 0.0084914248, 0.0067094062, 0.0089725610, 0.0019528731, -0.0038771878, 0.0268858150, -0.0005322167, 0.0252569187, -0.0016790004, 0.0051527647, 0.0097527131, 0.0173329413, 0.0024435103, -0.0011692184, 0.0021629091, -0.0049097412, 0.0063619786, 0.0039785672, -0.0023673116, 0.0005846754, 0.0038447860, -0.0138434405, -0.0104701351, -0.0005239668, 0.0049023819, 0.0003631156, -0.0020923275, 0.0246432610, -0.0045365342, 0.0018387699, 0.0047470084, 0.0069420300, 0.0108752204, 0.0088796141, -0.0012882060, 0.0045604864, 0.0053025079, -0.0005587820, 0.0239375085, -0.0268062782, 0.0021932311, -0.0144567788, -0.0021648984, 0.0253351461, 0.0112601742, 0.0005558223, -0.0156539790, -0.0032154536, -0.0113527067, 0.0067307376, 0.0036035352, -0.0017604256, 0.0001508224, 0.0038692602, -0.0213997737, 0.0006188319, 0.0049091927, -0.0011854293, 0.0005248684, -0.0446252562, -0.0019257534, -0.0512016080, 0.0126013476, 0.0024412370, 0.0155585147, -0.0017194999, 0.0066422014, -0.0040610326, 0.0013175705, 0.0312474407, 0.0064382683, 0.0290711094, -0.0054973182, 0.0019512279, 0.0185355060, 0.0004335708, -0.0005153851, 0.0018192542, -0.0085860649, -0.0025227119, 0.0117562879, -0.0041113640, 0.0035814627, 0.0043666991, -0.0191116221, -0.0221503247, 0.0024221339, 0.0060778582, 0.0028430668, 0.0096260076, -0.0002556817, 0.0297421627, 0.0040596123, -0.0027951838, 0.0064699687, 0.0051669688, 0.0157658067, -0.0001888839, 0.0087663485, 0.0052275341, 0.0152550088, 0.0078328690, 0.0278356951, -0.0383398086, 0.0077379625, -0.0024597673, 0.0077752820, 0.0290343948, -0.0024759274, 0.0140279327, -0.0298781786, -0.0036921420, 0.0118562225, -0.0003907114, 0.0119165517, -0.0128725739, -0.0083773024, -0.0116191357, -0.0819367394, -0.0092011318, 0.0013544140, -0.0047333040, -0.0023130574, 0.0079018716, 0.0455271080, -0.0107185803, -0.0458045378, -0.0088668615, -0.0142298490, -0.0044711875, -0.0102811465, -0.0123998979, -0.0094521297, 0.0176907275, -0.0018736948, 0.0149201388, -0.0105621088, -0.0112229651, -0.0046379459, -0.0686848685, 0.0019899176, -0.0057571302, -0.0076085753, -0.0064692018, -0.0026472192, -0.0041596619, -0.0031133427, -0.0041147438, -0.0612338558, -0.0101880692, 0.0036333015, -0.0029264376, 0.0178196095, 0.0027448724, -0.0044329916, 0.0068492051, 0.0016905763, -0.0035350237, -0.0225282181, -0.0113722486, -0.0078750746, 0.0013269569, 0.0009692384, -0.0100612985, -0.0058934963, -0.0034003563, 0.0139826564, -0.0546641611, 0.0052263159, 0.0146094831, -0.0049391445, 0.0167725161, 0.0001829972, 0.0140541838, -0.0204195697, 0.0009474969, 0.0320111066, 0.0001072242, 0.0099113947, -0.0051119388, -0.0025548995, -0.0029325720, -0.0831239969, 0.0008986304, 0.0048655071, 0.0007528197, 0.0051499670, 0.0124664176, -0.0006528986, 0.0602873154, -0.0203404985, -0.0071737627, -0.0318705402, -0.0003085302, -0.0038684069, -0.0002481983, 0.0010491966, 0.0129308328, 0.0051816283, 0.0091121811, -0.0027306601, -0.0030637607, -0.0200649705, -0.0656904951, -0.0039814021, -0.0150395641, -0.0013324798, -0.0019903341, 0.0023969533, -0.0085957870, -0.0074595949, -0.0001072648, -0.0572456643, -0.0366907753, 0.0024413532, -0.0026262132, 0.0151766203, -0.0026265702, 0.0045242431, 0.0019076054, 0.0095410002, -0.0004424052, -0.0174045749, -0.0029951197, 0.0058097858, -0.0001132787, -0.0015639752, -0.0011969708, 0.0616648644, -0.0004237233, 0.0089748930, 0.0092081511, 0.0092165060, 0.0572156422, -0.0024093546, 0.0136274500, 0.0019581164, 0.0046810745, -0.0542095862, 0.0033973481, -0.0206119902, -0.0030264677, 0.0034532275, -0.0009421534, -0.0126883509, 0.0023730947, -0.1120818257, 0.0013970245, 0.0009505077, -0.0046649636, 0.0056973291, 0.0006478881, -0.0373445340, 0.0479573011, -0.0021465037, -0.0013981077, -0.0386017822, -0.0033032729, -0.0011975353, 0.0044871005, -0.0056145201, 0.0178861935, -0.0000329239, 0.0179208498, -0.0015880379, 0.0031193495, -0.0272883940, -0.0840080008, -0.0073948451, -0.0189646203, 0.0004733440, -0.0002199895, -0.0049930802, -0.0038354343, -0.0088847922, 0.0022296279, -0.0397556499, -0.0045691198, -0.0025145309, -0.0044616275, 0.0087612364, -0.0082864286, 0.0025098971, 0.0151783023, 0.0065440587, -0.0005881537, -0.0074333567, 0.0015889249, 0.0000125486, -0.0009463544, -0.0150226923, 0.0017985672, -0.0335019305, -0.0084220525, 0.0175901819, -0.0139946863, 0.0013551825, 0.0258469060, -0.0020738775, 0.0178169329, -0.0100076674, -0.0045700865, 0.0632361770, -0.0038229770, -0.0224550292, -0.0157966781, 0.0069214511, -0.0179352649, -0.0108231753, -0.0241668355, -0.0512317047, 0.0138045354, 0.0069886185, -0.0078041740, 0.0017966541, 0.0139714433, 0.0378037728, -0.0288362447, -0.0675685480, -0.0110805342, -0.0238069855, -0.0056133587, -0.0140454955, -0.0228032619, -0.0179261640, 0.0086149704, 0.0053708586, 0.0068648155, -0.0023547420, 0.0002183746, 0.1490530670, 0.0479242019, -0.0012768294, 0.0055207661, -0.0011421427, -0.0103260130, -0.0153344590, -0.0131027428, -0.0119188270, -0.0087929014, -0.0660960898, 0.0027880296, 0.0127105583, 0.0027410395, -0.0005022401, 0.0147110876, -0.0158048030, -0.0007918048, -0.0065295268, 0.0079958867, 0.0229536295, -0.0115783289, -0.0082904296, 0.0044992813, -0.0062857489, 0.0214108694, -0.0172261409, -0.0097033782, 0.0041031488, -0.0827337950, -0.0215864461, -0.0215352103, 0.0056288471, 0.0110111088, -0.0085800355, -0.0127200419, 0.0333967507, -0.0055707116, -0.0020297212, -0.0139324833, 0.0017536709, -0.0110872192, 0.0039059918, 0.0088509545, -0.0161673967, 0.0159234107, 0.0054387846, 0.0205291416, -0.0071241949, 0.0160387233, -0.0240661204, -0.0239030626, -0.0623015091, -0.0073259454, 0.0145906638, -0.0109477993, -0.0157714896, -0.0047795326, 0.0017935251, -0.0081809191, 0.0028836767, -0.0133743715, 0.0150229596, 0.0237912145, 0.2273729444, 0.0854492635, 0.0121842939, 0.0421459675, 0.0106761688, 0.0152271800, 0.0173011720, 0.0167894308, -0.0230428111, -0.0175424106, -0.0741889253, 0.0258105453, 0.0149690751, -0.0022500553, -0.0233463608, -0.0042308322, -0.0007111355, -0.0221772976, 0.0065683653, 0.0129595352, 0.0192888603, -0.0019045715, 0.0461892635, 0.0006818756, -0.0018593755, 0.0293407906, -0.0529147908, -0.0018777886, -0.0150872655, -0.0502037965, 0.0044408543, 0.0006273962, 0.0063184584, -0.0032447367, -0.0114076491, -0.0162117593, 0.0097823255, -0.0119158737, -0.0168140922, 0.0023376523, -0.0216187537, 0.0243296158, -0.0088639110, -0.0005347385, -0.0424871258, -0.0038149015, -0.0251352154, -0.0264948756, -0.0089969644, -0.0007345868, -0.0137905711, -0.0178656373, -0.0277126133, 0.0081910091, -0.0136299431, -0.0052838637, 0.0022358871, 0.0254655182, -0.0055641895, 0.0244859215, -0.0059785512, 0.0195217170, 0.0025306472, 0.0187985376, 0.1647799611, 0.1055229828, 0.0120746475, 0.0326330476, 0.0049169795, 0.0243871938, 0.0026706900, 0.0221115220, 0.0010927196, 0.0154988226, -0.0428812057, 0.0134668909, 0.0225776751, 0.0032677369, -0.0243157968, -0.0194268543, 0.0079930751, 0.0102339918, 0.0133862337, 0.0193595625, 0.0163872186, 0.0115802307, 0.0163374916, -0.0085710948, 0.0018103125, 0.0085671144, -0.0915780365, -0.0064656120, 0.0176689662, -0.0072048176, -0.0102190515, -0.0075634657, 0.0024023612, 0.0287694559, 0.0025255205, 0.0044466890, 0.0115501359, 0.0140097057, -0.0579543486, -0.0092949132, 0.0133172907, 0.0027984020, 0.0129117332, -0.0208738260, -0.0195861757, 0.0099355951, 0.0014227512, -0.0096730273, -0.0039935168, 0.0317724533, 0.0030174218, -0.0008877406, -0.0501222797, 0.0046720384, -0.0537226051, 0.0132679539, 0.0022971034, -0.0003870032, -0.0139660547, 0.0073110536, 0.0307382196, 0.0095994258, 0.0154869463, -0.0008215689, -0.0233226325, -0.1042077467, 0.0103887254, -0.0457021147, -0.0010045242, -0.0058581876, 0.0045437617, -0.0083692297, 0.0017072450, 0.0208358634, 0.0066528027, 0.0165049024, 0.0243323464, 0.0284229200, 0.0152506493, 0.0300707109, -0.0087908991, -0.0114339096, 0.0039594960, 0.0168058723, 0.0131038567, -0.0101159215, -0.0118039558, 0.0266770311, -0.0126782553, 0.0150865680, -0.0047215638, 0.0053969487, 0.0096855462, -0.0383094251, 0.0010847797, 0.0020274194, -0.0101512345, 0.0093705291, -0.0002201029, 0.0004047835, -0.0635410696, 0.0046011102, -0.0023874925, -0.0016178512, 0.0060261609, 0.0056303325, 0.0119233271, -0.0174374916, 0.0573014691, 0.0044593280, 0.0152882813, 0.0059040845, -0.0117696431, 0.0521874912, -0.0465350859, 0.0538795479, -0.0472767130, 0.0041189347, -0.0004578048, -0.0112755252, -0.0033556984, -0.0030512486, -0.0024803288, -0.0140502928, 0.0083015915, -0.0102718864, 0.0108426418, 0.0042402851, 0.0074125296, -0.0806916058, -0.0006625502, -0.0194507036, 0.0054717776, 0.0044321124, 0.0136316298, 0.0036938526, -0.0104952352, 0.0047815912, -0.0407420918, 0.0132000716, 0.0076010833, 0.0009097325, -0.0049896962, 0.0094973827, 0.0020481250, -0.0292609055, 0.0079489034, 0.0256984420, 0.0025862427, -0.0067263213, 0.0310495347, 0.0134209571, 0.0019375215, 0.0268852785, -0.0361699127, 0.0132108387, -0.0099869454, -0.0426198058, 0.0299460087, 0.0362744443, -0.0100182900, -0.0093394695, -0.0088231936, 0.0056561003, -0.0542103276, -0.0066504884, -0.1076690778, 0.0158734005, -0.0213174541, 0.0248470008, 0.0145455441, -0.0060843336, 0.0089551639, -0.0140749030, -0.0174988955, -0.0149597935, -0.0002328395, 0.0737248287, -0.0281126834, 0.0709193647, -0.0201975312, -0.0088837175, -0.0271830056, -0.0126130413, 0.0075401445, 0.0072758058, -0.0316752791, 0.0166276377, -0.0137949008, 0.0185803156, 0.0076683890, -0.0060816198, 0.0107598752, -0.0435503498, -0.0018376471, -0.0057561919, 0.0040786541, 0.0049328078, 0.0117673278, 0.0040949984, 0.0110068135, 0.0141385179, -0.0306615476, -0.0168363731, 0.0152870817, 0.0012586223, -0.0032333212, -0.0176971778, 0.0050547090, -0.0038821758, 0.0156747140, 0.0057850238, 0.0252828095, 0.0304251760, -0.0110257324, 0.0226389300, 0.0179368183, -0.0323211476, -0.0764186904, 0.0139383143, 0.0186405703, -0.0332803838, 0.0207794178, 0.0433944985, -0.0109707862, 0.0201650318, 0.0031228841, -0.0029937821, -0.0603718944, -0.0028250408, -0.0171697121, -0.0007315365, -0.0012213289, -0.0000544002, 0.0029126564, -0.0055750296, -0.0097802207, -0.0091513656, 0.0038759813, 0.0072436430, 0.0044487221, -0.0423498712, 0.0420892015, 0.0232040212, -0.0065096826, -0.0171909519, -0.0437276997, -0.0082876412, -0.0041287285, -0.0135649322, -0.0003585033, 0.0389678404, -0.0100807585, 0.0367456228, -0.0024664914, -0.0118847722, -0.0394197553, -0.0274805240, 0.0037503573, 0.0094388826, -0.0072932574, -0.0117491717, 0.0014858030, -0.0082709678, 0.0055158981, -0.0226859283, 0.0191816147, 0.0305175222, -0.0041622934, -0.0073423469, 0.0103080701, -0.0043045827, 0.0097136274, 0.0388610996, -0.0082040038, -0.0143781509, -0.0082775708, -0.0027676334, -0.0058266749, -0.0049925442, 0.0186066050, -0.0013790828, 0.1568084359, -0.0085473498, 0.0324847065, -0.0565777011, -0.0084021511, -0.0589328855, -0.0044300212, 0.0330108516, 0.0064281537, -0.0117929690, 0.0068304967, 0.0034948678, -0.0055386419, -0.0099291150, -0.0001827760, 0.0045235283, 0.0078381812, 0.0195628628, -0.0166794639, -0.0031519320, -0.0050608017, 0.0030143098, 0.0056114201, 0.0234333798, 0.0060380716, -0.0120419348, 0.0008441637, -0.0229802188, -0.0125346947, 0.0092221713, 0.0028321247, 0.0037351269, -0.0076340213, 0.0358423442, -0.0023863388, 0.0311677493, 0.0076684067, -0.0035769115, -0.0107136583, 0.0424555726, 0.0090781720, 0.0040760036, 0.0095822616, -0.0115144104, 0.0062654279, -0.0032327035, -0.0000694183, -0.0023773448, 0.0158252306, 0.0496867001, 0.0043800441, -0.0021807139, 0.0147178862, -0.0164402947, -0.0000454813, 0.0367064402, 0.0056888927, 0.0015478581, 0.0024141131, -0.0043069483, 0.0053665470, 0.0098404326, -0.0097488845, 0.0088735707, 0.0912836343, 0.0009162134, 0.0250920411, -0.0308284219, -0.0158388931, 0.0019970455, 0.0036711234, 0.0316743739, 0.0178801510, -0.0096449517, 0.0294601731, 0.0052930005, -0.0467680097, -0.0164297037, -0.0033581983, -0.0040314128, 0.0018661341, 0.0084893443, -0.0426435918, 0.0018397239, -0.0113493763, -0.0025360764, 0.0015901615, -0.0232153032, -0.0573113672, -0.0080902139, -0.0003528618, -0.0213215463, -0.0514528006, -0.0018252076, -0.0034012613, 0.0050396915, 0.0011780509, 0.0702487156, -0.0029611045, 0.0675364733, 0.0009689525, -0.0016262861, 0.0247982722, 0.0569564514, 0.0009632388, -0.0041871704, 0.0151268300, -0.0056159873, 0.0008648268, -0.0022296659, -0.0098887999, 0.0069604381, 0.0339960195, 0.0051533231, 0.0063096825, -0.0096706133, 0.0160389971, -0.0081141023, -0.0049380297, 0.0724427775, 0.0049155867, 0.0058251265, -0.0031140137, -0.0035378949, 0.0006764368, 0.0030460539, -0.0225966386, -0.0041292710, 0.0568159409, -0.0080962125, 0.0611126944, -0.0427020676, -0.0187611487, -0.0451202765, 0.0087486580, 0.0660689101, 0.0235767569, -0.0049456554, -0.0412375107, 0.0062267836, -0.0401537120, 0.0107531399, -0.0067468681, 0.0366612971, -0.0191864353, -0.0028189688, 0.0670829788, 0.0087661007, 0.0232660938, 0.0023317588, 0.0089016128, 0.0043018530, 0.0402422473, 0.0040309555, -0.0403131582, 0.0103498129, 0.0712718368, 0.0213691052, -0.0007744696, -0.0099640200, 0.0051054116, -0.0835186541, 0.0368181318, -0.0815257803, 0.0303686652, -0.0167651437, -0.0206310339, 0.0302517060, 0.0067577776, 0.1128899381, 0.0103180576, -0.0117284246, 0.0096710762, 0.0054643149, 0.0380697288, 0.0052695372, -0.1242019311, 0.0515136383, -0.0097140586, 0.0010399950, -0.0084807165, 0.0135760540, -0.0280894209, -0.0840170979, 0.0000086127, 0.0061773895, 0.0441631339, 0.0183485225, -0.0056660161, -0.0004415450, 0.0177932214, 0.0339237340, 0.0999775678, 0.0235497672, -0.0783786923, -0.0886251479, 0.0083187530, -0.0094754826, 0.0357886329, -0.0797574446, 0.0038825150, -0.0197819266, -0.0260156188, 0.0436931588, 0.0980915427, -0.0022842819, -0.0215552785, 0.0107476525, 0.0087976130, 0.0344096608, 0.0988769829, -0.0213080887, -0.0100413589, -0.0186615381, -0.0170820802, 0.0002069896, 0.0024708814, 0.0107568670, 0.0000193471, -0.0070006796, 0.0278578065, 0.0598002300, 0.0080457609, 0.0039885500, 0.0229124688, -0.1454944760, 0.0240072049, -0.1281564981, 0.0499449223, -0.0108790798, 0.0321862735, 0.0137253599, 0.0139973285, 0.0296603423, 0.0031590420, 0.0080896551, 0.0055830986, -0.0100530982, 0.0111973910, 0.0179859661, 0.0005738572, -0.0443258174, 0.0117123239, -0.0014157695, -0.0095807631, -0.0463349745, -0.0027744074, -0.1246243641, 0.0324405134, -0.0135328043, 0.0324892960, -0.0054484783, -0.0284667853, 0.0124965794, -0.0231050160, -0.0075412667, -0.0207418650, 0.0128860688, -0.1232932657, 0.0160521772, -0.0085479449, 0.0131999888, 0.0224644002, -0.1388175040, 0.0471977331, 0.0183283575, 0.0093398057, 0.0671083853, -0.0398965701, -0.0060503497, -0.0105561763, -0.0015776921, 0.0154188778, 0.0483727567, 0.0089185769, -0.0015186794, -0.0185185764, 0.0032362167, -0.0141920336, -0.0349374488, -0.1157253757, -0.0159691293, 0.0252068974, -0.0181028657, -0.0562165193, 0.0174941011, 0.0173071753, 0.0074881664, 0.0355603993, -0.0717390403, 0.0069273077, -0.0543318689, 0.0294806287, -0.0059205093, 0.0126461135, -0.0769472048, 0.0084344614, -0.0204944480, 0.0251630545, 0.0181053206, -0.0008725026, -0.0063972520, 0.0113841612, 0.0558194816, 0.1123450547, -0.0608441271, 0.0233583134, -0.0075190063, 0.0253105629, -0.0154154999, 0.0159284994, -0.0564313866, 0.0243269745, 0.0347906351, 0.0064121266, 0.0234425832, -0.0327659436, 0.0424528643, 0.0095420731, -0.0366965868, -0.1215844601, -0.0020359689, -0.0491830185, -0.0839449763, -0.0100207739, -0.0260688066, 0.0272216816, -0.0649681762, 0.0131820450, 0.0082989177, -0.0050942632, 0.0090264035, -0.0529736094, 0.0164622255, 0.0080765951, 0.0158485994, -0.0120588308, 0.0230822861, 0.0205323510, 0.0236375835, 0.0182201527, -0.0007128369, 0.0224101692, 0.0461485609, -0.0513215624, 0.0574239939, -0.0408220477, 0.0148410890, 0.0425431132, 0.0135010071, -0.0025857640, -0.0222214162, 0.0201800093, -0.0186824799, 0.0265591927, -0.0020628436, 0.0071131974, 0.0188042521, -0.1307321936, -0.0063048285, 0.0008981777, 0.0506349914, 0.0257970169, 0.0011350649, 0.0277432296, 0.0335349739, 0.0179188922, 0.0058626421, -0.0164665170, 0.0520994104, -0.0014148460, 0.0092320852, -0.0043359976, 0.0100508342, -0.0223166049, 0.0091695944, 0.0027489583, 0.0140552474, 0.0052478667, 0.0346098058, 0.0146332458, -0.0083724149, 0.0169450585, 0.0433158539, -0.0351682454, 0.0029793475, -0.0015100595, -0.0043487130, 0.0059417263, 0.0412640683, 0.0264271386, -0.0197347179, -0.0296435431, 0.0034461070, -0.1732704937, 0.0078205653, -0.0129462359, 0.0077039120, 0.0062037939, -0.0038000781, 0.0018020404, 0.0345685631, 0.0698724687, 0.0074303611, -0.0002728859, -0.0015412307, 0.0113524711, 0.0056999684, -0.0774324760, 0.0983629227, -0.0018902088, -0.0077119619, -0.0240637884, 0.0078400336, -0.0026384792, -0.0073981634, 0.0286070108, -0.0462821200, 0.0112940650, -0.0250335913, 0.0117667178, 0.0096433591, -0.1105356589, 0.0106584737, -0.0074859592, -0.0049611316, -0.0019541488, 0.0012129258, 0.0272972565, 0.0167212225, -0.0030008850, -0.0042798929, -0.0158855747, -0.1218695045, 0.0152926575, -0.0012463666, -0.0071688555, -0.0216806643, -0.0144165102, -0.0111631863, 0.0114655346, 0.0073844972, 0.0076747891, 0.0099775596, 0.0112167187, -0.0040110396, -0.0146922441, 0.0155406417, -0.0403600894, -0.0027078853, -0.0260610785, 0.1459442973, 0.0070308275, 0.0212525688, 0.0005021201, -0.0474627838, -0.0047164061, 0.0257198382, -0.1146326736, 0.0144490507, -0.1288847178, 0.0068771476, 0.0246757120, -0.0006300886, 0.0109559745, 0.0141272098, -0.0801867917, -0.0012615942, -0.0035570730, 0.0082309656, 0.0014721716, -0.0447485261, -0.0460982472, 0.0198905263, -0.0437232107, -0.0054129646, -0.1290253699, -0.0005065601, 0.0002588630, 0.0052225026, 0.0240054559, -0.0184907876, 0.0038480007, -0.0071199797, -0.0057995212, -0.0075732628, -0.1094455793, 0.0208557621, -0.0026286663, 0.0023425643, 0.0090853283, 0.0035820161, 0.0280181803, 0.0134450635, -0.0012713219, -0.0064160232, -0.0212825220, 0.0422578976, 0.0246527195, -0.0179716460, 0.0140154008, -0.0129610216, -0.0016614741, -0.0011178781, 0.0024001331, 0.0214344151, -0.0041269423, 0.0137417819, 0.0028455022, 0.0179600399, 0.0035930544, -0.0068927784, -0.0272533912, -0.0061192438, -0.0056390376, 0.0484673008, 0.0210296474, -0.0385028720, -0.0069492999, -0.0164516922, -0.0000428146, -0.0004045933, 0.0001251565, -0.0000274771, 0.0002459784, 0.0001800889, -0.0004121047, -0.0000507081, 0.0000964084, -0.0001417050, 0.0000827255, -0.0000111177, 0.0001526065, -0.0000121446, -0.0000640126, -0.0013204478, -0.0046175472, -0.0017895806, -0.0008213583, -0.0000330104, -0.0003437096, 0.0000086527, -0.0000837586, -0.0000889784, -0.0000462503, 0.0003325823, 0.0000146159, 0.0002133087, 0.0000589149, 0.0001605344, -0.0005216926, -0.0009313817, 0.0000000052, 0.0002554534, -0.0000815744, 0.0000152123, -0.0001138873, 0.0001110908, 0.0000074828, 0.0001969048, -0.0004014215, 0.0002849259, 0.0002016633, -0.0000110950, -0.0004081872, 0.0001174759, -0.0000760216, -0.0000046379, -0.0000087014, -0.0000329436, 0.0004841378, -0.0000557767, 0.0001256068, 0.0001044904, 0.0000618848, 0.0000495053, -0.0006270190, 0.0001030205, 0.0000506537, 0.0009343631, -0.0003589785, -0.0011170404, 0.0000581076, 0.0001878300, -0.0001073830, -0.0005273234, -0.0005442931, -0.0001728404, 0.0004648845, 0.0000902737, -0.0005355963, -0.0001307316, 0.0001246819, -0.0002669031, -0.0000855873, 0.0000555122, -0.0000067394, -0.0000279574, -0.0000239711, 0.0000949216, -0.0045178467, -0.0008797123, -0.0013620193, -0.0000693380, -0.0000620634, -0.0000864898, -0.0000519820, -0.0000349278, 0.0000505169, 0.0001452019, -0.0000579818, -0.0001422459, 0.0000999220, 0.0001088260, -0.0001269116, -0.0014788579, 0.0000522732, 0.0002322824, -0.0000513630, 0.0000030065, -0.0003234473, 0.0000077822, 0.0000256089, 0.0001942000, 0.0001098568, 0.0008122253, 0.0002381354, 0.0000049981, -0.0004580225, 0.0000633373, -0.0000325089, -0.0003591499, 0.0000324337, -0.0001313245, 0.0002910652, -0.0001360807, 0.0000918084, 0.0000804141, 0.0001931519, -0.0000341721, -0.0017190903, -0.0000123353, -0.0002371013, -0.0007939155, -0.0006520923, -0.0006339761, 0.0000787590, -0.0000160287, 0.0001619832, -0.0005423428, -0.0011013540, -0.0000392544, -0.0008001984, 0.0002589764, -0.0004729794, -0.0000412373, 0.0001412573, -0.0002321828, -0.0002741806, 0.0000549963, 0.0001192545, -0.0000314210, 0.0000392208, -0.0003209477, -0.0037493610, -0.0011262085, -0.0012678938, 0.0000122285, 0.0004776876, 0.0000857899, 0.0000595220, 0.0000867033, 0.0000655713, -0.0008949521, 0.0001306941, -0.0009509694, 0.0001444808, 0.0001184324, -0.0006051730, -0.0016894956, 0.0000849016, -0.0001535349, 0.0000490734, -0.0000544670, -0.0001129833, 0.0000956644, 0.0000156022, 0.0002115540, 0.0003472330, 0.0006315131, 0.0003271051, -0.0000081403, -0.0007941101, 0.0001507673, 0.0000611117, -0.0012344081, -0.0000143749, 0.0000066044, 0.0002812479, -0.0000210954, 0.0001415133, 0.0000416658, 0.0002898288, 0.0000946445, -0.0029129719, 0.0000146692, -0.0010204422, -0.0006692310, -0.0005267005, -0.0012090815, 0.0001829217, -0.0008725995, 0.0000623534, -0.0005595903, -0.0007037406, 0.0000491315, 0.0000795582, 0.0000422257, -0.0003179749, 0.0000507774, 0.0000388985, 0.0001542386, -0.0005432783, 0.0001079399, 0.0001252267, 0.0000027768, 0.0001316550, -0.0013869285, 0.0025459949, -0.0011802975, -0.0007037228, 0.0000372816, -0.0000118119, 0.0001233869, 0.0000701988, -0.0000256773, 0.0000492993, -0.0005095957, 0.0000901899, -0.0005404059, -0.0000058587, 0.0002383540, -0.0001183843, -0.0001906745, 0.0000565262, -0.0001344496, 0.0000346575, 0.0000880005, -0.0001739816, 0.0000308622, 0.0000786976, 0.0000988312, -0.0022099379, -0.0013395441, 0.0000760717, 0.0000258032, -0.0008261598, 0.0001748943, -0.0000401621, -0.0005156675, 0.0001249616, 0.0001049984, 0.0000604569, 0.0001506383, 0.0000665912, 0.0000750165, -0.0000146396, 0.0001397396, -0.0004618273, 0.0001161161, -0.0006724712, 0.0022386948, -0.0002998436, -0.0012697097, 0.0000794435, -0.0005693217, -0.0000772704, -0.0008790609, -0.0024112598, -0.0000959270, 0.0011260774, -0.0000821697, -0.0005329938, -0.0000516651, 0.0000278793, -0.0000327557, -0.0007625521, 0.0001872955, -0.0000702551, -0.0000334776, 0.0001382452, -0.0004162320, 0.0023601886, -0.0008001128, -0.0015628752, -0.0000021072, -0.0005430018, 0.0000251828, 0.0000519784, -0.0000182796, 0.0001983331, -0.0009661302, -0.0000137575, -0.0011346000, 0.0000794212, 0.0001484369, -0.0004539642, -0.0008003508, 0.0000791411, 0.0004773789, 0.0000078207, 0.0000768187, -0.0003612473, -0.0000646854, 0.0000525367, 0.0001247293, -0.0010028942, -0.0002136111, 0.0000376123, -0.0000022943, -0.0009911384, 0.0000720133, 0.0000304857, -0.0010427580, 0.0001882794, -0.0000150547, 0.0000773462, -0.0000057756, 0.0000754403, 0.0000259772, 0.0000742260, -0.0000416946, -0.0010162661, 0.0000380944, -0.0011957594, 0.0019750975, -0.0007385719, -0.0008032495, 0.0000559380, -0.0010623772, 0.0001514961, -0.0010750210, -0.0036004195, 0.0001122308, -0.0007830139, -0.0000408552, -0.0006795485, 0.0000427607, 0.0000391850, 0.0000535556, -0.0021496781, 0.0001542238, 0.0000782054, -0.0000688307, 0.0002015903, -0.0013489522, 0.0023046620, -0.0011280896, -0.0012577127, 0.0000981159, -0.0018394643, 0.0002333009, 0.0001672964, 0.0001194793, 0.0001649866, -0.0018466063, 0.0001986349, -0.0018326846, 0.0000821070, 0.0001714256, -0.0019332162, -0.0003744398, 0.0001022316, -0.0001436566, 0.0001591296, 0.0000605263, -0.0002125751, 0.0001164548, 0.0000971259, 0.0001348671, -0.0005735051, -0.0008017240, -0.0000023281, -0.0000169133, -0.0014125475, 0.0002246746, 0.0002145589, -0.0017532696, 0.0001816629, 0.0001753813, 0.0000914034, 0.0001770735, 0.0001499974, -0.0000051600, 0.0001915934, 0.0000173902, -0.0011710840, -0.0000215621, -0.0018722955, 0.0017573814, -0.0008303735, -0.0020149550, 0.0001569489, -0.0018462542, 0.0000571721, -0.0004026956, -0.0013926770, 0.0000537031, 0.0011103485, 0.0001717706, -0.0002749466, 0.0002040699, -0.0000265644, 0.0003259477, 0.0003239023, 0.0001766589, 0.0002146741, -0.0001836412, 0.0002662478, 0.0014118862, 0.0001863385, 0.0014758925, -0.0008566111, 0.0001869773, 0.0012095533, 0.0001538122, 0.0000679377, -0.0000167930, 0.0000349802, -0.0007315035, 0.0000334292, -0.0007062773, 0.0000322619, 0.0003116770, 0.0010060056, -0.0015482405, 0.0000937961, 0.0001970809, 0.0001891750, 0.0001205522, -0.0001487358, 0.0000005455, 0.0001063008, 0.0001861823, 0.0003081222, 0.0000000082, -0.0000060615, 0.0000877314, -0.0006727601, 0.0001690474, -0.0000406329, -0.0009668184, 0.0000602765, 0.0001980400, 0.0000490504, 0.0002991922, 0.0000499098, 0.0001188256, -0.0000337166, 0.0002738959, -0.0001187380, 0.0000187625, -0.0007517820, 0.0018031537, -0.0003374495, -0.0000999007, 0.0002055618, -0.0005793379, -0.0000684073, -0.0008205402, -0.0039766016, -0.0001163816, 0.0008946989, -0.0000768681, -0.0005760530, 0.0001113910, -0.0000787835, 0.0001149703, -0.0006274849, 0.0002379667, 0.0000275988, -0.0002922115, 0.0002226411, 0.0013908354, 0.0006282047, 0.0023528256, -0.0012662520, 0.0001673717, 0.0011723448, 0.0000724873, 0.0000670522, 0.0000454444, 0.0001301864, -0.0005712092, -0.0000820046, -0.0008283327, 0.0000199068, 0.0002020527, 0.0008740728, -0.0006409531, 0.0000128919, 0.0015202551, 0.0001306289, 0.0001224538, -0.0004102432, -0.0001661184, 0.0001494146, 0.0001691482, 0.0000774243, 0.0015435285, -0.0001299411, 0.0000023471, -0.0007502254, 0.0000607301, -0.0000151014, -0.0010407740, 0.0001095076, 0.0000885426, 0.0000230113, 0.0001229258, 0.0000193219, -0.0000386399, 0.0000254778, 0.0001255038, -0.0006695878, -0.0001289915, -0.0008643596, 0.0017531775, -0.0007497113, 0.0002061687, 0.0001374019, -0.0005549491, 0.0001278230, -0.0011041701, -0.0049734395, 0.0001347610, -0.0000801269, -0.0000858188, -0.0007841665, 0.0002102147, -0.0000836363, 0.0002119252, -0.0017219180, 0.0002042515, 0.0001900806, -0.0002837048, 0.0003242643, 0.0000806961, 0.0012368136, 0.0016422170, -0.0010443348, 0.0002527349, -0.0004563460, 0.0003177190, 0.0001821591, 0.0002139624, 0.0000913766, -0.0010509541, 0.0001165035, -0.0011667425, 0.0000199859, 0.0003092105, -0.0000747280, 0.0011744067, 0.0000277217, 0.0011463185, 0.0003412355, 0.0001440667, -0.0003249511, 0.0000763339, 0.0002113290, 0.0001823264, -0.0016537980, 0.0005175184, -0.0001896203, -0.0000692810, -0.0011263762, 0.0002196080, 0.0001740277, -0.0013069486, 0.0001499281, 0.0003036180, 0.0001999720, 0.0003050949, 0.0000628610, -0.0000803871, -0.0000053558, 0.0001686533, -0.0001970691, -0.0002345100, -0.0012479406, 0.0028436014, -0.0008691705, -0.0006253193, 0.0002890106, -0.0010207865, 0.0002281225, -0.0000934195, 0.0010365697, 0.0002422015, 0.0012029067, -0.0000122689, -0.0004311334, -0.0000483581, 0.0001817107, 0.0005141582, -0.0039581191, 0.0003331392, 0.0005382287, 0.0000624053, 0.0006274400, 0.0020088120, -0.0099469079, -0.0007578285, -0.0028496915, -0.0000929258, 0.0024436857, 0.0002525200, 0.0003598641, 0.0003295849, 0.0001434499, -0.0006413509, 0.0002514302, -0.0005393716, 0.0002835097, 0.0005369901, -0.0004140676, -0.0031812843, 0.0002623381, 0.0026570156, 0.0003977694, -0.0000562272, 0.0000972053, 0.0007528283, 0.0001934806, -0.0002817386, 0.0035862892, 0.0012410061, 0.0000493778, 0.0003623740, -0.0000778513, 0.0003249773, 0.0001097408, -0.0010569426, 0.0001333220, 0.0001456734, 0.0004550784, 0.0002926011, 0.0001477857, 0.0004734467, -0.0001279486, 0.0005089442, -0.0054877051, -0.0000325714, -0.0008215015, 0.0011377564, -0.0004374820, -0.0021587522, -0.0002019454, -0.0007301916, -0.0000149427, -0.0006743108, -0.0024567212, 0.0001582218, 0.0008884273, -0.0002622143, -0.0005034781, -0.0003512177, -0.0000193818, 0.0002901018, -0.0031328143, 0.0000498123, 0.0002198868, 0.0000244370, 0.0000229983, 0.0031105801, -0.0129347788, 0.0006755428, -0.0048713777, -0.0000456443, 0.0031124619, -0.0003626603, -0.0002799612, 0.0001380779, -0.0003143027, -0.0011859522, 0.0000917965, -0.0016225042, -0.0001754405, 0.0003561379, -0.0009111919, -0.0029662533, -0.0001607558, 0.0031865744, 0.0002528187, -0.0004229737, -0.0001338372, 0.0000045656, 0.0002615336, -0.0002120150, 0.0051271254, 0.0004912852, 0.0000848997, -0.0003598529, -0.0004416683, 0.0000844564, -0.0003328705, -0.0025884379, -0.0000316708, -0.0002723673, 0.0008732919, 0.0000503470, 0.0003488185, 0.0000893098, -0.0002568197, -0.0000418583, -0.0069554895, 0.0001429306, -0.0019705447, 0.0014630994, -0.0006228458, -0.0025207989, -0.0002803977, -0.0012218865, 0.0003936719, -0.0010890951, -0.0031539691, 0.0004818402, -0.0041190879, 0.0001916841, -0.0005045902, 0.0003817111, 0.0002228342, 0.0004969267, -0.0020006034, 0.0004232157, 0.0005909611, 0.0004023018, 0.0004765733, 0.0005360519, -0.0110909715, -0.0022195373, -0.0048483917, 0.0001304273, 0.0016962098, 0.0002807183, 0.0003346739, 0.0005521734, 0.0001334773, -0.0026437873, 0.0004437739, -0.0028983597, 0.0000240320, 0.0007177873, -0.0025044214, -0.0002524698, 0.0001042930, 0.0028047096, 0.0005432215, 0.0001079593, -0.0004857191, 0.0003796546, 0.0004425298, 0.0002468819, 0.0063305278, -0.0028780587, 0.0004701403, 0.0002375213, -0.0009372053, 0.0004383696, 0.0004071376, -0.0038678795, 0.0002414136, 0.0000907487, 0.0005013023, 0.0004731241, 0.0004249899, 0.0002717122, 0.0002235882, 0.0004966455, -0.0090358732, 0.0002907586, -0.0032564409, -0.0006826180, -0.0004759939, -0.0035511167, 0.0002817822, -0.0026166840, 0.0002186345, -0.0008486438, -0.0038482992, 0.0000905453, -0.0040654568, -0.0000691692, -0.0007999923, 0.0001368521, -0.0002053933, 0.0003261285, -0.0027222878, 0.0003527783, 0.0007284965, 0.0000292301, 0.0005808451, 0.0026634911, 0.0030182125, 0.0034270519, -0.0019685943, -0.0000891388, -0.0005517348, 0.0005555867, 0.0004090502, 0.0002402765, 0.0001223061, -0.0007758486, 0.0005150533, -0.0001628215, 0.0003303774, 0.0007221186, 0.0011643856, 0.0006913794, 0.0002601172, -0.0006222629, 0.0003547267, 0.0001112574, 0.0001479997, 0.0007195363, 0.0003861091, -0.0001616715, -0.0034865369, -0.0042629167, 0.0000915606, 0.0006493539, -0.0005130220, 0.0004183416, 0.0002026787, 0.0002876583, 0.0003219780, 0.0002663325, 0.0000633023, 0.0000739605, 0.0001991859, 0.0004326597, 0.0001419747, 0.0005063039, -0.0001464116, -0.0001912301, -0.0003433304, 0.0056236484, -0.0007490099, -0.0025009084, -0.0001913384, -0.0010358952, 0.0000466778, -0.0012340267, -0.0066754990, -0.0000176049, -0.0003865471, -0.0001301066, -0.0007237662, -0.0002692351, -0.0003833272, 0.0001199599, -0.0020670011, 0.0001151683, 0.0004832269, -0.0001289271, 0.0000587981, 0.0007281179, 0.0043270499, 0.0006701380, -0.0044784625, 0.0000010186, -0.0037769552, -0.0001069851, -0.0002527222, 0.0001566944, -0.0003198834, -0.0013496031, 0.0003276464, -0.0013671484, -0.0000438606, 0.0004683775, 0.0007779670, 0.0019233419, -0.0001441498, -0.0000306646, -0.0000134869, -0.0002504383, -0.0001527395, -0.0000630612, 0.0002367049, -0.0002093169, -0.0012647390, -0.0026187799, 0.0001636732, -0.0002059616, -0.0009468095, 0.0002246864, -0.0003216148, -0.0011585355, 0.0002153758, -0.0001416137, 0.0004915094, -0.0002241159, 0.0003952559, -0.0000405532, -0.0001409728, 0.0000667160, -0.0002391679, 0.0000427847, -0.0015465736, 0.0063370923, -0.0007485374, -0.0048850845, -0.0003356990, -0.0014528155, 0.0003961107, -0.0016289360, -0.0063996278, 0.0004196832, -0.0059149992, 0.0002677751, -0.0008012705, 0.0004903696, 0.0000047697, 0.0003327504, -0.0040924731, 0.0004805372, 0.0006561793, 0.0003718448, 0.0005117957, -0.0049046897, 0.0044427081, -0.0057704449, -0.0046439362, 0.0001702739, -0.0059784311, 0.0005105315, 0.0002667974, 0.0004953165, 0.0001050982, -0.0023330909, 0.0007761837, -0.0020440652, 0.0001911933, 0.0006938956, -0.0008272014, 0.0037533171, 0.0001378351, -0.0019946327, 0.0004121272, 0.0003647428, -0.0005816253, 0.0003165417, 0.0004321158, 0.0001893245, -0.0028846059, -0.0031372297, 0.0005522961, 0.0003198217, -0.0015726580, 0.0003829079, 0.0005570670, -0.0014706999, 0.0004837737, 0.0003030181, 0.0000366593, 0.0003740245, 0.0004101544, 0.0001813965, 0.0005643178, 0.0005638923, -0.0013622101, 0.0002286654, -0.0022958089, 0.0024422633, -0.0005446677, -0.0094370190, 0.0002287213, -0.0023501979, -0.0001205984, 0.0000747197, -0.0060734716, 0.0002034875, 0.0061083343, 0.0002708208, -0.0000815702, 0.0004653971, -0.0002690146, 0.0003420602, -0.0006000444, 0.0000730428, 0.0003820559, -0.0002906656, 0.0002451449, 0.0036281815, -0.0025394380, -0.0000433835, 0.0001586737, -0.0002105341, 0.0027169029, 0.0003422305, 0.0004813623, 0.0002826916, 0.0001512672, 0.0012412196, 0.0002711790, 0.0011434532, 0.0001249602, 0.0002147415, -0.0018116356, -0.0017084740, -0.0001182102, 0.0015743671, 0.0001549505, -0.0001314754, -0.0001700616, 0.0005444305, 0.0003168636, -0.0000929640, 0.0006580250, -0.0013976523, -0.0000685347, 0.0008106440, 0.0003780268, 0.0003543586, 0.0000512906, 0.0010080729, 0.0000220295, 0.0001709617, -0.0002114168, 0.0000595122, 0.0001854269, 0.0000889793, 0.0002721007, 0.0002553539, 0.0020444666, -0.0005509676, 0.0010246397, 0.0040139994, -0.0003044741, 0.0028373441, -0.0001655278, 0.0007894000, -0.0002717337, -0.0002194339, -0.0118313218, -0.0000133183, 0.0047045927, 0.0002054269, -0.0002205519, 0.0000512551, -0.0004489844, 0.0000666374, 0.0021538364, -0.0001388531, 0.0000060121, -0.0005371805, -0.0000874028, 0.0043388363, -0.0027123468, 0.0015358778, -0.0016425087, -0.0002175813, -0.0001873865, -0.0002501078, -0.0003324847, 0.0002364954, -0.0003945816, 0.0001782398, 0.0000242924, -0.0004359368, -0.0002509202, 0.0001470755, 0.0005702319, -0.0014801300, -0.0005783075, 0.0021568604, -0.0001325778, -0.0004481632, -0.0004400471, -0.0003439424, 0.0001769360, -0.0001350364, 0.0017350089, -0.0001569624, -0.0000377073, -0.0001957806, -0.0002237261, 0.0000958004, -0.0003568333, -0.0009107060, -0.0000214809, -0.0002900150, 0.0004447206, -0.0002796391, 0.0003309077, -0.0003178206, -0.0001882500, 0.0000149072, 0.0006241847, -0.0003328423, -0.0005622735, 0.0025557133, -0.0003348130, 0.0036997548, -0.0002699361, -0.0001271276, 0.0000177060, -0.0006109308, -0.0117611336, 0.0002285056, 0.0001252012, 0.0005195934, -0.0003525899, 0.0005634511, -0.0000289065, 0.0002221251, -0.0009690345, 0.0002675676, 0.0001406008, -0.0000475769, 0.0003516043, 0.0007097067, -0.0002340825, 0.0011329888, -0.0035368952, -0.0000386390, -0.0022732676, 0.0003638755, -0.0000219506, 0.0004825124, 0.0000246808, -0.0016130498, 0.0004241006, -0.0019397826, -0.0001319065, 0.0003599940, 0.0009378029, 0.0028136123, -0.0003895118, 0.0011001811, 0.0003232803, 0.0001023692, -0.0006728314, -0.0000563221, 0.0002659675, 0.0002178958, 0.0013252138, -0.0016327145, 0.0001937066, 0.0001195072, -0.0011123300, 0.0002031584, 0.0002941590, -0.0026323639, 0.0002879324, 0.0000231717, 0.0000426580, 0.0002120181, 0.0002639111, -0.0001596664, 0.0002121585, 0.0003854722, -0.0018826071, -0.0000896461, -0.0020786666, 0.0034649353, -0.0001359410, 0.0022074811, 0.0002990716, -0.0016738464, 0.0121543678, 0.0048445789, -0.0317143910, 0.0007376540, -0.0167321917, 0.0056577269, -0.0016029611, -0.0016602449, -0.0055463724, -0.0000971569, -0.0130118718, 0.0056762649, 0.0036134236, -0.0140085230, 0.0000467366, 0.0258025341, 0.0117022488, 0.0203651227, 0.0088801505, 0.0060569402, 0.0258974414, 0.0002268817, 0.0001239769, 0.0048592840, -0.0129484441, 0.0155607276, -0.0103035262, 0.0194481239, -0.0071012862, 0.0074492171, -0.0249838606, -0.0389659740, -0.0019904487, -0.0272647385, -0.0010318257, -0.0041695684, 0.0090761185, -0.0029258137, 0.0104637835, -0.0072349063, 0.0067224964, 0.0162186753, 0.0073032132, -0.0001927063, 0.0041756043, 0.0112542752, -0.0029954787, 0.0198941343, -0.0010438869, -0.0052586277, -0.0017852812, 0.0035763180, -0.0060194135, -0.0023101647, 0.0078511424, -0.0062538395, 0.0249039326, 0.0023865872, 0.0182191748, 0.0092263184, -0.0001953432, 0.0088926908, -0.0001177354, 0.0152706392, -0.0034300420, 0.0006135457, -0.0520307049, 0.0047027222, 0.0126973605, 0.0054540643, -0.0020934769, 0.0107485456, 0.0018543132, -0.0016692417, -0.0219482649, 0.0005688399, -0.0007714845, -0.0111920657, 0.0000900231, 0.0213815384, -0.0156934764, 0.0010970673, -0.0031242331, 0.0075753527, 0.0358359516, 0.0046910020, 0.0091956472, 0.0017538925, -0.0052182050, 0.0074195513, -0.0040584696, 0.0071423976, 0.0008962010, -0.0014757933, -0.0185387228, -0.0321198441, 0.0044165966, -0.0279825982, -0.0082377493, -0.0026248326, -0.0075826552, -0.0026840186, 0.0114858178, 0.0150716184, 0.0156775173, 0.0728421584, -0.0027571707, 0.0095687704, 0.0000705709, -0.0108398581, 0.0021735558, 0.0058544362, -0.0108074117, -0.0017105979, 0.0078000394, 0.0004609592, -0.0043418645, 0.0010768456, 0.0012880545, 0.0099669127, -0.0232916065, 0.0103720771, 0.0058541256, 0.0178996883, 0.0004966134, -0.0119668124, 0.0066184527, 0.0077593052, 0.0061326986, -0.0095408969, -0.0558787435, 0.0037090741, 0.0151620684, 0.0027126449, -0.0050155786, 0.0011530874, -0.0017984631, -0.0058788047, -0.0233450290, 0.0112328334, 0.0058107465, 0.0050513134, 0.0023331759, -0.0233104900, -0.0106144631, -0.0339241326, -0.0148359500, 0.0065599778, 0.0043714745, 0.0127633624, 0.0124102645, 0.0062870863, 0.0097263232, -0.0128447525, 0.0049998364, -0.0118748760, 0.0069409283, 0.0051478464, -0.0101512652, -0.0012757879, 0.0052085249, -0.0347322337, 0.0107812574, 0.0064020562, 0.0023168724, 0.0081672668, 0.0086870268, -0.0007108326, -0.0014511129, -0.0216732230, -0.0013359104, -0.0055292398, -0.0089675868, 0.0013748965, 0.0000002942, -0.0158735085, 0.0024008621, 0.0076648211, 0.0003806050, -0.0000410133, 0.0011972634, -0.0029116790, -0.0032458350, 0.0061136121, -0.0354973674, 0.0077103372, -0.0137118250, 0.0259168893, 0.0007629166, -0.0283919573, 0.0059181731, -0.0111735156, 0.0201807097, 0.0105393585, -0.0248801336, -0.0001610025, 0.0195702910, 0.0069972933, -0.0058362791, -0.0043402682, -0.0021929997, 0.0052952128, -0.0061684265, 0.0022772972, 0.0003280239, -0.0088048987, -0.0031128456, 0.0111141326, -0.0165158696, -0.0105314264, 0.0040525212, 0.0033021972, -0.0056775268, 0.0003696381, -0.0029088887, 0.0031644141, -0.0119236941, 0.0045584319, -0.0074023078, 0.0063081975, -0.0087080896, 0.0080268206, -0.0037047570, 0.0177467689, -0.0026607714, 0.0134291900, 0.0032107334, -0.0040046335, 0.0128007364, -0.0016416186, 0.0149591481, -0.0062078252, 0.0092087751, 0.0473806560, 0.0012347138, -0.0035037459, 0.0049464004, 0.0097189043, 0.0013524162, 0.0054007787, 0.0021018188, -0.0040457835, 0.0039543039, 0.0053044427, -0.0052408273, -0.0008590770, 0.0155508760, -0.0035024327, 0.0098328246, 0.0012672034, 0.0059482767, -0.0185556039, 0.0008315947, -0.0039408957, -0.0058619692, 0.0043598325, 0.0032201342, 0.0077805100, -0.0365088992, 0.0021444142, 0.0622261167, 0.0023066832, -0.0029237184, 0.0081235049, 0.0045371009, 0.0009848494, -0.0173846334, -0.0033664084, 0.0009908862, -0.0126409568, -0.0024507283, 0.0123812472, -0.0000533888, 0.0146639124, -0.0195850842, 0.0052738143, -0.0074493429, 0.0035718649, 0.0056449035, 0.0052834214, -0.0011158360, -0.0055564912, 0.0002265825, -0.0063396492, 0.0007162982, -0.0020015149, -0.0190890767, 0.0038712868, -0.0005451377, -0.0142698400, -0.0050769532, 0.0026983239, -0.0024451406, -0.0023519974, 0.0078143161, 0.0137034645, 0.0077258144, 0.0202563237, -0.0097812545, 0.0081366729, 0.0002307174, -0.0105017442, 0.0064924387, -0.0093167089, -0.0068550468, 0.0012174656, 0.0125962263, 0.0000175727, 0.0013938597, 0.0011069941, 0.0030709156, 0.0074671782, -0.0193666611, 0.0127914418, -0.0064588501, 0.0471808538, 0.0009779123, -0.0235552825, -0.0000427804, -0.0049220594, 0.0127449157, -0.0039955527, -0.0384682603, -0.0023403054, 0.0150548508, 0.0017491946, -0.0037270256, 0.0030649796, -0.0026365316, -0.0042335424, -0.0191050880, 0.0073241536, 0.0082857804, -0.0014518821, 0.0004935201, -0.0224845819, 0.0090462090, -0.0127954474, -0.0297618136, 0.0051016402, -0.0434540324, 0.0105785197, 0.0097177792, 0.0094147120, 0.0105691245, -0.0241333153, -0.0032024349, -0.0235246774, 0.0012236253, 0.0066200625, -0.0257288236, -0.0080199037, 0.0034521020, -0.0278126188, 0.0126673365, 0.0112705659, 0.0021988000, 0.0058954833, 0.0086405668, -0.0027648362, -0.0143151544, -0.0723026767, -0.0077961730, -0.0069138194, -0.0118956650, 0.0061261416, 0.0059069730, -0.0271456763, 0.0024368856, 0.0089559518, 0.0020941449, 0.0012977165, 0.0026420781, -0.0051683835, 0.0040630684, -0.0065906020, -0.0342134535, 0.0087258583, -0.0239339918, 0.0431191288, 0.0034113263, -0.0485592075, -0.0010437788, -0.0222081598, 0.0111097582, 0.0140098501, 0.0380084552, -0.0077178259, -0.0257395599, -0.0030918121, -0.0084061893, -0.0129521731, -0.0076711881, -0.0018472505, 0.0248611681, -0.0134344865, -0.0040359669, -0.0126121975, -0.0056284303, -0.0035107315, -0.0371414386, -0.0031687496, -0.0061569377, -0.0012896883, 0.0026642783, -0.0113954777, -0.0127976583, -0.0031406491, -0.0213248078, 0.0104770223, -0.0174007956, 0.0097963307, -0.0121559417, 0.0014024671, 0.0107224863, -0.0371115096, -0.0088887084, -0.0041618710, -0.0023572769, -0.0162090342, 0.0050268890, -0.0108998874, 0.0044026999, -0.0089597469, 0.0311142374, 0.0252737459, -0.0027041310, -0.0124318684, 0.0024951689, -0.0003725862, -0.0098684486, 0.0047424636, -0.0110104019, -0.0118022598, -0.0032163993, -0.0036649695, -0.0024207653, -0.0095470352, 0.0115454607, -0.0197147708, -0.0040760548, -0.0106516248, 0.0104545495, -0.0525414571, -0.0064218314, 0.0048742783, -0.0120969741, 0.0113180727, -0.0024270059, 0.0103769740, 0.0146275358, -0.0025920167, 0.0352568366, -0.0084359152, -0.0039342181, 0.0003460908, -0.0019167111, -0.0060686870, 0.0109134028, -0.0180481635, -0.0053956457, -0.0210976601, -0.0068934159, 0.0169573892, 0.0110743130, 0.0298788603, -0.0302466750, 0.0009044688, 0.0036762906, -0.0047425078, -0.0042817183, 0.0030531569, -0.0114979343, -0.0007203204, -0.0092829997, -0.0035876327, -0.0042713438, -0.0057769949, 0.0013185430, -0.0169383809, -0.0110515561, -0.0031913684, -0.0112564070, -0.0101167029, -0.0087700803, -0.0109804943, -0.0049074045, 0.0040281075, 0.0123898657, -0.0085350191, -0.0126758451, 0.0023624755, 0.0001708600, -0.0188205894, -0.0056642960, -0.0100879166, -0.0163229704, -0.0075536543, 0.0012004481, -0.0119253583, 0.0067426199, -0.0034376562, -0.0070245559, -0.0007770425, 0.0030904333, -0.0038360544, -0.0024421175, 0.0171315763, -0.0057772384, 0.0058818865, -0.0061121136, -0.0000715146, 0.0070087234, -0.0010075863, -0.0209832601, -0.0066014496, -0.0028285945, -0.0074445293, -0.0056186183, -0.0004683520, -0.0125727532, -0.0147655336, -0.0041060047, -0.0109577151, -0.0031109811, -0.0129196187, -0.0031471620, -0.0039433348, 0.0277547911, 0.0282572787, -0.0337577686, 0.0032313564, -0.0392974615, 0.0014004795, 0.0040203701, 0.0078728469, -0.0111200660, -0.0099339103, -0.0124342367, -0.0107657388, -0.0078718970, 0.0017644896, -0.0241097659, -0.0095848143, -0.0068348958, -0.0098008960, 0.0078766420, -0.0004615513, -0.0068078968, -0.0052026915, 0.0034608692, -0.0102490876, -0.0166146494, -0.0151120424, -0.0142123885, -0.0115955612, -0.0111688059, -0.0042223092, -0.0005009891, -0.0148380231, -0.0095064631, -0.0002280186, -0.0092531536, -0.0071373694, 0.0022032042, -0.0102834115, -0.0029793023, -0.0159921497, 0.0112561267, -0.0058755456, -0.0099441297, 0.0340442099, -0.0049295211, -0.0141120665, -0.0062812823, -0.0095923664, -0.0075222556, -0.0158335268, 0.0319996066, -0.0165862944, 0.0418984257, -0.0213471949, -0.0224555749, -0.0186789967, -0.0360441469, -0.0134832850, -0.0166716278, -0.0142298685, -0.0219105538, -0.0040503852, -0.0240037274, 0.0061232522, 0.0189261585, -0.0191192105, -0.0299650151, -0.0085600438, 0.0187171903, 0.0022785561, -0.0121769840, 0.0030524696, -0.0175695010, 0.0193684679, -0.0066023353, 0.0149484919, -0.0192912277, -0.0076620393, -0.0172696486, -0.0324682258, -0.0034915647, 0.0128322868, -0.0077655455, -0.0131649338, -0.0101434803, 0.0158249605, 0.0061961100, -0.0130412392, 0.0288414136, 0.0663086548, -0.0234289896, -0.0141334049, 0.0020307242, -0.0222343076, -0.0204602052, 0.0112750418, 0.0002726030, 0.0039294357, -0.0070660640, -0.0135609042, 0.0078419792, -0.0312671363, -0.0005397885, -0.0176926926, 0.0105305742, -0.0060227029, 0.0152577395, -0.0806664899, -0.0126043735, -0.0197196417, -0.0082250116, 0.0156858433, 0.0057838233, -0.0087891985, 0.0215844177, -0.0037114371, -0.0277821384, 0.0135119371, -0.0014211014, -0.0030226156, 0.0012296750, 0.0127992295, -0.0433550663, -0.0045266394, 0.0145376241, -0.0119060753, 0.0122029446, 0.0326093845, 0.0074912626, 0.0079035712, -0.0166690275, -0.0140250493, 0.0366392732, -0.0153201176, 0.0011525189, -0.0106747402, 0.0103970878, 0.0070514469, -0.0027527197, 0.0015686157, -0.0102358330, -0.0048384671, -0.0294472612, 0.0324658230, -0.0134780332, 0.0438522883, -0.0062726443, -0.0071343686, 0.0041732718, -0.0105440691, -0.0024106868, -0.0020544922, 0.0114693427, 0.0282216985, -0.0177256968, 0.0087432759, 0.0073980708, -0.0029875869, 0.0064152065, -0.0007237379, -0.0061769686, -0.0182181485, -0.0004084355, -0.0022015285, -0.0017997032, 0.0138927940, 0.0057380754, -0.0226467699, -0.0512045845, -0.0049444074, 0.0021649068, -0.0189437121, -0.0020208464, 0.0027046613, -0.0097186808, 0.0036641520, -0.0127329091, -0.0075167329, 0.0218803957, 0.0138441678, -0.0313252993, -0.0029702657, -0.0097028157, 0.0010018398, -0.0098229572, 0.0125245685, -0.0081041465, -0.0038735883, -0.0092848754, 0.0086752623, 0.0005042116, -0.0243506990, -0.0093755685, -0.0466237366, -0.0042909025, -0.0018442085, -0.0291178506, 0.0189170688, -0.0033698464, -0.0008323974, -0.0120303007, -0.0155866109, 0.0176686719, -0.0114067364, -0.0082471333, -0.0055578193, -0.0558116399, 0.0475087464, 0.0026432867, 0.0332541578, 0.0067490009, -0.0051619634, 0.0075988322, 0.0108917682, -0.0021071769, -0.0051586842, -0.0351376235, -0.0933325142, -0.0126621481, -0.0130567178, -0.0091837598, -0.0177864861, 0.0003579756, -0.0097244224, -0.0053009395, 0.0159087908, 0.0112414695, -0.0009409954, 0.0103579648, -0.0249870121, -0.0030366848, -0.0158470105, -0.0081641069, 0.0022797247, -0.0123771559, 0.0238810834, -0.0081823142, -0.0038692590, 0.0019341809, -0.0166404899, -0.0079593528, -0.0122205056, -0.0103200851, -0.0105527891, 0.1014319137, -0.0215186272, -0.0168291088, -0.0189935621, -0.0329452828, -0.0103548048, 0.0338984393, -0.0069524874, -0.0211628489, 0.0008443070, -0.0183562245, -0.0005390163, -0.0463183671, -0.0334777609, -0.0439292230, -0.0033050387, -0.0087647550, 0.0118551468, -0.0000156182, 0.0089342697, -0.0155078573, 0.0025351301, -0.0085672569, -0.0009089185, -0.0098675918, -0.0006760361, -0.0124490010, 0.0004692974, 0.0011685533, 0.0171890836, -0.0034836377, -0.0078309849, -0.0145655526, 0.0167504400, 0.0053125913, -0.0095594916, 0.0251519177, 0.0410127081, -0.0146329012, -0.0120639214, -0.0024168701, -0.0152892238, -0.0187490564, -0.0038910210, -0.0029560351, 0.0035752580, -0.0150564695, -0.0081003793, 0.0110926768, -0.0320964493, 0.0040667541, -0.0142321773, 0.0300266743, -0.0043987096, -0.0011000970, -0.0314078480, -0.0097621987, 0.0372673422, -0.0076279738, 0.0012857607, 0.0107575879, -0.0009612420, -0.0218728427, 0.0011254429, 0.0211176686, 0.0192731004, 0.0066747512, -0.0026421251, 0.0071684453, 0.0110810166, -0.0290619433, 0.0101251062, 0.0228419229, -0.0089711994, 0.0216281898, 0.0235719290, -0.0095120603, 0.0105926525, -0.0357558727, -0.0119655374, 0.0005499806, -0.0110520590, 0.0087982165, -0.0008669882, 0.0139375133, -0.0144116404, -0.0056157424, -0.0214008186, -0.0002727456, 0.0060027917, -0.0248079263, 0.0203930344, -0.0067502512, 0.0145405466, -0.0017969315, -0.0011149640, 0.0011963720, -0.0065627843, -0.0051094331, 0.0027181311, 0.0232575610, -0.0018069160, -0.0091535160, 0.0159706026, -0.0019735324, 0.0039397338, 0.0104356697, -0.0225127954, -0.0004250545, -0.0210845433, -0.0079200231, 0.0048980908, 0.0088353064, 0.0175677203, 0.0040073888, -0.0179923512, -0.0392155163, -0.0017166128, -0.0224100892, 0.0169468112, 0.0024667135, 0.0020171162, -0.0123476014, -0.0152328312, -0.0129487459, -0.0018150861, 0.0108183799, 0.0102018900, -0.0230785776, -0.0001859722, -0.0038391394, 0.0029294861, -0.0062726806, 0.0150331445, -0.0301595964, 0.0166382827, 0.0014833345, 0.0079044066, 0.0150417918, -0.0231927726, 0.0270045828, -0.0523060150, -0.0223050527, -0.0004853441, -0.0188186020, 0.0249980912, -0.0007397927, 0.0109436689, -0.0012888137, -0.0355326198, 0.0178649146, -0.0350265615, 0.0043938332, 0.0063197538, -0.0576011539, 0.0056935619, 0.0095739327, -0.0154484948, 0.0190178491, -0.0039568669, -0.0011638142, 0.0135995457, -0.0004844742, -0.0025216779, -0.0615049079, -0.0770774707, -0.0081022885, -0.0047694119, -0.0226858817, -0.0059376652, 0.0024277873, -0.0321707390, 0.0026329358, 0.0138641326, 0.0015018177, 0.0050750119, 0.0200832896, -0.0249258149, -0.0049551073, -0.0087378463, -0.0286639165, 0.0105134239, -0.0378186032, 0.0329905674, -0.0061086351, -0.0590272695, -0.0038695503, -0.0360002629, -0.0104859779, -0.0291653220, -0.0116239786, -0.0080424193, 0.0104128309, -0.0292102788, -0.0129442737, -0.0120751699, -0.0240951385, -0.0131118093, 0.0345912278, -0.0076793930, -0.0192635860, 0.0000145746, -0.0203559976, -0.0127121378, -0.0998787656, -0.0405474827, -0.0450679623, -0.0003128508, -0.0041898023, 0.0123774717, -0.0062345825, -0.0031590948, -0.0173091274, 0.0164566580, -0.0065166745, 0.0142464200, -0.0136247659, -0.0133126155, -0.0070550791, -0.0380593650, 0.0006601145, 0.0132403132, -0.0073725698, -0.0091382684, -0.0031460207, 0.0094779013, 0.0014347913, -0.0133623285, 0.0264282823, -0.0175261386, -0.0150265107, -0.0212246086, -0.0022427358, -0.0138597582, -0.0127474032, 0.0088706631, -0.0072942646, -0.0005277083, -0.0120706726, -0.0091425292, 0.0010825539, -0.0290166456, -0.0046456307, -0.0206869617, -0.0078419698, -0.0123491846, 0.0136797875, -0.0359985717, -0.0147552378, -0.0317272879, -0.0105955135, 0.0138266627, 0.0088564064, -0.0257081315, 0.0040674098, -0.0005604442, -0.0435122475, 0.0070075239, 0.0055139540, 0.0032056449, 0.0072948243, 0.0048102387, -0.0129376622, 0.0029085330, 0.0232462995, -0.0074872891, 0.0112781841, 0.0299701728, -0.0715502277, 0.0413019918, -0.0554051138, -0.0062070987, 0.0034254603, -0.0147961592, 0.0043807440, -0.0080073988, 0.0081248889, 0.0008322167, -0.0029406915, -0.0039751753, -0.0075852773, -0.0069059408, -0.0200988445, -0.0316235237, 0.0009336866, 0.0266921688, -0.0032775258, -0.0102098146, 0.0046311431, -0.0112770544, -0.0048087826, -0.0058384747, 0.0241002310, 0.0106920563, -0.0113429474, 0.0056589129, -0.0087585337, 0.0035356500, 0.0093252966, -0.0081558209, -0.0053717997, -0.0172321033, -0.0075513562, 0.0015419719, 0.0044652852, 0.0114316940, -0.0010308782, -0.0202927552, -0.0742817596, -0.0067095980, -0.0057379478, 0.0139049431, -0.0068674819, 0.0236731973, -0.0110985003, -0.0006552432, -0.0152343465, -0.0241697375, 0.0462452844, 0.0041501368, -0.0458389483, -0.0079666246, -0.0004110114, 0.0119465012, -0.0005611239, 0.0064225746, -0.0163015928, 0.0085258707, 0.0063845478, 0.0090761092, 0.0079590622, 0.0152551671, -0.0285092145, 0.0037899644, -0.0405825749, 0.0036010768, -0.0195034984, 0.0152953807, 0.0004185356, 0.0030149086, -0.0077892360, -0.0190254804, 0.0149546331, -0.0165553689,