//Numpy array shape [3, 3, 64, 128]
//Min -128.533920288086
//Max 75.801506042480
//Number of zeros 0

#ifndef W27_H_
#define W27_H_

#ifndef __SYNTHESIS__
model_default_t w27[73728];
#else
model_default_t w27[73728] = {-0.0002053483, 0.0000061356, 0.0000595008, 0.0000435343, -0.0000641285, -0.0001697017, -0.0002458452, 0.0001783310, 0.0000080048, 0.0000128333, 0.0000250814, 0.0000199507, 0.0000197395, 0.0000476267, -0.0000825256, 0.0000052984, 0.0002120952, 0.0000139639, -0.0001412222, -0.0002020274, 0.0000470884, 0.0000141552, 0.0000118952, 0.0000825889, 0.0000165858, 0.0000209647, 0.0000074861, -0.0001297424, -0.0001884416, -0.0001210733, -0.0000618958, -0.0003003377, 0.0000055573, -0.0001431607, -0.0001494090, -0.0003366903, -0.0001472929, -0.0001365560, 0.0000003244, -0.0000086749, 0.0000203768, -0.0001682575, -0.0000414687, -0.0001856765, -0.0000139668, -0.0001246366, -0.0000593580, -0.0000763762, -0.0002994154, -0.0002217454, -0.0001379265, -0.0001589509, 0.0000095411, 0.0000156667, 0.0000163203, -0.0002681600, -0.0000116718, 0.0000187484, 0.0000491678, -0.0002466429, 0.0000213610, -0.0000319803, 0.0000770199, -0.0000648642, -0.0001528480, -0.0000454482, 0.0000102306, 0.0000571294, -0.0000827544, -0.0000669524, -0.0000897113, 0.0001712803, -0.0000078502, 0.0000128924, 0.0000110945, 0.0000676053, 0.0000417441, 0.0000513604, 0.0000210403, -0.0000119835, 0.0001026332, -0.0000034203, -0.0000483594, -0.0001388018, 0.0000336622, 0.0000118616, 0.0000712157, 0.0000349682, 0.0000905584, 0.0000063893, -0.0000009134, -0.0000989876, 0.0000308886, 0.0000193879, 0.0001657012, 0.0000565783, 0.0000074179, 0.0000432435, -0.0000289468, -0.0001120011, 0.0000181310, 0.0000783162, 0.0000182590, -0.0000140251, 0.0000105007, -0.0001873252, -0.0000818080, -0.0000683108, 0.0004032296, -0.0001559088, 0.0002546282, -0.0000100228, -0.0000579400, -0.0001602133, -0.0001660093, -0.0001482104, -0.0000026706, 0.0000087798, 0.0000035359, -0.0002123275, -0.0000506021, 0.0000123398, 0.0002723324, -0.0000849496, 0.0000117739, -0.0000385215, 0.0000295408, -0.0000767782, -0.0000539280, -0.0000476940, -0.0000063492, 0.0000910264, -0.0000851245, 0.0000208040, -0.0001356052, -0.0000127931, -0.0000151576, 0.0000168542, -0.0000109455, -0.0000233184, 0.0000748811, 0.0000268432, 0.0001419360, -0.0000160278, -0.0000447931, 0.0000006407, 0.0000178259, 0.0001170511, 0.0000186071, 0.0000133909, 0.0000103716, 0.0000184425, -0.0000156216, 0.0000010581, -0.0000018269, -0.0000765238, 0.0000965567, -0.0000078778, 0.0000054007, -0.0001737565, -0.0000096597, -0.0000544729, 0.0000405377, 0.0002375217, 0.0001121358, 0.0002195134, 0.0000147429, -0.0000066288, -0.0000032851, -0.0001197452, -0.0000706656, -0.0000738514, -0.0002310964, -0.0001445419, 0.0002527497, 0.0000477812, -0.0002365956, -0.0000259413, -0.0001184118, 0.0000253490, -0.0000064845, 0.0000016820, 0.0000050054, -0.0001518161, -0.0000507910, -0.0000026657, 0.0002352518, -0.0001519240, -0.0000012696, -0.0000527937, 0.0000444489, -0.0000719304, -0.0002436692, 0.0000379758, -0.0001060301, -0.0001693713, -0.0000250299, -0.0000364536, -0.0000739918, 0.0001356422, 0.0000163681, 0.0000000244, -0.0000093017, -0.0000008604, -0.0000161622, 0.0000059704, -0.0001622676, 0.0000032385, 0.0001027554, 0.0000167426, -0.0003010204, -0.0000677390, 0.0000402375, 0.0000159072, 0.0000287836, 0.0001393942, -0.0000480809, 0.0000236573, 0.0000176156, -0.0000092173, -0.0001752037, -0.0002503498, 0.0000406488, -0.0002813706, 0.0000160467, -0.0001987183, -0.0001341763, -0.0002394059, -0.0001071975, -0.0001455847, -0.0000000703, 0.0000108699, 0.0000193719, -0.0001076542, -0.0000020647, -0.0003445203, 0.0000481879, 0.0000282221, -0.0002623339, -0.0000785769, -0.0003125609, -0.0000983876, -0.0000339687, -0.0000933002, 0.0000115924, 0.0000148923, 0.0000314758, -0.0001776904, 0.0000406504, 0.0000149042, -0.0001580638, -0.0003217495, 0.0000307138, 0.0000670267, 0.0001439991, 0.0000282325, -0.0001118832, 0.0000212646, -0.0001194581, -0.0000869379, -0.0000124368, 0.0000398158, 0.0001559680, 0.0001444921, 0.0000047772, 0.0000052402, -0.0000395766, 0.0000493019, 0.0000675052, -0.0000032456, 0.0000623475, -0.0000135759, 0.0000707413, 0.0000006460, -0.0001524344, -0.0000080925, 0.0000095364, 0.0000111560, 0.0000496277, 0.0000518059, 0.0000483297, 0.0000040693, -0.0000034043, 0.0000459637, 0.0001180720, -0.0000261503, 0.0002283520, 0.0000813837, 0.0000055288, -0.0000230013, 0.0000569678, -0.0001098804, 0.0001724157, 0.0000426248, -0.0000089369, 0.0000162706, 0.0000094589, -0.0000633519, -0.0000293905, -0.0001048650, 0.0005080088, 0.0000419901, 0.0001401522, -0.0000112609, -0.0000048062, -0.0000138703, -0.0000053317, -0.0000024899, -0.0000037646, 0.0000028628, 0.0000051209, -0.0001080234, -0.0000035939, 0.0000017387, 0.0002047177, -0.0000691793, 0.0000105036, 0.0000759358, 0.0000967952, -0.0000000647, 0.0000206985, 0.0000392259, -0.0000043389, 0.0001280047, 0.0000258129, 0.0001258278, -0.0000263277, -0.0000453982, -0.0000012985, 0.0000026133, -0.0000812750, -0.0000320268, 0.0000559786, 0.0000199384, 0.0000677012, -0.0000147190, -0.0000918253, -0.0000005991, -0.0000081583, 0.0002167600, 0.0000009671, 0.0000051380, -0.0000167497, 0.0000127721, 0.0000182269, -0.0000046784, -0.0000158096, 0.0001042502, 0.0002125795, 0.0000166909, -0.0000961051, -0.0001663716, -0.0000088128, -0.0001479436, 0.0001240986, 0.0001833469, 0.0002520754, 0.0001674235, -0.0000095062, -0.0000032281, 0.0000054245, 0.0000307942, -0.0000190448, -0.0002197249, -0.0001713204, 0.0000682113, 0.0002282767, 0.0000942915, -0.0001587143, 0.0001142884, 0.0000439146, 0.0001588696, -0.0000072409, -0.0000084176, -0.0000030462, -0.0000409900, -0.0000026161, -0.0000108256, 0.0000081177, -0.0000048438, -0.0000124423, 0.0001013893, 0.0000618674, 0.0000062830, -0.0002343490, 0.0000035278, -0.0001973522, -0.0000780121, -0.0000290784, -0.0001651163, -0.0000953897, 0.0000560511, -0.0000058589, 0.0000081503, -0.0000184193, -0.0000216369, 0.0000157193, -0.0000530321, -0.0000506880, -0.0000015191, 0.0000085206, 0.0000093548, -0.0002153483, -0.0000682700, 0.0000141267, 0.0000128395, -0.0000717006, 0.0000551328, -0.0001894101, 0.0000140667, 0.0000190582, -0.0000271142, 0.0000462079, -0.0000522603, -0.0000612781, -0.0001225802, 0.0000152178, -0.0000371636, -0.0000405923, -0.0002232668, 0.0000662471, -0.0000548766, -0.0000020533, -0.0000341632, 0.0000072290, -0.0001237955, 0.0000277059, 0.0000545177, 0.0001113292, -0.0000376845, -0.0000536508, -0.0002104243, -0.0001135979, -0.0001444666, -0.0001145580, -0.0000502174, 0.0000009621, 0.0000034591, 0.0000567761, -0.0002588712, 0.0000479072, 0.0000131446, -0.0001127320, -0.0001036324, 0.0000274765, 0.0000163062, 0.0000653914, 0.0000044698, -0.0001350950, 0.0000212466, -0.0001314890, -0.0000388474, 0.0000136641, -0.0000453352, 0.0001637359, 0.0000767642, -0.0000066594, 0.0000071642, -0.0000073493, 0.0000260768, 0.0001545188, -0.0000619198, 0.0001607859, -0.0000113843, 0.0000463301, 0.0000000069, -0.0001383497, 0.0000040491, -0.0000079763, 0.0000033034, 0.0000162721, -0.0000144590, -0.0001105133, -0.0000034195, 0.0000058554, 0.0000717363, 0.0002928284, 0.0001208789, 0.0001369242, 0.0001728248, -0.0000001813, 0.0001356834, 0.0001267741, -0.0002108338, 0.0002656784, 0.0000757613, -0.0000155461, -0.0000596227, 0.0000034310, -0.0000565027, 0.0000036331, 0.0001764332, 0.0005069561, 0.0000196204, 0.0002857287, 0.0000044283, 0.0001737266, -0.0000189553, -0.0000351831, 0.0000214682, -0.0000150411, -0.0000078332, 0.0000346731, -0.0000909134, 0.0000262866, -0.0000034004, 0.0000951684, 0.0001398613, 0.0000002610, 0.0000881713, 0.0000408214, 0.0000010093, 0.0000462049, 0.0000569666, 0.0000199307, 0.0001971215, 0.0000713508, 0.0001467912, 0.0001642057, -0.0000911380, -0.0000008657, 0.0000026463, -0.0000399402, -0.0000233143, 0.0001250072, -0.0000328076, 0.0002061405, -0.0000144719, -0.0001065531, -0.0000050276, 0.0001054981, 0.0002473011, -0.0000085643, -0.0000124469, 0.0000133580, -0.0000699215, 0.0000340352, -0.0000132641, -0.0000084765, 0.0001445687, 0.0003421417, 0.0001539771, -0.0000315571, 0.0000033345, -0.0000143282, -0.0000057631, 0.0002110522, 0.0002245155, 0.0002709984, 0.0002796330, -0.0000113423, -0.0000359071, -0.0000035211, 0.0001020453, 0.0000106080, -0.0000517128, -0.0002380091, 0.0000899973, 0.0003982520, 0.0001920449, 0.0001350318, 0.0001461497, 0.0000952701, 0.0002254230, -0.0000149904, -0.0000193747, 0.0000177771, 0.0000738908, 0.0000303211, -0.0000134797, -0.0000131237, 0.0001929700, -0.0000209523, 0.0001488418, -0.0000361019, 0.0000477264, -0.0300966911, 0.0058938013, 0.0202635191, -0.0622658581, 0.0068446370, 0.0634102598, 0.0464352034, -0.0010275814, 0.0012403773, -0.0064387540, 0.0217371807, 0.0260316636, 0.0094225416, -0.0180194248, 0.0359279066, 0.0072270217, 0.0548506007, 0.0103157945, -0.0615022480, -0.1451501250, 0.0103084072, 0.0096330876, 0.0131704956, 0.0083313202, -0.0040899608, 0.0000270510, 0.0057364223, 0.0261507388, -0.0041163610, 0.0110934656, -0.0244137906, 0.1081200093, 0.0005874271, 0.0173855685, -0.0039964025, -0.0533418357, -0.0032094566, 0.0009353269, 0.0070656324, 0.0231256206, 0.0190674122, -0.0323168188, 0.0036046356, 0.0420119092, 0.0184149779, -0.0013989668, -0.0148172593, -0.1350876838, 0.0342639834, 0.0492504165, -0.0030288021, -0.0808124319, 0.0074396757, 0.0046143103, 0.0037946189, 0.0128357178, 0.0123177990, -0.0023844254, -0.0111910524, 0.0027555297, 0.0127622783, 0.0213506557, -0.0378913283, 0.0272877105, 0.0224753916, 0.0360896140, 0.0151332440, 0.0260874834, 0.0528891422, 0.0805031210, 0.0495504327, 0.0062613115, 0.0166563112, -0.0044387141, 0.0009065095, -0.0096854232, -0.0114193112, 0.0138364928, 0.0416082069, 0.0144719509, 0.0647137910, 0.0094188070, -0.0217009392, -0.0811294541, 0.0159934647, -0.0002569279, -0.0180170778, 0.0213519130, 0.0197493229, -0.0021681266, -0.0026091223, 0.0732564554, -0.0098477388, -0.0079042232, -0.0240960531, 0.0485073142, 0.0025303827, 0.0030024240, -0.0062608495, -0.0307583176, 0.0028786508, -0.0049608727, 0.0036913061, 0.0180266798, 0.0064714393, 0.0282926895, 0.0087880371, 0.0245988984, -0.0371164680, 0.0592979677, -0.0294505805, -0.0574364625, 0.0059557594, 0.0761763304, 0.0391490459, -0.0591351911, 0.0057352018, 0.0067806258, 0.0168434642, 0.0345994607, 0.0290208422, -0.0014692502, 0.0138457771, -0.0076506776, 0.0151947727, 0.0831400529, -0.0099898158, 0.0540771633, -0.0049796072, 0.0261180028, 0.0086271232, 0.0086215865, 0.0304571092, 0.0144765843, 0.0001358377, 0.0086239129, 0.0095482571, -0.0025988529, -0.0032770478, 0.0067960494, -0.0374802910, 0.0417358018, 0.0294799134, 0.0120052425, 0.0098936083, 0.0196569674, 0.0390661620, -0.0543506257, 0.0141387200, 0.0011170588, -0.0219153110, 0.0159816127, 0.0073987581, 0.0133601837, -0.0056281658, 0.0218503457, -0.0117540006, 0.0181183387, -0.0291041769, 0.0005086855, -0.0036959827, 0.0061930064, -0.0178016722, -0.0697371513, -0.0220091753, 0.0222999323, 0.0119666327, 0.0097602913, 0.0100549879, 0.0310644247, -0.0030203317, -0.0020351000, -0.0465624370, 0.0268841982, -0.0052587022, -0.0251669623, 0.0320888795, 0.0238029025, 0.0319602937, -0.0411301591, 0.0066915802, 0.0279177688, 0.0007365100, -0.0176251493, 0.0085957348, 0.0046271617, -0.0196460821, 0.0094324593, 0.0155234812, 0.0246354789, -0.0142850280, 0.0118874488, -0.0533741824, 0.0402476452, 0.0046848687, -0.0603398941, 0.0031863961, 0.0300498456, -0.0344352871, -0.0216700081, -0.0245438050, -0.0191134270, -0.0128646512, -0.0259760078, 0.0314530246, -0.0295639150, 0.0349739939, -0.0136565417, 0.0203678422, -0.0024031072, 0.0578055084, -0.0755284503, -0.0296648592, -0.0034387088, -0.0024368700, -0.0055167545, -0.1154506803, -0.0123842610, 0.0102717625, 0.0319025293, 0.0791192502, 0.0552507788, -0.0207791701, -0.0511151701, -0.0076992973, 0.0510718189, 0.0891688317, -0.0614121184, 0.0793415606, 0.0527653061, 0.0418486930, 0.0399387181, 0.0183087531, -0.0183234047, -0.0099135702, 0.0480083749, 0.0080640782, -0.0335006304, -0.0206718594, 0.0065416461, -0.0053642849, -0.0085084066, -0.0318801105, -0.0321819261, -0.0065382747, -0.0179882441, -0.0118032908, -0.0562277474, 0.0044678976, 0.0096932612, -0.0184119605, 0.0030673919, -0.0011171210, -0.0044989102, 0.0495727211, -0.0082088076, 0.0461276546, 0.0515069515, 0.0217630714, -0.0294989552, 0.0469804481, 0.0490096100, -0.0099897524, -0.0543728843, -0.0021137190, 0.0062551615, 0.0483053550, 0.0092970384, 0.0363496952, -0.1002295911, 0.0085428525, -0.0021806164, 0.0374233760, 0.0127755618, 0.0112787057, -0.0582345203, -0.0258027576, -0.0158512499, 0.0366134979, -0.0156808477, -0.0836077854, 0.0015158331, -0.0138071142, 0.0735912174, 0.0407617949, 0.0099627050, 0.0012489933, -0.0657292604, 0.0246197935, 0.0095389672, 0.0573153459, -0.0539820753, 0.0512797385, 0.0234729834, 0.0163294189, -0.0080303727, 0.0104424618, 0.0521123782, 0.0025367020, 0.0061780834, -0.0024052556, 0.0362728685, -0.0299598444, -0.0646891445, -0.0304335449, 0.0090137953, 0.0212016460, -0.0186291821, -0.0145493187, -0.0133226160, -0.0042509180, -0.0135766286, 0.0113433618, 0.0373233035, -0.0356089100, -0.0125208730, -0.0226311218, 0.0506958477, 0.0122868419, 0.0406364650, 0.0746697560, -0.0443624295, -0.0155289359, -0.0296679530, -0.0275031067, 0.0111028785, 0.0082290638, 0.0212939251, 0.0304186586, 0.0163973905, 0.0496529527, -0.0046413536, 0.0330943130, -0.0967616215, 0.0157832168, -0.0120666223, 0.0857617259, 0.0044792625, 0.0236082245, 0.0159447547, -0.0369620584, -0.0409454219, 0.0755902529, 0.0026073821, -0.0410802588, -0.0073073036, -0.0485415086, -0.0231290963, 0.0494585745, 0.0496520400, 0.0249343552, -0.0261489209, 0.0011428430, -0.0096413409, 0.0489360914, -0.0135762841, 0.0413163267, 0.0143571310, -0.0164359044, 0.0243616197, 0.0246175285, 0.0607435480, 0.0087230029, 0.0155348154, -0.0627070069, -0.0165420920, 0.0269007441, 0.0338382088, 0.0151689602, -0.0101140765, 0.0073599010, 0.0831464529, -0.0247958675, 0.0136876283, -0.0145820435, -0.0080959359, -0.0259051677, 0.0274747815, 0.0109753069, 0.0012142123, -0.0243085735, -0.0439893939, 0.0525256544, -0.0138850017, -0.0394648872, 0.0141107868, -0.0593147911, 0.0666309372, -0.0055705020, -0.0348268598, -0.0030958569, 0.0727158114, -0.0435485095, -0.0246475488, -0.0340851955, -0.0505029187, 0.0433362424, 0.0004376938, -0.0151456408, -0.0016579877, 0.0570183322, -0.0144835962, 0.0533789545, 0.0624616556, -0.0339050330, -0.0273056254, -0.0061121634, 0.0309238248, 0.0750332475, -0.0371277034, -0.0260322578, -0.0122632179, 0.0307163149, 0.0420553833, 0.1130819693, -0.0017997654, -0.0513405725, 0.0309188794, 0.0796501413, 0.0593084469, 0.0389195085, 0.0602204353, -0.0258987416, 0.0325640030, -0.0501942076, 0.0051064403, -0.0045238044, 0.0660870671, -0.0199379325, -0.0236367080, 0.0179552287, 0.0938448682, 0.0104386415, -0.0099434508, 0.0012132699, 0.0250982810, 0.0087874159, -0.0133099463, 0.0033486909, 0.0191976409, -0.0135527113, -0.0290006716, 0.0926698148, 0.0242132954, -0.0367597789, 0.0001384870, 0.0701167732, -0.0057986551, 0.0182373803, -0.0064955279, -0.1428649575, 0.0705582276, -0.0155913178, -0.0368069373, -0.0232861526, 0.0673241541, -0.0249851476, -0.0191426668, 0.0270378366, 0.0354560092, -0.0074837073, 0.0060784756, -0.0702263117, 0.0118521228, 0.0470165722, -0.0165797789, 0.0310033076, 0.0372144394, 0.0062602246, -0.0199393835, 0.0350202546, 0.0569115169, 0.1028331295, -0.0117706703, -0.0186118763, -0.0353628621, 0.0407329686, 0.0258457586, 0.0954908505, 0.0082731806, 0.0118398583, 0.0134149538, 0.0668947250, -0.0314995609, 0.0118559618, -0.0069121062, 0.0016239556, 0.0203600917, -0.0078548323, 0.0226711277, 0.0096465750, 0.0225895401, -0.0126198633, -0.0243668742, -0.0098703913, 0.0994330570, -0.0181201920, 0.0022491221, 0.0070509692, -0.0151990540, 0.0385337137, 0.0102091869, 0.0021938614, 0.0178588685, -0.0010959196, 0.0115970224, 0.0112934019, 0.0443293862, -0.0282803997, -0.0159508996, 0.0199942496, -0.0026463862, -0.0125158411, -0.0349300839, -0.1419766843, 0.0271943044, -0.0818151608, -0.0328800641, 0.0405971855, 0.1207859591, 0.0101799062, 0.0113007165, 0.0022406504, 0.0227309167, -0.0507583506, 0.0741447434, -0.0464266762, 0.0148869455, 0.0339496732, 0.0103344824, 0.0082653090, 0.0526120141, 0.0141524039, -0.0369287282, 0.0381498970, 0.1371480376, 0.0784547254, 0.0110535752, 0.0105015757, -0.0900825858, 0.0333049968, -0.0131978309, 0.0380893834, 0.0459304564, 0.0188805461, 0.0432390533, 0.0556385517, -0.0053150710, 0.0336116515, -0.0020040942, 0.0520118438, 0.0460733920, 0.0268401019, -0.0231220257, 0.0046945601, 0.0664757416, -0.0253007449, -0.0491299182, 0.0073273904, 0.0555234440, -0.0103385402, -0.0025918167, -0.0396133997, 0.0180626512, 0.0288864821, 0.0446892641, 0.0125393104, 0.0184765272, -0.0106000099, 0.0218691900, -0.0207711179, 0.0226188358, 0.0210018307, -0.0707785264, 0.0948929340, -0.0133623648, 0.0067158984, -0.0034087328, 0.0111834351, 0.0346795619, -0.0155667560, -0.0126218516, -0.0055570868, 0.0105350520, -0.0064078574, 0.0071706004, 0.0101689808, 0.0233837646, 0.0223636851, 0.0189172812, -0.0093762884, -0.0038271728, -0.0342864841, -0.0021451844, -0.1279223859, 0.0555521883, 0.0076241787, 0.0145774120, 0.0611906238, 0.0582414865, -0.0489745960, 0.0035790997, 0.0060952441, -0.0729099065, 0.0494458899, -0.0186130870, -0.0733423904, 0.0205589328, -0.0012337556, 0.0390341617, 0.0203495193, 0.0690510273, 0.0197584331, 0.0140611809, 0.0014766991, -0.0163869988, 0.0095696161, -0.0569764338, 0.0053427014, -0.0091349315, -0.0692188591, -0.1011303440, 0.0717130825, 0.0538930669, -0.0003691558, -0.0169374924, -0.0136285853, 0.0100816553, -0.0021792352, -0.0012392206, -0.0040679397, 0.0174117777, -0.0283217672, -0.0061884103, -0.0519812740, 0.0148949353, 0.0046702735, -0.0876355469, 0.0493600108, -0.0099501703, 0.0603646748, 0.0491595641, 0.0038723205, 0.0499055870, 0.0372052975, 0.0465403199, 0.0372633748, 0.0413109735, -0.0038957628, -0.0017678909, 0.0257065594, -0.0173906889, -0.0067011565, 0.0044833599, -0.0162717775, -0.0111203147, -0.0380128957, -0.0110610472, -0.0156385303, 0.0555652156, -0.0070771989, -0.0015681220, -0.0057618464, 0.0164369699, -0.0136930449, -0.0150497016, -0.0115423026, 0.0073012379, 0.0175730046, -0.0018156966, 0.0555482991, 0.0264903344, -0.0208538044, 0.0667308196, -0.0024055813, 0.0327999480, -0.0033357118, -0.0336333029, -0.0226596557, -0.0124931987, 0.0084932903, -0.0259088613, 0.0175506305, -0.0334026851, 0.0167687573, -0.0426734388, -0.0478225388, 0.1018281877, -0.0071002063, 0.0401241146, 0.0348116159, -0.0075477869, -0.0017995641, -0.0001975174, -0.0037761093, 0.0701330081, -0.0087832073, -0.0204571821, -0.0300649758, 0.0360117778, -0.0075225942, -0.0180773046, 0.0376679264, 0.0486345813, 0.0300822742, 0.0299240425, -0.0230667237, 0.0304811522, -0.0135296928, 0.0156205790, 0.0095221959, 0.0315535031, 0.0022084822, 0.0126537457, 0.0354532674, 0.0092687020, 0.0210795347, 0.0225001071, -0.0138673838, -0.0031932434, -0.0082154972, -0.0071550929, 0.0283176973, -0.0177437402, -0.0065226257, -0.0029798266, 0.1211625040, 0.0404829942, -0.0039893957, -0.0210983045, 0.0078439219, -0.0490256995, 0.0341254249, -0.0004386306, -0.0024854892, 0.0252450164, -0.0186464433, 0.0336314291, 0.0024239093, -0.0444900617, -0.0017590248, 0.0176844262, 0.0062672920, -0.0249880850, 0.0143918330, -0.0201979540, 0.0103174457, -0.0642624050, 0.0062573329, -0.0362701900, -0.0379211865, 0.0619811788, 0.0031576271, 0.0369206630, 0.0237508826, -0.0173249301, 0.0138348704, 0.0206129719, 0.0056709447, 0.0040661735, 0.0007668388, 0.0010072920, -0.0313609727, 0.0108979922, -0.0022815203, -0.0454036146, 0.0550009944, 0.0152574899, -0.0759383589, -0.0406938940, -0.0349302553, -0.0445144661, -0.1067804322, 0.0297046434, -0.1982853562, 0.0671167970, 0.0476553924, 0.0483902171, 0.0305470824, -0.0038597314, -0.1126898825, 0.0634259209, 0.1074252501, 0.0068042744, 0.0537931100, 0.0246972404, -0.0124431783, -0.0308360290, 0.0159835964, -0.0096485624, 0.0825140625, 0.0925273448, -0.0403225906, 0.0077618361, -0.0032030139, -0.0582356602, 0.0796331018, -0.0001861820, -0.0818985626, -0.0437602550, 0.0334001929, 0.0564920381, 0.0684515312, 0.0070324973, 0.0927994922, 0.1355098933, 0.0053376085, 0.0785154030, -0.0084137572, -0.0711899325, 0.0190463923, 0.0319968946, -0.0366353728, -0.0581802242, 0.0644055977, -0.0736161396, 0.0472172052, 0.0177069418, -0.0903485641, -0.0122533916, 0.0054103709, 0.0001521539, 0.0027800682, -0.0883621573, -0.0058038845, 0.0200489908, 0.0072006634, -0.0072337799, 0.0228521321, -0.0419715121, 0.0758459643, 0.0276422575, 0.0048083337, 0.0299411062, -0.0197020471, 0.0314697288, -0.0161169618, 0.0396535173, -0.1303250194, 0.0519847721, 0.0236955360, 0.0452682786, 0.0140888821, 0.0321279131, -0.0198063795, 0.0292623006, 0.0640097558, 0.0061048837, 0.0625225008, -0.0018978299, -0.0173696429, 0.0482541621, 0.0179047473, 0.0183607321, 0.0514610782, 0.0676131472, 0.0038268415, 0.0479631908, 0.0358596705, 0.0337018408, 0.0610734411, -0.0440800041, -0.0073510702, -0.0516247451, 0.0101652024, 0.0456262827, 0.0253543649, 0.0219743624, 0.0596117824, 0.0565151125, 0.0196059458, 0.0227563512, 0.0402421840, 0.0127914893, 0.0431794859, 0.0545179360, -0.0439104848, 0.0356635228, 0.0366402827, -0.0663841367, -0.0096853739, 0.0265521258, -0.0165834278, 0.0534093231, 0.0110466359, 0.0292300433, 0.0066975490, -0.0192874800, -0.0065122088, 0.0246245489, -0.0260659754, -0.0984474197, 0.0280960705, 0.0396008678, 0.0452812985, 0.0743457526, 0.0474433303, -0.0144907292, 0.0124840541, 0.0210923944, -0.0459357426, -0.0508714281, -0.0327953435, 0.0511147268, 0.0314332657, 0.0111284824, 0.0069787740, 0.0232800804, 0.0178642739, -0.0578841455, 0.0711835027, -0.0002703039, 0.0749291182, -0.0558818430, 0.0237140004, 0.0384223312, -0.0179812163, 0.0106923701, 0.0256902687, 0.0554340407, 0.0341581441, -0.0033380110, 0.0248508733, -0.0291578602, 0.0699543431, 0.0249306895, -0.0122436285, -0.0544232205, -0.0050482759, 0.1029727980, 0.0433665030, 0.0342624150, 0.0512217358, -0.0007953098, -0.0336174183, -0.0560014322, -0.0211898331, -0.0063127871, 0.0291893445, 0.1338727623, 0.0618517958, 0.0457837097, -0.0057056393, -0.0898017362, 0.0962293223, -0.0501496904, -0.0739572048, 0.0413284972, 0.0176850203, -0.0094160261, 0.0179493763, 0.0419096351, 0.0062043625, 0.0036232886, -0.1105958000, -0.0606882647, -0.0024994467, -0.0011165310, 0.0497512184, 0.0010394689, -0.0168955475, -0.0981194675, 0.0009547573, 0.0063272798, -0.0797508359, -0.0503409095, 0.0225264933, 0.0225113798, 0.0366541520, 0.0099517470, -0.0061847614, 0.0013950993, -0.0936872810, 0.0061876541, 0.0232755598, -0.0182065405, 0.0413313545, 0.0196420085, -0.0757469088, -0.1080620587, 0.0186847709, 0.0024314725, -0.0032505856, -0.0248519946, -0.0047825947, -0.0242699794, 0.0002607043, -0.0823104307, -0.0492545739, -0.0406639837, -0.0251707900, 0.1435381472, 0.0237497836, -0.0061497740, 0.0070098247, -0.0398823544, 0.0259999614, -0.0805442780, 0.0229268502, 0.0245271623, 0.0172612723, -0.0988448858, -0.0275767986, -0.0619229712, -0.1326139867, -0.0711856484, -0.0042012371, -0.0384033546, -0.0014960768, -0.0347892940, -0.0482266322, -0.0571658164, -0.0068739560, -0.0206723940, 0.0021993357, 0.0824452788, -0.0200249776, -0.0058262683, 0.0817523599, 0.1018645763, -0.0061836303, -0.1172930971, -0.0227070097, -0.0257738307, 0.1092931032, -0.0090684565, -0.0709698498, 0.1000397652, -0.0464632548, 0.0017006292, -0.0205625240, -0.0734090209, 0.0356818475, 0.0134252543, 0.0525183491, -0.0141071025, -0.0090327309, -0.0667877272, -0.0470724069, -0.0216944870, 0.0213673078, 0.0250124410, 0.0386569425, -0.0265869778, -0.0261520073, -0.0088411169, 0.0186802503, -0.1672847122, 0.0998342559, -0.0136590730, -0.0243537705, -0.0537330136, -0.0435656682, -0.0422951020, -0.0025549589, 0.0451727249, -0.0108828833, -0.0499292761, -0.0121049071, -0.0255205370, -0.0212980956, -0.0597592518, 0.0314970016, 0.0207034256, 0.0238313619, -0.0431725122, 0.0157026928, -0.0550228991, -0.0526894070, -0.0672557354, 0.0639284179, -0.0221747402, -0.0756788030, 0.0037800747, -0.0035023279, 0.0489548631, -0.0292131193, 0.0007456050, -0.0348001905, 0.0147961304, -0.0104502672, 0.0201694649, 0.0473545566, 0.0276032686, -0.0363479778, -0.0655081794, -0.1379100978, 0.0215556789, 0.1193573773, -0.0395143256, -0.0984191373, 0.1242173761, -0.0613782071, -0.0804764479, -0.0071193846, -0.0572984181, 0.0131556299, 0.0006419206, 0.0271506160, 0.0111296996, -0.0286998730, -0.0782845244, -0.0012570148, -0.0057713729, 0.1270157993, -0.0225077774, 0.0868365020, -0.0965097174, 0.0109576238, 0.0050617931, 0.0256297532, -0.0653668866, 0.1230590865, 0.0248983037, 0.0027232070, -0.0608732179, -0.0150821423, 0.0744060948, -0.0278443396, 0.0396880917, -0.0067369929, 0.0461549796, -0.0042013922, -0.0518037789, -0.0327790454, -0.0094245570, 0.0025653138, -0.0215831902, -0.0013272591, -0.0264023989, 0.0295288451, 0.0593911558, -0.0199711062, -0.0599731542, 0.0791952163, -0.0859671533, 0.0836546496, -0.0705328360, -0.0378114060, 0.0685969964, 0.0025545747, 0.0308965016, -0.0338207521, -0.0223789848, -0.0143782264, 0.0107170288, -0.0057929275, 0.0242430344, -0.0223345850, -0.0719110444, -0.1661965251, -0.0402445644, 0.0002810961, 0.0000511593, 0.0000984034, 0.0000032134, 0.0001165112, 0.0003690647, 0.0002150505, -0.0001666219, 0.0000165221, 0.0000103035, 0.0000336347, 0.0002050767, -0.0000103627, 0.0002149745, -0.0001938424, -0.0000075652, -0.0003109147, -0.0000159344, 0.0000620308, 0.0003766985, 0.0000067056, -0.0000120242, 0.0000664744, -0.0000661836, 0.0003630097, -0.0000159585, 0.0000283178, 0.0000945720, -0.0001440069, -0.0000219023, 0.0002905524, 0.0001226199, -0.0000259683, -0.0000404013, -0.0001101547, 0.0005505026, -0.0001733503, -0.0001092563, 0.0000247632, -0.0000964121, 0.0000105567, 0.0003706397, 0.0000820791, 0.0000212300, -0.0006357519, 0.0002236755, -0.0002549031, 0.0002682495, 0.0002380080, 0.0002039667, 0.0003892701, -0.0000473827, 0.0000132283, 0.0000138010, 0.0000247776, 0.0001960084, 0.0000421646, 0.0000121872, -0.0003085287, 0.0002167977, 0.0000242071, 0.0000577583, -0.0000989768, 0.0000721425, 0.0000448024, 0.0000486674, 0.0001569620, 0.0000951751, 0.0001301726, 0.0003419256, 0.0003059087, -0.0002241688, 0.0000342108, 0.0000308254, 0.0000447416, 0.0000784540, -0.0000280219, 0.0000612147, -0.0001824871, -0.0000041439, -0.0002431778, 0.0000095759, -0.0001985778, 0.0002269575, 0.0000199266, 0.0000034479, 0.0000348580, -0.0001665958, -0.0003061128, -0.0000117043, 0.0000432452, 0.0001698881, -0.0003273750, -0.0001836685, 0.0002372129, 0.0004711209, -0.0000051519, 0.0000735854, -0.0001675862, 0.0001690619, -0.0002452992, -0.0001709335, 0.0000383125, -0.0000420893, 0.0000292822, 0.0001217308, 0.0000799416, 0.0001294495, 0.0003293312, 0.0000494526, 0.0001889632, 0.0002143556, 0.0002865038, 0.0001351351, 0.0002701504, 0.0000235962, 0.0000008704, 0.0000217310, 0.0000313180, 0.0000339003, 0.0000497968, 0.0000328505, -0.0003904031, -0.0000442901, -0.0000010440, 0.0000616169, -0.0000666922, 0.0000624384, 0.0005200871, -0.0000083159, 0.0000193618, 0.0003259022, 0.0001100916, 0.0000942595, 0.0004354763, -0.0001196802, 0.0000064289, 0.0000330181, -0.0000818309, -0.0000311778, -0.0000853733, 0.0000143226, -0.0004489521, 0.0000089826, -0.0001203877, 0.0000301594, -0.0002791656, -0.0000696104, 0.0000274876, -0.0000129894, -0.0000197115, -0.0001430368, 0.0000998846, -0.0000056199, 0.0000335720, 0.0001715872, -0.0006255424, -0.0002247463, 0.0002870795, 0.0003791576, 0.0000057273, -0.0000523494, -0.0002995146, -0.0001770432, -0.0005308971, -0.0007589949, 0.0000126971, -0.0000899980, 0.0000200171, 0.0001906685, 0.0000863899, 0.0001272603, -0.0001587944, 0.0000631427, -0.0002172220, -0.0001695179, 0.0003519779, -0.0000255806, 0.0001144945, -0.0000895185, -0.0000087768, -0.0000205239, 0.0000263663, 0.0001619127, 0.0000317134, 0.0000224508, 0.0000376264, -0.0001748187, 0.0000177809, 0.0000028605, -0.0000801598, -0.0000730828, 0.0004654270, 0.0000054254, 0.0005141995, 0.0000088924, 0.0000815077, 0.0003283278, -0.0001450749, -0.0002605898, -0.0000147619, -0.0000206456, -0.0000926458, 0.0001083136, -0.0000785940, -0.0000761053, 0.0003807875, -0.0000330014, -0.0003028233, -0.0000050535, 0.0002981564, 0.0004174569, -0.0000155122, -0.0000170177, -0.0000165206, 0.0000091725, 0.0001251862, -0.0000218064, -0.0000054687, 0.0001335120, 0.0000344826, -0.0000866249, -0.0002940469, -0.0001883119, -0.0000103588, -0.0000019657, -0.0000833378, 0.0007919479, -0.0000087657, 0.0005233699, 0.0000314428, -0.0000209506, -0.0000058799, 0.0001729869, 0.0000981548, -0.0001676190, -0.0006395603, 0.0001307725, 0.0004852899, -0.0001728430, -0.0002810711, 0.0001575122, 0.0001336070, 0.0002499582, -0.0000273117, 0.0000176554, 0.0000168489, 0.0003377727, 0.0000230846, 0.0000073583, -0.0008106325, -0.0000667618, 0.0000197945, 0.0000812963, -0.0000512767, 0.0000637142, 0.0004159638, -0.0001441999, 0.0000477900, 0.0000314326, 0.0001005102, 0.0000419739, 0.0001558487, -0.0002894989, -0.0000258997, -0.0000177589, -0.0000579473, 0.0000732670, -0.0001220617, -0.0000578991, 0.0002885417, -0.0000457325, -0.0003140683, 0.0000059013, 0.0000792151, -0.0000890185, 0.0000134614, -0.0000059982, -0.0000228389, -0.0002080678, -0.0004827290, -0.0000214205, -0.0000074365, 0.0000657702, -0.0003170427, -0.0000314158, -0.0000919332, 0.0003021819, -0.0000071024, 0.0004025529, 0.0000213412, 0.0001025692, -0.0001877719, -0.0001111837, 0.0000338759, 0.0000073665, 0.0000050915, -0.0000460324, 0.0000185300, 0.0005614634, 0.0003004284, 0.0000089596, 0.0002098857, 0.0000323216, 0.0001671293, -0.0000507959, -0.0000442999, -0.0001320543, -0.0000521080, 0.0000109338, -0.0000108411, 0.0003703152, -0.0000236395, 0.0000217493, -0.0006284172, 0.0001285996, -0.0000130181, -0.0000950003, -0.0000445510, 0.0000083865, 0.0006490646, -0.0003308601, -0.0005352220, -0.0002066207, -0.0001942008, -0.0004498037, 0.0004997496, 0.0000161704, -0.0000421641, -0.0000012872, -0.0000438159, 0.0001033884, -0.0001027205, 0.0001887372, -0.0000838568, -0.0000399445, 0.0002396065, 0.0000325226, -0.0001271452, -0.0005922343, 0.0000656324, -0.0000031801, -0.0000612783, 0.0000305037, -0.0000337387, -0.0000005544, 0.0000154545, -0.0003531766, -0.0003320465, -0.0000091700, 0.0002610877, 0.0005475869, 0.0000342574, 0.0004903381, 0.0000110756, -0.0004443520, -0.0001522448, -0.0010288415, 0.0000196191, 0.0000929555, 0.0000331035, -0.0002222319, -0.0001046990, 0.0003285858, 0.0002812367, -0.0002405824, -0.0004817653, -0.0004027954, 0.0003071409, -0.0004339525, -0.0003563958, -0.0008667554, -0.0000360456, 0.0000002536, -0.0000352924, 0.0005047522, -0.0001362649, 0.0000390221, 0.0001009244, 0.0000938218, 0.0000249735, -0.0004957911, 0.0000721721, -0.0002517576, 0.0001600665, 0.0001996742, 0.0004153987, 0.0002493841, 0.0002567256, 0.0003581513, -0.0002206655, -0.0001176943, 0.0000141811, -0.0000119832, -0.0001709109, -0.0000427606, -0.0001088533, 0.0001046831, -0.0003715878, -0.0000265032, 0.0000368695, -0.0000135509, 0.0001610089, 0.0004577345, 0.0000137824, -0.0000104729, -0.0000772541, -0.0000528219, 0.0002659363, -0.0000005451, -0.0000201460, 0.0003443895, -0.0003131585, -0.0005346329, -0.0002111871, -0.0001222026, 0.0000212508, -0.0006827845, -0.0003397794, 0.0005224410, -0.0003494345, 0.0000778807, 0.0000134244, -0.0000879573, -0.0000286168, 0.0004757757, 0.0001699092, -0.0003190811, -0.0005100382, 0.0003186798, -0.0000727225, 0.0002208706, -0.0006259231, 0.0002274560, 0.0004348163, 0.0003755968, -0.0000006907, -0.0000001209, 0.0000346720, -0.0000979142, 0.0000314231, -0.0000014852, 0.0001147293, -0.0004227971, 0.0000368589, 0.0003656488, -0.0000097732, 0.0001866959, 0.0001159601, -0.0000900074, -0.0002132816, -0.0001785874, -0.0001559721, -0.0002884917, -0.0002686844, -0.0000079620, 0.0000195636, 0.0000006837, -0.0001010317, -0.0000622978, -0.0001144654, 0.0000781410, -0.0003459983, -0.0000278044, 0.0001319044, 0.0000041182, -0.0000792008, -0.0001605440, 0.0000607543, 0.0000331205, -0.0000578767, 0.0001384674, -0.0004711506, 0.0000098327, -0.0000013604, -0.0003333248, -0.0003895655, -0.0002305015, 0.0000664110, -0.0000468745, 0.0000340283, -0.0001882571, -0.0001006019, -0.0001047666, -0.0001736090, -0.0006948432, 0.0000028075, -0.0000162143, -0.0000042601, -0.0000367643, -0.0000480371, 0.0003924164, 0.0002236515, -0.0000963699, -0.0007922095, 0.0001295416, -0.0002071178, -0.0002776108, -0.0000536826, -0.0002934502, -0.0000023582, 0.0000172022, -0.0000025494, 0.0001357484, -0.0001077316, 0.0000208205, 0.0002952457, -0.0000424459, 0.0000341641, -0.0002136160, 0.0001467062, -0.0000729125, -0.0001447410, -0.0004362389, -0.0007038498, -0.0014299278, -0.0007583488, -0.0010450752, -0.0003683318, 0.0002507378, 0.0000133653, 0.0000272353, -0.0000902573, 0.0000466873, -0.0001062734, 0.0002993961, -0.0004795491, -0.0000050069, 0.0005787243, 0.0000314765, -0.0003796323, -0.0010692264, 0.0001038513, 0.0000480397, 0.0000014679, 0.0004703815, -0.0007656117, 0.0000304447, 0.0000246143, -0.0012231334, -0.0000515677, -0.0001141663, 0.0002694341, 0.0002050917, 0.0000672411, -0.0000394866, 0.0001606509, -0.0004959934, 0.0002543888, -0.0010614867, 0.0000281044, 0.0001526623, 0.0000513985, -0.0008544746, -0.0002811329, 0.0000380521, 0.0006183960, -0.0008468982, -0.0010207720, -0.0005541117, -0.0002618681, -0.0006901084, -0.0009114700, -0.0014525132, 0.0000065293, 0.0000147944, -0.0000054840, 0.0001808830, -0.0002217035, 0.0000547065, 0.0002179983, -0.0000249982, 0.0000629740, -0.0010265757, 0.0003848018, -0.0004757721, -0.0001745114, -0.0001584859, -0.0000482337, -0.0007186987, -0.0000720004, -0.0001733504, 0.0002997720, -0.0001984566, -0.0000725416, -0.0000049427, -0.0000243533, -0.0000495719, 0.0000669068, 0.0000324586, 0.0002692206, 0.0000178330, -0.0001593745, -0.0000245370, -0.0004631302, -0.0003588199, -0.0000777233, -0.0000345219, 0.0001136603, -0.0000389937, -0.0008711690, -0.0000469054, -0.0000061428, 0.0000031544, 0.0006372532, 0.0005801279, -0.0003152803, 0.0007063756, -0.0000279808, 0.0004591713, 0.0004597777, -0.0000018676, 0.0005064889, -0.0002986732, -0.0000131346, 0.0000385805, -0.0000199901, -0.0003451202, -0.0001048871, 0.0009006197, 0.0003029054, -0.0003371570, -0.0001440308, -0.0004721517, 0.0009419866, -0.0000615877, -0.0003411945, -0.0002485324, -0.0000271746, -0.0000200346, -0.0000233255, 0.0003246444, -0.0001035386, -0.0000073831, -0.0002469924, 0.0006641055, -0.0000348450, -0.0001152889, -0.0000703937, -0.0001668376, 0.0000733213, 0.0000139447, 0.0003164336, -0.0003554327, 0.0003259371, 0.0002254786, 0.0004251866, -0.0002739231, -0.0000604836, -0.0000091220, -0.0001018708, -0.0000437493, -0.0001151315, -0.0000362337, -0.0002672270, 0.0000157179, -0.0001205891, -0.0000533006, -0.0003774572, 0.0006121253, -0.0000745904, -0.0000297523, -0.0000322157, -0.0000750400, -0.0004724079, -0.0000305711, -0.0000048615, 0.0004963716, 0.0003511505, 0.0001531129, -0.0003152881, 0.0002538698, -0.0000145671, -0.0000038204, 0.0002386611, 0.0003274979, 0.0001338631, -0.0004765023, -0.0000117304, -0.0000655690, -0.0000442349, 0.0001828344, 0.0000407206, -0.0001895218, -0.0007656246, 0.0001557529, -0.0002869839, 0.0001960031, 0.0004890059, 0.0001768318, 0.0002398118, 0.0001124636, -0.0000358481, -0.0000182416, -0.0000174945, 0.0000265687, -0.0000057409, -0.0000057137, -0.0008453764, 0.0003997801, -0.0000222847, 0.0002262358, -0.0000675810, 0.0000853081, 0.0003637067, 0.0003597837, 0.0009252093, 0.0000217126, 0.0009798525, 0.0012174578, 0.0011340183, -0.0003877929, -0.0000611461, -0.0000349549, -0.0000526484, 0.0000536389, -0.0001843872, -0.0001652088, -0.0001930975, -0.0000095998, -0.0002874846, -0.0000562525, -0.0000974608, 0.0013128985, -0.0001133955, -0.0000092675, 0.0000764446, -0.0003032085, 0.0004455265, -0.0000275618, 0.0000150102, 0.0014720496, 0.0003623232, 0.0001728322, 0.0002645193, 0.0005654921, -0.0000250180, -0.0001423643, 0.0001600277, 0.0003414305, 0.0001615037, -0.0000602842, 0.0000074370, -0.0000423105, -0.0000390455, 0.0008993792, 0.0002256998, -0.0006017652, -0.0000636494, 0.0008113492, 0.0001555690, 0.0005637355, 0.0004630481, 0.0008062490, 0.0010686137, 0.0006794414, -0.0000576770, -0.0000365942, -0.0000035025, 0.0003774950, 0.0001046830, -0.0000202013, -0.0005325552, 0.0004081568, -0.0000373015, 0.0010932788, -0.0003040469, 0.0004328778, -0.0001507394, -0.0002087503, 0.0002156066, -0.0000968951, -0.0000916192, -0.0004331756, 0.0002602697, -0.0000473489, -0.0000477140, -0.0000061415, -0.0000127801, -0.0000424296, 0.0000628712, 0.0001136678, 0.0002400043, -0.0000280769, -0.0000819891, -0.0000235409, 0.0000657529, -0.0003448903, -0.0000276697, -0.0000281451, 0.0000566239, -0.0000494968, -0.0001106851, -0.0000255059, 0.0000043752, -0.0001641198, 0.0000773646, 0.0004547999, 0.0001699802, 0.0007144417, -0.0000242394, 0.0004652326, 0.0000683655, -0.0000291884, 0.0002462724, -0.0004482675, -0.0000187249, -0.0000690803, -0.0000200995, -0.0002928856, -0.0000648313, 0.0006346076, 0.0005522930, -0.0003376082, 0.0005647823, -0.0002181694, 0.0008239268, -0.0002759598, -0.0002987613, -0.0002067263, -0.0000154482, -0.0000111927, -0.0000147158, 0.0002798633, -0.0000777903, -0.0000261549, 0.0003962048, 0.0003483918, -0.0000316288, -0.0002081363, -0.0000425766, -0.0001263308, -0.0000738268, -0.0000629297, 0.0004034023, 0.0002292070, 0.0001013049, -0.0002219599, -0.0001372894, 0.0000138854, -0.0000279681, -0.0000063667, -0.0000965025, -0.0000059946, -0.0000128203, -0.0000287955, -0.0006262923, -0.0000030411, -0.0002008835, -0.0000356026, -0.0002927677, 0.0002972316, -0.0000122444, -0.0000208852, -0.0000948255, -0.0000568911, 0.0000395135, 0.0000098329, 0.0000266862, 0.0000170830, -0.0007026326, -0.0002800386, -0.0002021228, 0.0000584301, 0.0000078666, -0.0003525990, -0.0004794065, 0.0003590827, -0.0006603820, -0.0007434051, -0.0000095311, -0.0001043412, -0.0000254902, 0.0000634724, 0.0000840380, -0.0003011104, -0.0008934512, -0.0000584578, 0.0003383637, -0.0000822152, 0.0001209778, -0.0002176865, 0.0000510262, 0.0001742114, -0.0000177723, -0.0000139718, 0.0000127912, 0.0002933906, 0.0000114114, -0.0000255864, -0.0003599567, -0.0002367756, -0.0000108949, 0.0000241571, -0.0000298108, 0.0000866177, 0.0000969880, 0.0002984803, 0.0004708272, 0.0002878750, 0.0006601122, 0.0006569638, 0.0006324074, -0.0003084132, -0.0000272733, -0.0000232023, -0.0000267693, 0.0001430296, 0.0000373205, -0.0001143471, -0.0004539311, -0.0000082811, -0.0004693512, -0.0000248484, -0.0002528430, 0.0006846483, -0.0000653589, 0.0000146712, -0.0000154539, -0.0004487570, 0.0001811997, -0.0000029733, 0.0000275889, 0.0008665166, -0.0003706887, -0.0002332597, -0.0000152116, 0.0006435192, -0.0000011075, -0.0001756652, -0.0003966977, 0.0005992376, -0.0004244971, -0.0005568686, 0.0000166750, -0.0001743558, -0.0000159533, 0.0004244052, 0.0002109161, -0.0001864542, 0.0003719819, 0.0001865409, 0.0005353192, 0.0000111429, 0.0002680884, 0.0003651042, 0.0004965904, 0.0004378878, -0.0000474282, -0.0000508358, 0.0000176454, 0.0004501759, 0.0001506687, -0.0000081817, -0.0001432362, -0.0000540506, -0.0000219891, 0.0005983594, -0.0004063149, 0.0003709173, -0.0001549082, -0.0000704819, 0.0001586494, -0.0003964896, -0.0000598434, -0.0000848078, 0.0000342943, 0.0000023702, -0.0000011481, 0.0000321985, -0.0000900717, -0.0001465415, -0.0000842926, 0.0001211690, 0.0000584653, -0.0000060338, 0.0000578906, -0.0000019982, -0.0005319311, -0.0008578141, 0.0000300989, 0.0000173264, -0.0000251027, 0.0000899070, -0.0001022556, -0.0000147097, 0.0000370676, -0.0000929258, -0.0002495499, 0.0000307380, 0.0003754216, 0.0003531986, 0.0000115275, 0.0002614032, 0.0000096813, -0.0004011290, -0.0000956285, -0.0000865962, -0.0000025529, 0.0000056879, 0.0000261737, -0.0003798739, -0.0000928915, 0.0003230987, 0.0006445830, -0.0003801668, 0.0000687419, -0.0004964264, 0.0003850365, -0.0002176418, -0.0003210909, -0.0004727620, 0.0000186653, 0.0000248308, -0.0000384380, 0.0005586245, -0.0001021263, 0.0000129218, 0.0004045294, -0.0000096745, -0.0000146522, -0.0002251038, 0.0000849038, -0.0001315455, 0.0001594580, 0.0000441329, 0.0003052132, -0.0001681522, 0.0000598855, 0.0001235258, -0.0000820063, 0.0000584925, 0.0000060834, 0.0000379789, -0.0000395783, 0.0000560670, -0.0000392159, 0.0000259533, -0.0003811339, 0.0000231004, -0.0000620597, -0.0000056393, -0.0002589983, -0.0002381830, 0.0000367432, 0.0000028690, -0.0001170090, 0.0002235895, 0.0000924871, 0.0000285004, 0.0000300846, -0.0000003022, -0.0005475417, -0.0003456252, -0.0000637267, -0.0001366572, 0.0000391675, -0.0002346345, -0.0002610018, -0.0001896746, -0.0006212789, -0.0005688307, 0.0000551558, -0.0000610301, 0.0000406155, -0.0000701431, 0.0000144563, -0.0003366749, -0.0006429882, -0.0000508387, 0.0001333123, -0.0004177360, -0.0000512347, -0.0000846676, -0.0000125958, -0.0000710818, 0.0000085030, 0.0000311253, -0.0000088894, 0.0005834603, -0.0000524805, 0.0000145149, 0.0000489387, -0.0002576536, 0.0000013654, -0.0000150841, 0.0002035627, 0.0000747030, 0.0002155212, 0.0002194098, 0.0004631649, -0.0000082984, 0.0004280290, 0.0006274111, 0.0004284088, -0.0002467306, -0.0000065904, 0.0000145167, -0.0000363627, 0.0000933040, 0.0000417573, -0.0000517895, -0.0001513849, 0.0000091431, -0.0003269141, 0.0000077686, -0.0005538277, 0.0003946822, -0.0000443426, 0.0000265858, -0.0000157081, -0.0001134112, 0.0002144374, 0.0000157116, 0.0000252507, 0.0005550178, -0.0001541383, -0.0002861315, -0.0002384948, 0.0002825122, 0.0000112162, -0.0000103007, -0.0000592304, 0.0002495897, -0.0002001270, -0.0003992492, 0.0000556896, -0.0001714473, 0.0000195594, 0.0001310960, 0.0001103704, -0.0002233308, -0.0001510282, 0.0001326047, 0.0001958639, -0.0001307753, 0.0001447154, 0.0003185619, 0.0002799585, 0.0002911653, -0.0000304710, -0.0000162079, 0.0000089470, 0.0010046759, 0.0000540832, 0.0000239791, -0.0001181202, -0.0001099634, -0.0000332004, 0.0003515153, -0.0001215438, 0.0002474427, -0.0304131489, -0.0201564468, -0.0012299432, 0.0400111079, 0.0019514823, 0.0016914336, -0.0065516187, -0.0372563526, 0.0030191664, -0.0137262689, -0.0103994375, 0.0016100690, 0.0159498565, -0.0169814080, -0.0395377092, 0.0123567730, 0.0006333307, 0.0031094896, 0.0257763434, -0.0199066941, 0.0057333526, 0.0265683811, -0.0244674645, -0.0282129496, 0.0110606868, -0.0000438743, -0.0013103036, 0.0025656892, -0.0021904462, 0.0163901113, -0.0098263724, 0.0147872744, -0.0006078629, 0.0291062891, -0.0053737238, -0.0208256245, 0.0116070658, -0.0113116037, -0.0015056748, -0.0103919171, -0.0000084597, -0.0140089253, -0.0031392598, 0.0134208193, 0.0382759236, -0.0151531585, 0.0000036759, -0.0194859654, 0.0383306295, -0.0001804957, -0.0105696693, -0.0117832264, -0.0081089474, -0.0095670382, 0.0000114305, -0.0075206291, 0.0038929591, -0.0064644157, -0.0099327611, 0.0464362428, -0.0003694139, -0.0063790539, -0.0110643338, -0.0049176621, 0.0097483331, -0.0058654295, 0.0009534535, 0.0658691823, 0.0138530368, -0.0051729432, 0.0103057688, -0.0365135223, -0.0064578205, -0.0138643198, 0.0203093458, 0.0222537722, 0.0271739755, -0.0251801349, -0.0252570715, 0.0089464663, 0.0026557953, 0.0067991102, 0.0548954867, -0.0109116305, -0.0020025889, 0.0311555211, -0.0280818082, -0.0205507744, 0.0445568934, 0.0019303989, 0.0045403186, 0.0077586337, 0.0030868268, 0.0108305588, -0.0021395446, 0.0263809077, 0.0105945086, -0.0046251626, -0.0174834840, 0.0145503376, 0.0109244725, -0.0094544888, 0.0007876039, -0.0411437377, 0.0201609954, 0.0154051753, 0.0096771680, -0.0505216569, 0.0308262706, 0.0129430452, 0.0035022227, -0.0282212459, 0.0118513936, 0.0073217778, 0.0176700335, -0.0150712533, -0.0044835196, 0.0095492629, -0.0005665775, -0.0087657338, 0.0142941764, 0.0060565546, -0.0223358255, 0.0106603652, -0.0043092025, 0.0171644837, -0.0439121351, 0.0016695642, 0.0359704755, -0.0366513096, 0.0037620421, 0.0377126038, -0.0130890310, -0.0494806319, 0.0278906021, -0.0213220380, -0.0035738475, -0.0092883203, -0.0270433743, -0.0110982377, -0.0060668602, -0.0119938357, -0.0294110831, -0.0077111730, 0.0094288439, 0.0118810935, 0.0681185052, 0.0069476794, 0.0144224251, 0.0032867326, -0.0137227243, 0.0123447347, -0.0048366692, 0.0086799301, -0.0190924536, -0.0262181573, 0.0028311885, 0.0318964794, 0.0355264433, -0.0176994633, 0.0083374269, -0.0216625631, -0.0335868262, 0.0285783838, -0.0112826908, 0.0141064255, -0.0069514411, -0.0176053848, 0.0020615875, 0.0082892813, -0.0108014038, -0.0246117860, -0.0449937135, 0.0073729306, -0.0534620769, -0.0345623754, 0.0074391742, -0.0168067962, 0.0122523755, -0.0172652360, -0.0047572851, 0.0170163009, -0.0122811319, -0.0378314666, 0.0025229792, 0.0209996346, -0.0225859098, -0.0015253641, -0.0023726239, -0.0043103513, -0.0411380492, -0.0172640216, 0.0041188989, 0.0005464061, -0.0080423709, -0.0223892182, -0.0152424835, 0.0231881607, 0.0132207088, 0.0340471342, 0.0174137820, 0.0119884545, 0.0040521594, -0.0215011761, 0.0271321703, -0.0225601699, 0.0057591829, -0.0019851599, 0.0020760030, 0.0148197860, -0.0564936623, 0.0157173797, -0.0076948940, 0.0238956176, 0.0365976207, 0.0078308042, -0.0379114300, 0.0099541908, 0.0054776650, -0.0069576306, 0.0026127875, 0.0160906389, -0.0511006862, -0.0479483306, 0.0055703698, 0.0053897761, 0.0218080450, -0.0339000747, 0.0335783996, -0.0060495050, 0.0051799887, 0.0042245579, 0.0096440688, -0.0219193622, -0.0196441635, -0.0330846980, -0.0251472052, -0.0230410695, -0.0346370302, -0.0014115975, 0.0154775288, 0.0011106484, -0.0294538494, 0.0299553890, -0.0018613089, -0.0000430360, -0.0096823061, 0.0222960282, -0.0078619802, -0.0141990520, 0.0034083948, -0.0033039334, -0.0053353412, -0.0121001070, 0.0393171571, -0.0099824043, 0.0397749357, 0.0247816071, -0.0450588986, 0.0299897734, 0.0061728093, 0.0472385287, 0.0054477048, 0.0079059089, -0.0086705405, -0.0078083239, -0.0010448082, -0.0142837297, -0.0137916459, -0.0453836657, 0.0083609661, -0.0090522021, -0.0055189589, -0.0006372098, 0.0007871839, 0.0189563483, -0.0300198309, 0.0028743010, 0.0210120250, -0.0167536382, 0.0115639716, -0.0071802661, -0.0121118501, 0.0106579866, -0.0184736922, -0.0036792010, -0.0418872349, -0.0163113829, -0.0063952156, -0.0365393423, 0.0013715134, 0.0412253849, -0.0072917514, 0.0028692668, -0.0116649149, -0.0184555613, -0.0105941379, 0.0135043710, 0.0007818975, -0.0589319170, -0.0218476765, 0.0007254863, 0.0255822893, 0.0356592126, -0.0030696152, 0.0233747978, 0.0042484431, 0.0081896465, -0.0093408311, -0.0002489269, -0.0182567816, 0.0066408692, -0.0032703048, -0.0160442423, -0.0280392580, -0.0152494861, -0.0230616536, 0.0134842033, -0.0067830952, 0.0138418721, 0.0340006091, -0.0016552657, -0.0258851964, 0.0164120160, -0.0141802719, 0.0073538925, -0.0058801533, 0.0129777547, 0.0065526622, 0.0166791324, -0.0047136541, -0.0017913658, -0.0042854529, -0.0120974993, 0.0230841972, -0.0027358348, 0.0401469842, 0.0221832022, 0.0710122511, 0.0090358565, -0.0107949106, -0.0118170418, 0.0358473137, 0.0135172997, -0.0278813671, 0.0098959971, -0.0164503139, -0.0209167860, 0.0094956793, 0.0225664042, 0.0175457709, -0.0240694173, 0.0056708027, -0.0326511897, 0.0050760279, 0.0226564612, 0.0320237726, -0.0195321422, 0.0090900538, 0.0257193204, -0.0026642953, 0.0210312512, -0.0004302789, -0.0388181992, -0.0392681062, -0.0049069179, 0.0359586217, 0.0161161087, -0.0023633300, 0.0108232051, 0.0104988404, -0.0138735967, 0.0092483899, 0.0293038394, -0.0020432149, -0.0290833600, 0.0010382719, 0.0015822307, 0.0042354660, -0.0200428441, -0.0052513010, -0.0086934231, 0.0012547092, 0.0083355419, -0.0452888347, 0.0122801727, 0.0033893674, -0.0069684237, 0.0184252020, -0.0053081256, -0.0286963396, -0.0158931687, 0.0108761918, -0.0013986025, -0.0164185204, 0.0046536569, 0.0416977480, -0.0063791578, 0.0075967154, 0.0038929018, -0.0328199975, -0.0006350895, -0.0363270566, 0.0302269347, -0.0092923911, 0.0075583332, -0.0384736173, -0.0095774531, -0.0349043719, 0.0009416477, 0.0029492164, 0.0043903748, -0.0567807741, -0.0233002584, 0.0524407178, -0.0871213749, -0.0117521202, 0.0393322743, -0.0576195233, -0.0186384842, 0.0023918396, -0.0261185504, 0.0076739020, -0.0491345562, -0.0042851656, -0.0184854940, -0.0148891145, 0.0496011525, 0.0296995305, -0.0195691641, -0.0457102135, 0.0161248893, -0.0066676326, -0.0097126225, -0.0031267295, 0.0171760619, -0.0128069529, -0.0038997279, -0.0036513724, -0.0420171469, -0.0047372603, -0.0115308883, 0.0515488610, -0.0278280154, -0.0139055867, -0.0029952945, 0.0301423874, -0.0170936305, -0.0185468514, 0.0282554068, -0.0390175469, 0.0380218960, 0.0326921642, 0.0081525752, -0.0386553518, -0.0137047898, -0.0131559763, -0.0269034449, -0.0190699436, -0.0052152243, 0.0068654683, -0.0055591795, -0.0221413691, -0.0067106620, 0.0036974160, -0.0060785199, -0.0378616862, 0.0049967282, -0.0055494057, -0.0093642697, -0.0528257228, -0.0240287948, 0.0235619266, -0.0156793818, -0.0195854269, 0.0163332783, -0.0231962483, -0.0045390851, 0.0525653325, -0.0388074145, -0.0194423068, 0.0259429365, -0.0061826175, -0.0280941911, 0.0360993035, -0.0008672865, -0.0148325432, -0.0330326706, -0.0158385970, 0.0108138742, 0.0091551431, 0.0656087548, 0.0535288081, 0.0036274812, -0.0484674685, 0.0469591841, 0.0277568530, 0.0100683821, 0.0233955383, 0.0308752935, -0.0228230823, -0.0134789096, -0.0147630051, -0.0275962073, 0.0008154276, -0.0010280703, 0.0193253923, 0.0034665107, -0.0093556866, 0.0201004483, -0.0113728233, 0.0018919636, 0.0053450400, 0.0225146879, -0.0369317569, 0.0225065537, 0.0147965280, -0.0008989479, -0.0188264642, 0.0366019979, -0.0148044275, -0.0074940086, 0.0209431462, -0.0016754676, -0.0051810900, 0.0155020356, -0.0221102107, 0.0026253026, 0.0568394437, 0.0151386466, 0.0270036198, -0.0165263228, -0.0030941374, -0.0085466783, -0.0246152785, 0.0114910817, 0.0119139981, 0.0064808391, 0.0070041264, -0.0073847068, 0.0245355051, 0.0063642222, 0.0369353257, -0.0152965952, -0.0057354458, -0.0152195925, 0.0030689675, -0.0116012152, 0.0277028102, 0.0113075580, 0.0101194456, 0.0144601585, 0.0176095013, 0.0098212222, 0.0114221079, -0.0059536304, -0.0117453318, -0.0011064581, -0.0167761091, 0.0511098392, -0.0052184733, 0.0143655157, 0.0218556114, 0.0012092178, 0.0094272187, 0.0285855941, -0.0065626102, -0.0137521010, 0.0123054553, 0.0014396481, -0.0259437189, -0.0032789465, 0.0098659033, 0.0051226537, 0.0068048337, 0.0047401148, 0.0169388372, -0.0520365834, -0.0150133679, 0.0125217624, -0.0435545444, -0.0200327411, -0.0120242517, -0.0254984479, -0.0085423077, 0.0012521899, -0.0173329450, 0.0039015764, -0.0431593582, -0.0073034517, 0.0201349594, -0.0103215100, -0.0135254590, -0.0013688327, -0.0052379575, 0.0067467061, -0.0045925169, -0.0190967023, 0.0235920437, 0.0043467134, -0.0050496827, -0.0085159028, -0.0198118035, -0.0504430495, 0.0236111060, -0.0162830912, 0.0114948144, 0.0396456383, -0.0044258945, -0.0191118754, 0.0168502964, 0.0147432825, 0.0310134646, -0.0161518119, -0.0048948261, -0.0070007215, 0.0070418273, -0.0570799783, -0.0206753276, -0.0238474291, -0.0617694482, -0.0599099398, 0.0032483025, -0.0172273628, 0.0251934677, -0.0174062345, -0.0528434664, 0.0152134877, 0.0019549280, -0.0001843800, -0.0234352965, 0.0146864112, -0.0098853782, 0.0030034150, -0.0027126870, 0.0026837923, -0.0013283785, -0.0503646433, 0.0174040478, -0.0401791334, 0.0624639466, -0.0151478797, -0.0135215651, 0.0127466945, -0.0126738092, 0.0233323034, 0.0036586435, -0.0479057617, -0.0143447472, -0.0032342616, -0.0137130702, -0.0337829404, -0.0490833148, -0.0019778674, -0.0121812262, -0.0107849650, -0.0268136524, -0.0108699678, -0.0194936097, -0.0004846170, -0.0121752890, -0.0227211397, 0.0092179338, -0.0239378288, -0.0020863654, -0.0078467792, -0.0083885454, -0.0155016165, -0.0006286938, -0.0315933637, -0.0314512514, 0.0406505391, -0.0085147535, -0.0377380773, 0.0269448049, 0.0188056733, 0.0035392218, -0.0146742146, -0.0094002420, 0.0116185844, -0.0229689721, -0.0230326522, -0.0040339543, -0.0109449262, -0.0612385161, -0.0387523100, 0.0081883920, -0.0215117708, -0.0156683419, 0.0099464552, -0.0290875342, 0.0302164704, -0.0057260673, 0.0021859806, -0.0046591340, 0.0268673375, -0.0066018850, -0.0079392912, 0.0120271249, -0.0056860955, -0.0090817530, -0.0191929657, 0.0019290693, -0.0150416577, 0.0363769308, 0.0083119199, -0.0020356928, 0.0100297630, 0.0030921253, 0.0270604696, -0.0050982754, -0.0270308275, -0.0112148533, -0.0022182115, 0.0031074802, -0.0048658634, -0.0083629768, -0.0026541972, -0.0014313724, -0.0090202363, -0.0007595564, 0.0032276108, -0.0229659379, -0.0269647166, 0.0016371134, -0.0079702558, -0.0009227449, -0.0172862504, -0.0006411084, 0.0094274897, 0.0064274417, -0.0098940749, -0.0077375616, 0.0013859500, -0.0235638153, 0.0129273292, -0.0135778179, -0.0137852784, 0.0236221347, -0.0240197144, -0.0037899555, 0.0116584646, 0.0139774419, 0.0286632851, -0.0110916058, -0.0089701377, -0.0003940339, 0.0027749254, -0.0133639267, -0.0127993263, -0.0432617366, -0.0111260172, 0.0008079219, 0.0033491543, -0.0060384539, 0.0118314624, -0.0042943466, 0.0124206105, 0.0104665896, -0.0049979305, -0.0008779804, -0.0135346754, 0.0500652306, 0.0278366730, 0.0035731860, -0.0086099207, -0.0128757395, -0.0090923179, -0.0166827869, 0.0158761237, -0.0036218374, 0.0246686861, -0.0414127484, -0.0227010734, 0.0148469992, 0.0538107194, -0.0141909327, -0.0102704735, -0.0130756767, 0.0170682129, -0.0139302230, 0.0469193012, 0.0414753631, 0.0052708490, 0.0205540303, 0.0058926125, -0.0162641611, 0.0154206622, 0.0142589854, -0.0003686076, -0.0273940116, 0.0595470369, 0.0007097304, 0.0077991202, 0.0045838379, -0.0762946904, 0.0537122563, 0.0053995117, 0.0083454465, 0.0224922635, -0.0018482411, 0.0274126995, 0.0296712052, 0.0371076055, 0.0447761789, 0.0088816769, 0.0002465556, 0.0271785762, 0.0069242190, -0.0524659380, 0.0056002466, 0.0106461132, 0.0222558845, -0.0619492605, 0.0372804254, -0.0013578236, 0.0061292415, -0.0162798949, -0.0398005918, -0.0097083906, -0.0028891237, 0.0132748038, -0.0175804086, 0.0240233708, 0.0045953616, -0.0046699224, 0.0349716581, 0.0308424644, 0.0098830257, -0.0475966074, 0.0430408195, -0.0286419727, 0.0331120715, 0.0157446843, 0.0001383689, 0.0401574261, -0.0350639448, -0.0025714450, 0.0064722607, 0.0289314520, -0.0106357243, -0.0055290661, -0.0168603491, 0.0197649859, -0.0085675502, 0.0272719692, 0.0203897208, 0.0069274404, 0.0154549712, 0.0130899185, 0.0061061322, 0.0258918274, 0.0068356581, 0.0047755977, -0.0208909959, 0.0349737778, -0.0026126481, -0.0113688447, 0.0054749902, -0.0601844788, 0.0072098467, -0.0103130471, -0.0040746266, 0.0187832080, -0.0068839039, 0.0294564068, -0.0073412685, 0.0387723297, 0.0072060190, 0.0135039287, -0.0061604991, 0.0065759872, 0.0044453889, -0.0724992603, 0.0119203934, 0.0113436626, 0.0102536632, -0.0566277243, 0.0367872640, 0.0513506159, 0.0168182142, -0.0016606497, -0.0462843105, 0.0105563672, 0.0070563522, 0.0034656425, -0.0046832836, 0.0525510423, 0.0163096916, -0.0120379766, -0.0131188799, 0.0551288351, 0.0000148176, -0.0411985368, 0.0335153081, -0.0152295073, 0.0334516913, 0.0018061646, 0.0005305719, 0.0187819880, -0.0379789844, -0.0007298855, 0.0099660521, 0.0012215391, 0.0005277071, 0.0012596685, -0.0020691573, 0.0186127257, -0.0127255004, 0.0288990121, 0.0360292383, 0.0014071846, 0.0510929227, 0.0173141435, 0.0313601680, 0.0230777990, 0.0248400103, -0.0039736214, 0.0239503104, 0.0476109907, 0.0115690324, 0.0016572461, 0.0258861911, -0.0541978031, 0.0151466671, 0.0241745021, 0.0027772463, 0.0188757125, 0.0151648652, 0.0417778529, 0.0151788192, 0.0235344060, -0.0028322842, 0.0175635181, 0.0036302730, -0.0011695009, 0.0072250376, -0.0526386537, 0.0136095593, 0.0137322675, -0.0591921732, -0.0329583064, -0.0253799316, 0.0449823812, 0.0291157644, -0.0109277898, -0.0262634885, 0.0104917828, 0.0279974584, 0.0164893195, -0.0028144636, 0.0479057468, 0.0202969145, 0.0106622288, -0.0286887772, 0.0789628774, 0.0121221012, -0.0421232991, 0.0527048074, -0.0068705636, 0.0173497200, 0.0094861938, 0.0203610733, -0.0195097551, -0.0112857763, 0.0087235756, -0.0078170458, 0.0102041140, 0.0050403611, 0.0157210827, 0.0074422648, -0.0168798883, -0.0083984686, -0.0122553110, 0.0478384867, 0.0010753267, -0.0049268762, 0.0131363031, -0.0032894958, 0.0052342913, 0.0025822334, 0.0003643637, 0.0206983723, 0.0681635067, -0.0338301696, 0.0207166765, -0.0013467942, -0.0099879811, 0.0362604931, 0.0281818397, -0.0237585958, 0.0336928926, -0.0147781968, 0.0456240363, 0.0135185048, 0.0070444122, 0.0357033424, -0.0183708258, -0.0210434739, 0.0260864682, 0.0144551778, -0.0245460719, -0.0075973258, -0.0102176387, 0.0452606790, -0.0049176603, -0.0171664506, -0.0097954217, 0.0155077828, 0.0002512063, -0.0066411295, 0.0071721845, 0.0162077025, 0.0118347695, -0.0085959407, 0.0290527754, -0.0023647465, -0.0133835115, -0.0075480263, 0.0394619368, 0.0139855919, -0.0187127814, 0.0654282272, 0.0158544276, 0.0579311252, 0.0144453757, -0.0037642715, 0.0282856729, -0.0066202725, 0.0120952558, -0.0021346516, -0.0037536926, 0.0021107099, 0.0138615593, 0.0037805373, -0.0054039001, -0.0120691834, -0.0290017817, 0.0180182885, 0.0052321227, -0.0210081730, 0.0065789279, 0.0039014854, 0.0204770863, -0.0109638758, -0.0089216568, 0.0162876938, 0.0493711531, -0.0047112601, 0.0157042183, 0.0022441146, -0.0119784521, 0.0012510566, 0.0297303163, -0.0205491874, 0.0154423667, -0.0182847381, 0.0476901345, -0.0065533561, 0.0428525656, -0.0248485506, -0.0032068358, 0.0008075836, 0.0231413413, 0.0126759652, -0.0075400607, 0.0021820946, 0.0429947823, 0.0640863106, 0.0012059485, 0.0060408348, 0.0152607681, 0.0205068104, 0.0013023231, 0.0059439754, 0.0391491726, 0.0089579746, 0.0138539532, -0.0039156601, 0.0250487402, 0.0011182955, 0.0047664051, -0.0110408068, 0.0259847939, -0.0064479308, -0.0167339630, 0.0087054018, 0.0287500527, 0.0578587614, 0.0000843040, 0.0354095399, 0.0378547981, -0.0221806373, -0.0168208797, 0.0052891565, 0.0382262096, 0.0037056673, 0.0079669990, 0.0021714773, 0.0205579512, -0.0179563649, 0.0005319636, 0.0202870816, -0.0022700108, 0.0459133498, 0.0012181654, 0.0294106901, 0.0173780080, 0.0095681790, -0.0013890925, 0.0019395462, 0.0642120466, 0.0112483911, 0.0140169486, 0.0124947140, -0.0351037160, 0.0126594389, 0.0370211974, -0.0195494182, 0.0198126677, -0.0110975718, 0.0388255827, -0.0226875991, 0.0407602638, -0.0275973547, 0.0009553172, 0.0010475437, 0.0125335036, 0.0047101094, -0.0093476856, 0.0036986177, 0.0142352525, -0.0190520659, -0.0069921161, 0.0396688767, 0.0024277805, 0.0326429419, -0.0153779155, -0.0073216204, 0.0268491507, 0.0120485583, 0.0093483664, 0.0008881201, 0.0150691746, 0.0011186890, 0.0093902014, -0.0171835031, 0.0095552448, -0.0023898706, -0.0354089104, 0.0164265223, 0.0015263301, -0.0010941696, 0.0000323301, 0.0001093518, -0.0013873859, -0.0002461900, -0.0003299256, -0.0002907346, 0.0002999434, 0.0000390237, 0.0000446936, 0.0001422860, 0.0000554202, 0.0001382424, 0.0000797335, -0.0000355259, 0.0000760930, 0.0001685098, 0.0001261124, -0.0009279114, -0.0006232029, 0.0000572682, 0.0001283012, -0.0000676514, 0.0003656334, -0.0012568980, 0.0001349197, 0.0001553553, -0.0002535807, -0.0000837587, -0.0001948155, -0.0000477508, -0.0003711678, 0.0000846477, -0.0001482818, -0.0002444479, -0.0004869783, -0.0002023970, -0.0002478780, 0.0000630614, -0.0000644763, 0.0001331660, -0.0004909200, 0.0000276288, -0.0004126904, -0.0002125908, -0.0003949068, 0.0001284835, -0.0011509751, -0.0004401803, -0.0003090407, -0.0003165180, -0.0011309371, 0.0000734643, 0.0001714446, 0.0001633401, -0.0002698003, 0.0001852735, 0.0000441488, -0.0001676998, -0.0002369297, 0.0001747923, -0.0002088517, 0.0001264038, -0.0000537843, -0.0006821621, 0.0000075281, 0.0001438038, -0.0007742397, -0.0001329086, -0.0000724741, 0.0002891769, 0.0002591487, -0.0000615809, 0.0000436345, -0.0000738309, 0.0000958607, -0.0000598436, 0.0002873942, 0.0003121496, -0.0000099913, 0.0000249517, 0.0000608047, -0.0006140997, 0.0002404386, 0.0000400881, 0.0000851833, 0.0001074005, 0.0002683061, 0.0000038547, 0.0000602019, 0.0001034341, 0.0000052398, 0.0001495512, -0.0000245296, 0.0004315891, 0.0000992852, 0.0000168598, 0.0000222208, -0.0000734138, -0.0000552481, 0.0000472494, -0.0002397851, -0.0000614614, -0.0000554611, 0.0000685483, -0.0002666101, -0.0000455684, 0.0000252018, 0.0004691395, -0.0001039578, 0.0003056623, -0.0006337090, 0.0000347275, -0.0001085398, -0.0001752888, -0.0005551486, -0.0000205762, 0.0001045633, 0.0000582415, 0.0002272610, 0.0000894068, -0.0000241675, 0.0002200756, -0.0000054186, 0.0001394746, 0.0000303285, 0.0001136863, 0.0000220235, -0.0003057957, -0.0000534034, 0.0001627371, -0.0003394186, -0.0000176636, 0.0002229262, 0.0003131192, 0.0000181553, -0.0000694242, 0.0000284405, -0.0000475341, -0.0000816096, -0.0002017753, 0.0001102845, 0.0002953517, -0.0000707302, -0.0004072556, -0.0000007102, -0.0003873902, 0.0009712485, -0.0000434105, 0.0000288243, -0.0001050997, 0.0000264305, -0.0000696735, -0.0000192674, 0.0000389390, 0.0001628449, 0.0001299803, -0.0002129243, 0.0000662235, -0.0002889087, -0.0000241804, -0.0004197316, 0.0000202868, 0.0005252552, 0.0001928698, -0.0001765895, -0.0001668789, -0.0000779358, 0.0000383021, -0.0000971238, -0.0001358243, -0.0002116986, -0.0011729962, 0.0000493898, 0.0004863150, -0.0000615083, -0.0001015134, 0.0001363367, 0.0000414552, -0.0002080789, -0.0000628723, 0.0000597042, -0.0000674769, 0.0003609872, -0.0000237661, -0.0000492786, -0.0002307663, -0.0002081985, 0.0000458788, 0.0001155717, 0.0000536536, 0.0000541115, -0.0006077329, 0.0000133064, 0.0002529987, -0.0004311925, -0.0002756375, -0.0003515543, -0.0006887711, 0.0000084623, 0.0000512170, 0.0000011696, 0.0000172413, 0.0000293036, 0.0001603934, 0.0000791354, -0.0009642711, 0.0000041773, -0.0000469501, 0.0000353765, -0.0006033477, -0.0002495041, 0.0000076913, 0.0001050090, 0.0002157659, -0.0001517642, -0.0009043760, 0.0000663620, 0.0001064223, -0.0003228460, -0.0007114127, -0.0004720499, -0.0002354440, -0.0006444921, 0.0000468029, -0.0006118836, -0.0005906512, 0.0000485834, -0.0005343844, 0.0001389054, 0.0000386365, -0.0000445575, 0.0000966145, -0.0004402990, -0.0000716475, -0.0002539896, -0.0004165369, -0.0002999731, -0.0001609207, -0.0001947574, -0.0004380928, -0.0004734152, -0.0003571103, -0.0003350243, 0.0000451511, 0.0001024503, 0.0000049676, 0.0001272423, 0.0000496629, 0.0000219698, -0.0010013013, -0.0003461124, 0.0001284695, -0.0002249052, -0.0000336204, -0.0001406071, -0.0004110153, 0.0000634927, 0.0004379339, -0.0002112182, -0.0000005239, -0.0000357296, 0.0003312002, 0.0001383476, 0.0000098901, 0.0000061921, -0.0000742259, -0.0000336025, 0.0000459183, 0.0001826663, -0.0004921808, -0.0000486113, -0.0000611615, 0.0000170128, -0.0000566988, 0.0000340958, 0.0000175640, 0.0000398409, 0.0001912249, -0.0002368542, -0.0004933146, 0.0000114162, 0.0000445979, 0.0000249194, -0.0000427581, 0.0001338253, 0.0007354545, 0.0002711589, 0.0000246547, -0.0000730866, -0.0001554044, -0.0001773545, 0.0000020794, -0.0000782005, -0.0000267804, -0.0000579345, 0.0000058248, -0.0001730533, -0.0000269358, 0.0001390021, 0.0009677032, -0.0000693901, -0.0001820754, -0.0000460085, 0.0004027361, -0.0002162034, -0.0000714725, -0.0001895264, -0.0000404360, -0.0000045130, -0.0000584296, 0.0004306762, -0.0000035863, -0.0000459806, 0.0000422037, 0.0004944535, 0.0000958252, 0.0000576312, -0.0000211532, -0.0000566498, -0.0000190459, 0.0000137548, 0.0003921529, 0.0003066167, 0.0000803980, 0.0001585926, 0.0004998852, 0.0001386988, 0.0000169240, 0.0000580040, -0.0000950984, -0.0001021491, -0.0000171426, 0.0001340726, -0.0000184507, -0.0001111541, 0.0000658416, 0.0000381491, 0.0002580711, 0.0006503225, 0.0000175848, -0.0000038727, 0.0000464086, -0.0000566274, -0.0000425061, -0.0000354433, -0.0000358894, 0.0002603193, 0.0004376181, 0.0003428686, 0.0006218840, 0.0002267159, 0.0000095374, -0.0001058999, 0.0002222752, 0.0004955637, 0.0004740946, 0.0001537351, -0.0000594675, 0.0000860421, 0.0000388418, 0.0001075027, -0.0000488000, 0.0000057907, -0.0002293855, 0.0000686793, 0.0000257127, 0.0002744748, 0.0005073907, 0.0000022068, 0.0000983141, 0.0004954138, -0.0000561522, -0.0000020134, -0.0000695351, 0.0003744372, -0.0000499411, -0.0000512301, 0.0003486415, 0.0004953682, 0.0000786332, 0.0002315173, 0.0000246549, -0.0000053959, -0.0001587029, 0.0001406426, -0.0003126156, -0.0001465574, -0.0001700904, -0.0002440420, -0.0002160510, 0.0000287184, 0.0001154807, 0.0000909830, 0.0001767907, 0.0000845799, 0.0002287242, -0.0001089334, -0.0004719866, 0.0001005940, 0.0001534444, 0.0001105682, -0.0001117277, -0.0000124533, -0.0000570612, 0.0001034809, 0.0001114358, 0.0001312956, -0.0004260062, 0.0001325605, 0.0000627622, -0.0004084093, -0.0002214456, -0.0001012917, -0.0001811391, -0.0005821779, 0.0000410075, -0.0003178321, -0.0001916701, -0.0001535100, -0.0001732273, -0.0000762469, 0.0000713634, -0.0000128248, 0.0001834424, -0.0001957495, 0.0001895222, -0.0006318126, -0.0009151372, -0.0004319008, -0.0003164405, -0.0005935404, -0.0004528299, -0.0003853978, -0.0000708533, -0.0003023401, 0.0001308728, 0.0001444580, 0.0001318944, -0.0004099439, 0.0001990084, 0.0000350946, -0.0001090709, -0.0003137848, 0.0000307233, -0.0003272526, -0.0000147320, -0.0000523243, -0.0002892847, 0.0000909578, -0.0001088923, -0.0002556423, -0.0000163971, 0.0002419668, 0.0005332732, 0.0001734546, 0.0000792976, 0.0000935153, 0.0000769415, 0.0000247911, 0.0003170982, -0.0000881853, -0.0000407130, 0.0000703749, -0.0000257442, 0.0000966543, -0.0004001441, 0.0003451001, -0.0000382880, 0.0000522075, 0.0001450426, 0.0000367274, -0.0001184779, 0.0001285179, 0.0000662580, -0.0000696332, -0.0001020603, -0.0000791672, 0.0005074092, 0.0002208349, 0.0000406458, -0.0000395836, -0.0000066127, -0.0000532164, -0.0000907042, -0.0000874791, 0.0000567900, -0.0000337846, 0.0001303837, -0.0000846438, 0.0001387970, -0.0001832936, 0.0002620659, -0.0002024331, -0.0001385804, -0.0002609301, 0.0002133277, -0.0000521390, 0.0001772060, -0.0000595185, 0.0000511530, 0.0000745741, 0.0000834553, 0.0002174401, 0.0000792573, -0.0000055720, 0.0000171308, 0.0000308695, 0.0000355161, -0.0000834287, -0.0001044392, 0.0000645844, -0.0001234011, 0.0002479329, 0.0000596348, 0.0001907442, 0.0002487146, 0.0007644639, 0.0006803260, 0.0000593256, 0.0000606080, 0.0000672540, 0.0000916406, 0.0000845091, 0.0000817975, -0.0001306946, 0.0005510725, 0.0000251957, -0.0002758671, 0.0000898408, -0.0003470164, 0.0005156346, -0.0000494951, -0.0000290032, 0.0000798848, -0.0000670314, 0.0003578595, 0.0000960906, -0.0000002938, 0.0004137449, 0.0000447349, -0.0002567567, 0.0006109921, -0.0000593328, 0.0000334006, -0.0000457746, -0.0000909808, 0.0001309709, 0.0001091346, 0.0002287226, -0.0000092346, -0.0001122245, 0.0001075574, 0.0002280211, 0.0001200427, -0.0003817949, -0.0000600639, 0.0002480643, -0.0001540371, 0.0001062681, 0.0000752729, 0.0004650752, 0.0004752608, 0.0004096145, -0.0000286544, 0.0000541450, 0.0000679375, 0.0005159728, 0.0000273737, -0.0000361690, -0.0000328788, -0.0002220890, -0.0000028257, 0.0003912069, -0.0001759534, 0.0003079150, -0.0000709170, 0.0000022138, 0.0000426023, 0.0000707066, -0.0000449357, -0.0000742766, -0.0002781097, 0.0000783948, 0.0000144534, 0.0000090655, 0.0000497081, 0.0000202169, 0.0000826920, -0.0000363596, -0.0001319798, -0.0000058048, 0.0000599099, 0.0000011900, -0.0002173732, -0.0001644476, 0.0000242757, 0.0000226089, 0.0000657845, 0.0000580815, -0.0000010507, 0.0000148289, 0.0000053446, -0.0000653830, -0.0001800915, -0.0002191045, -0.0001868824, -0.0003809408, 0.0000069978, -0.0001390876, -0.0001095800, -0.0003544775, -0.0001320649, -0.0000853278, 0.0000105809, -0.0000317389, 0.0000142047, -0.0000495537, -0.0000088651, -0.0001952494, -0.0002163612, 0.0000196011, 0.0000390437, -0.0000828414, -0.0003352522, -0.0001352193, -0.0000282804, 0.0000139991, 0.0000022925, 0.0000174990, 0.0000164249, -0.0001007234, 0.0000115458, 0.0000130567, -0.0000890919, -0.0002192552, 0.0000136161, -0.0000257525, 0.0000629712, -0.0000054011, -0.0000251769, -0.0000196139, -0.0000387060, 0.0000930077, -0.0000575175, -0.0000210520, -0.0000385846, 0.0000711163, -0.0000008329, 0.0000012396, -0.0000451024, -0.0000463007, -0.0000448241, 0.0000288616, 0.0000471209, -0.0000182121, 0.0000486550, -0.0000096040, -0.0000148643, -0.0000952124, 0.0000206011, 0.0000114123, 0.0000573418, 0.0000401477, 0.0001118731, -0.0000029387, -0.0000028303, -0.0000457395, -0.0000064018, -0.0000336210, 0.0000232120, -0.0000464803, 0.0000034114, 0.0000763759, -0.0000089733, -0.0000695876, 0.0000539304, 0.0000517924, 0.0000083978, 0.0000341595, 0.0000126607, -0.0001244684, -0.0000568800, 0.0001229245, 0.0004161976, -0.0000632045, 0.0001574642, -0.0000266481, -0.0000829919, -0.0000555082, -0.0000984946, 0.0000058399, -0.0000052416, 0.0000079237, -0.0000025810, -0.0000442832, -0.0000337951, 0.0000055910, 0.0001953235, -0.0001532569, 0.0000015989, -0.0000380449, 0.0000583304, -0.0000530972, -0.0000174850, -0.0000611641, -0.0001552998, 0.0001198159, -0.0001447577, -0.0000993098, -0.0002188426, 0.0000637904, -0.0000028159, 0.0000109782, -0.0000169984, -0.0000210971, -0.0000000180, -0.0000355618, 0.0001115099, -0.0000091740, 0.0000474994, -0.0000037285, -0.0000531364, -0.0001172893, 0.0000133875, 0.0000041600, -0.0000135696, 0.0000346728, 0.0000553267, -0.0000029740, -0.0000022333, -0.0001682805, 0.0000018519, -0.0001097934, -0.0000825833, -0.0003458536, 0.0000039863, -0.0000190712, -0.0000116640, -0.0001167288, 0.0000516354, 0.0000079370, -0.0000148576, -0.0000766498, 0.0000053090, -0.0001576723, -0.0000796344, 0.0000473952, 0.0000115102, -0.0000946604, -0.0000176566, -0.0000805478, -0.0001858279, -0.0000724642, -0.0001452281, -0.0000028105, 0.0000027249, 0.0000139283, 0.0000013233, -0.0001175854, -0.0000294853, -0.0000053970, 0.0001369883, -0.0002255848, 0.0000030914, -0.0001425645, 0.0000255184, -0.0000742147, -0.0002075147, 0.0000173705, 0.0000031364, -0.0000867864, 0.0000214787, -0.0000976097, -0.0002510187, 0.0001275431, 0.0000132159, 0.0000051905, 0.0000524319, 0.0000536830, 0.0000499185, -0.0000370500, -0.0001098648, -0.0000112022, 0.0001346340, 0.0000108525, -0.0002071434, -0.0001033233, 0.0000204405, 0.0000224051, 0.0000349430, 0.0001037166, -0.0000276099, 0.0000167947, 0.0000103320, 0.0000003386, -0.0001265961, -0.0002332566, 0.0000037933, -0.0003726086, 0.0000146753, -0.0002026166, -0.0001441053, -0.0002750832, -0.0000874353, -0.0000434240, 0.0000210724, 0.0000044574, 0.0000087046, 0.0000072254, 0.0000136991, -0.0003077867, -0.0001487787, 0.0000249232, -0.0000903157, -0.0001971836, -0.0003172904, -0.0001154175, -0.0000023003, -0.0000390382, 0.0000017667, 0.0000089606, 0.0000260341, -0.0003199034, 0.0000521489, 0.0000014114, -0.0000824466, -0.0002382142, 0.0000153921, 0.0000356789, 0.0001113776, 0.0000433500, -0.0001550618, -0.0000118669, -0.0000600639, -0.0000990641, 0.0000082994, -0.0000205120, 0.0000450232, 0.0001088839, -0.0000074188, -0.0000046255, -0.0000365540, -0.0000519796, -0.0000368473, 0.0000230864, 0.0000726259, -0.0000257447, 0.0001356369, -0.0000046940, 0.0000297293, -0.0000941883, 0.0000115932, 0.0000053248, -0.0000421818, 0.0000853643, 0.0000338878, 0.0000002576, 0.0000051490, 0.0000241138, 0.0001959568, 0.0000875456, 0.0001793052, 0.0000985700, 0.0000025996, 0.0001204279, 0.0000783742, -0.0000266922, 0.0002423194, 0.0002318518, -0.0000043607, 0.0001147746, 0.0000002548, -0.0000529967, -0.0000442467, 0.0001161883, 0.0006352896, -0.0000198013, -0.0000168066, -0.0000196345, 0.0000983606, 0.0000074882, -0.0000563597, -0.0000293534, -0.0000085452, -0.0000003111, 0.0000028543, -0.0001474360, -0.0000057944, -0.0000096023, 0.0001875721, 0.0000370448, 0.0000004623, 0.0000328681, 0.0000831348, -0.0000112494, -0.0000904074, -0.0000616834, 0.0000644857, -0.0000255177, -0.0000446530, -0.0000510744, -0.0002241410, 0.0000747424, -0.0000026544, 0.0000121209, 0.0000431002, 0.0000303385, 0.0000833450, -0.0000391072, -0.0000001020, -0.0000145097, 0.0000306026, -0.0000023296, 0.0000082898, -0.0000471935, 0.0000071100, 0.0000044615, 0.0000156574, 0.0000911866, 0.0000439572, 0.0000026413, 0.0000097421, -0.0000358283, 0.0001973729, 0.0000165296, -0.0000628575, -0.0002218010, 0.0000028649, -0.0000111707, 0.0000607936, -0.0000987999, 0.0001755674, 0.0001846665, 0.0000090759, -0.0000310693, 0.0000020075, -0.0000112463, -0.0000535520, -0.0001539193, 0.0000674809, 0.0000345262, -0.0000585688, 0.0000846220, -0.0001330841, 0.0000303118, -0.0000232806, -0.0000011818, -0.0000008500, 0.0000061114, 0.0000132092, -0.0001603706, -0.0000031993, -0.0000133471, 0.0001399527, 0.0000328600, 0.0000058457, 0.0000036608, 0.0000278873, -0.0000189801, -0.0001416489, -0.0000196369, -0.0001615260, -0.0001014592, -0.0000682715, -0.0001178112, -0.0000243887, 0.0000756314, 0.0000038015, 0.0000044891, 0.0000588794, 0.0000915638, 0.0000671643, -0.0000027933, -0.0000138505, -0.0000044133, 0.0001120824, 0.0000130247, -0.0000599409, -0.0000850872, -0.0000024626, 0.0000229313, 0.0000444239, 0.0000340572, -0.0001356949, 0.0000114554, -0.0000076857, -0.0001283808, -0.0000484430, -0.0000929219, -0.0000077932, -0.0001547524, 0.0000078235, -0.0001558759, -0.0000728123, -0.0002075355, -0.0000828117, -0.0000884555, 0.0000231064, -0.0000420203, 0.0000091700, -0.0001060398, -0.0000142691, -0.0002067406, -0.0001146563, -0.0000621010, -0.0001738958, 0.0000071755, -0.0001106134, -0.0000910789, -0.0000914100, -0.0001810255, -0.0000071898, 0.0000028590, 0.0000252584, -0.0001693863, 0.0000390104, 0.0000097862, -0.0000701152, -0.0000523296, 0.0000126654, -0.0001051039, 0.0000406503, -0.0000124466, -0.0001263018, -0.0000008141, -0.0000126887, -0.0001361966, -0.0000308723, 0.0000439108, 0.0001431413, 0.0000522349, -0.0000059507, -0.0000119673, -0.0000228194, -0.0000377095, 0.0000217514, 0.0000187277, 0.0000802313, -0.0000132717, -0.0000241695, 0.0000030786, -0.0000415584, 0.0000507775, -0.0000203888, 0.0000067835, 0.0000197513, 0.0000031222, -0.0001489792, 0.0000044592, -0.0000079292, -0.0000238256, 0.0001468615, 0.0000952491, 0.0001442101, 0.0002396131, -0.0000074992, 0.0000640394, 0.0000739497, 0.0001091980, 0.0001535947, 0.0000745810, -0.0000040125, 0.0000547384, 0.0000009258, -0.0001433213, -0.0000338791, 0.0000829245, 0.0004315554, -0.0000609870, 0.0000756745, 0.0001227008, 0.0000824899, 0.0000528006, -0.0000895695, -0.0001159891, -0.0000123723, 0.0000011649, 0.0000172420, 0.0000401899, 0.0000155936, -0.0000062381, 0.0000390761, 0.0001016619, -0.0000025838, -0.0000260183, 0.0000775623, -0.0000116423, -0.0000142959, 0.0000327416, 0.0001158498, 0.0000902535, 0.0000460680, 0.0001460147, -0.0000598773, 0.0000088242, -0.0000056792, 0.0000007017, 0.0000418744, 0.0000145355, 0.0000647342, -0.0000426805, 0.0001735770, -0.0000027359, -0.0000720626, 0.0000005472, -0.0000690306, 0.0002003993, -0.0000235067, 0.0000035226, 0.0000671048, -0.0000463257, -0.0000145042, -0.0000023679, -0.0000044595, 0.0000778723, 0.0001628686, 0.0000029889, -0.0000109012, -0.0001625968, -0.0000108535, -0.0000856182, 0.0000415586, 0.0001176545, 0.0001294152, 0.0002208589, 0.0000136788, -0.0000269386, -0.0000046116, 0.0000174468, -0.0000128038, -0.0000818800, -0.0001176341, 0.0001642654, 0.0001511967, 0.0001248418, -0.0001186722, 0.0001339377, 0.0000552253, 0.0000980327, -0.0000098294, 0.0000028963, 0.0000304898, -0.0000163227, 0.0000420287, -0.0000165244, -0.0001184444, 0.0000314368, 0.0000009452, 0.0001465195, 0.0000329818, 0.0000407790, -0.0000259268, -0.0000064047, 0.0000052432, -0.0000066384, -0.0000070526, -0.0000324303, -0.0000147092, 0.0000130597, 0.0000019932, 0.0000009464, -0.0000063045, 0.0000007549, -0.0000068046, -0.0000015439, -0.0000002840, -0.0000003222, 0.0000157260, 0.0000003909, -0.0000644340, -0.0000385649, -0.0000023898, 0.0000064661, -0.0000031629, 0.0000072055, -0.0000090277, 0.0000015861, 0.0000007527, -0.0000131508, -0.0000282052, -0.0000158277, -0.0000113257, 0.0000086461, 0.0000011359, -0.0000173520, -0.0000126677, 0.0000090183, -0.0000113524, -0.0000442027, 0.0000020857, 0.0000007044, -0.0000001585, -0.0000267334, -0.0000058096, -0.0000009552, -0.0000047081, -0.0000185189, -0.0000283780, -0.0000341147, 0.0000340698, -0.0000345004, -0.0000226332, -0.0000193118, -0.0000004942, 0.0000016058, 0.0000003030, 0.0000117823, -0.0000086206, 0.0000016706, -0.0000041500, -0.0000051506, -0.0000043879, -0.0000125587, 0.0000052045, -0.0000117002, 0.0000152222, 0.0000047554, 0.0000071395, -0.0000035940, 0.0000064635, 0.0000040725, 0.0000304468, 0.0000087094, 0.0000068793, -0.0000016059, 0.0000007536, 0.0000044109, 0.0000126190, -0.0000168077, -0.0000180870, 0.0000036979, 0.0000082194, 0.0000006976, -0.0000336773, -0.0000146786, -0.0000063331, 0.0000008657, -0.0000121012, -0.0000062948, 0.0000152494, -0.0000002351, -0.0000005800, 0.0000067103, -0.0000091303, -0.0000131266, 0.0000114467, 0.0000229152, -0.0000002738, -0.0000173468, -0.0000104582, -0.0000171637, -0.0000140870, -0.0000410682, -0.0000010970, -0.0000122503, -0.0000014541, 0.0000065900, 0.0000065048, -0.0000409100, 0.0000366604, -0.0000028689, 0.0000085205, -0.0000027497, 0.0000348803, 0.0000050576, 0.0000078613, -0.0000011419, 0.0000013690, 0.0000023910, 0.0000029271, 0.0000327935, 0.0000024993, 0.0000004926, 0.0000055255, 0.0000017496, -0.0000078098, 0.0000020412, -0.0000137879, 0.0000072855, -0.0000089557, 0.0000110170, 0.0000140983, -0.0000127572, 0.0000196577, 0.0000480877, 0.0000464283, -0.0000301046, 0.0000029328, -0.0000060682, -0.0000032624, 0.0000029124, -0.0000020055, -0.0000182296, 0.0000220605, 0.0000011218, -0.0000291772, -0.0000025082, -0.0000078219, 0.0000340804, -0.0000113449, -0.0000030740, -0.0000162878, -0.0000234690, -0.0000004708, -0.0000028761, -0.0000042325, 0.0000324774, 0.0000394556, 0.0000239337, -0.0000049787, 0.0000212339, -0.0000037785, 0.0000059325, 0.0000205170, 0.0000451779, 0.0000335484, 0.0000288687, -0.0000043784, -0.0000129995, -0.0000052057, 0.0000193282, 0.0000139094, -0.0000351136, -0.0000166762, 0.0000085031, 0.0000377022, 0.0000354345, 0.0000436964, 0.0000445711, 0.0000313295, 0.0000097461, -0.0000022505, -0.0000026480, 0.0000011455, 0.0000488634, 0.0000056683, -0.0000040351, -0.0000093506, 0.0000399226, -0.0000106196, 0.0000242888, -0.0000166110, 0.0000230459, -0.0000195745, -0.0000080413, -0.0000168467, -0.0000048097, -0.0000131542, -0.0000240833, -0.0000509660, 0.0000269269, 0.0000031284, 0.0000042355, 0.0000026062, -0.0000015939, 0.0000106132, -0.0000010797, -0.0000171587, 0.0000016815, 0.0000200903, 0.0000022776, -0.0000525775, -0.0000749449, 0.0000014196, 0.0000046698, -0.0000052959, 0.0000103593, -0.0000286681, 0.0000042340, 0.0000011580, -0.0000140515, -0.0000495386, -0.0000210835, 0.0000308358, -0.0000178437, 0.0000029903, -0.0000106770, -0.0000237904, -0.0000502634, -0.0000289147, -0.0000713253, 0.0000049934, -0.0000043174, 0.0000024068, -0.0000189334, -0.0000034103, 0.0000185177, 0.0000142713, -0.0000161643, -0.0000495836, -0.0000471503, -0.0000020976, -0.0000307259, -0.0000137023, -0.0000336594, 0.0000003106, 0.0000035461, 0.0000035061, -0.0000209737, -0.0000115771, 0.0000031516, 0.0000274141, -0.0000291355, -0.0000016519, -0.0000137151, 0.0000093808, -0.0000089916, 0.0000165884, 0.0000017404, -0.0000008430, -0.0000038140, -0.0000011202, 0.0000083650, -0.0000240354, 0.0000310727, 0.0000074061, 0.0000030125, 0.0000016367, 0.0000001692, 0.0000194581, -0.0000026289, -0.0000080452, 0.0000058744, 0.0000137092, 0.0000016165, -0.0000256329, -0.0000175137, -0.0000040323, 0.0000001253, -0.0000113781, -0.0000027854, -0.0000010113, 0.0000026921, 0.0000002659, -0.0000011012, -0.0000196323, -0.0000276865, 0.0000340597, 0.0000171554, 0.0000020503, -0.0000163033, -0.0000136758, -0.0000156053, -0.0000106553, -0.0000626919, 0.0000024593, -0.0000079352, 0.0000019057, 0.0000023371, 0.0000086633, -0.0000054450, 0.0000316279, -0.0000054332, -0.0000012770, -0.0000222518, -0.0000016392, -0.0000018059, 0.0000060380, -0.0000074158, 0.0000017948, 0.0000039409, 0.0000062300, 0.0000109052, 0.0000035550, 0.0000007370, 0.0000440741, -0.0000201378, -0.0000050566, 0.0000013220, -0.0000007254, 0.0000082846, 0.0000176312, 0.0000088781, 0.0000355098, -0.0000060210, 0.0000180091, 0.0000538488, 0.0000052734, -0.0000058405, 0.0000015047, -0.0000010713, 0.0000065993, 0.0000076038, 0.0000166661, -0.0000115253, 0.0000509672, 0.0000025327, -0.0000183232, -0.0000013726, -0.0000033267, 0.0000518612, -0.0000076277, -0.0000047579, -0.0000192967, -0.0000168178, -0.0000026125, -0.0000007678, -0.0000017544, 0.0000334869, 0.0000437847, 0.0000155256, -0.0000226040, 0.0000426233, -0.0000021981, 0.0000060166, 0.0000203581, 0.0000508633, 0.0000372811, 0.0000342317, 0.0000005376, -0.0000144224, -0.0000015827, 0.0000133672, 0.0000183377, -0.0000004372, -0.0000069671, 0.0000061794, 0.0000608946, 0.0000289954, 0.0000357578, 0.0000366592, 0.0000187606, 0.0000248557, -0.0000018664, -0.0000006425, 0.0000027035, 0.0000330583, 0.0000122081, -0.0000032512, 0.0000184899, 0.0000389565, -0.0000072218, 0.0000248625, -0.0000102621, 0.0000235589, -0.0000335112, -0.0000095982, 0.0000144402, -0.0000712371, -0.0000105687, -0.0000424289, 0.0000054459, 0.0000193583, 0.0000014745, 0.0000022459, -0.0000013261, 0.0000012095, 0.0000057572, -0.0000047630, -0.0000278693, -0.0000000380, 0.0000248301, 0.0000004625, -0.0000615522, -0.0000681052, 0.0000037375, 0.0000025663, -0.0000009679, 0.0000212671, -0.0000270824, 0.0000037608, 0.0000028127, -0.0000243181, -0.0000269022, -0.0000106543, 0.0000035515, 0.0000108330, 0.0000033773, 0.0000059029, -0.0000249070, -0.0000760345, -0.0000170647, -0.0000337646, 0.0000040676, -0.0000161477, 0.0000042978, -0.0000426619, -0.0000080867, 0.0000087742, 0.0000444291, -0.0000247625, -0.0000322986, -0.0000821388, -0.0000029374, -0.0000373332, -0.0000292814, -0.0000857606, -0.0000008273, 0.0000017493, 0.0000020370, 0.0000116703, -0.0000086507, 0.0000047926, -0.0000365491, -0.0000121301, 0.0000038681, -0.0000208453, 0.0000025637, -0.0000118518, -0.0000212090, 0.0000050561, 0.0000200820, -0.0000430529, 0.0000070198, -0.0000003801, 0.0000292299, 0.0000275701, 0.0000007952, 0.0000027861, 0.0000004762, 0.0000013377, 0.0000148044, -0.0000098909, -0.0000106009, -0.0000006345, 0.0000206368, -0.0000014044, -0.0000653088, -0.0000222614, -0.0000010984, -0.0000002461, 0.0000171331, 0.0000001367, -0.0000046227, 0.0000015993, 0.0000020053, 0.0000028364, -0.0000127838, -0.0000250828, 0.0000198185, 0.0000021738, 0.0000029359, -0.0000086939, -0.0000256709, -0.0000580601, -0.0000101723, -0.0000180213, 0.0000016358, -0.0000169752, 0.0000044482, -0.0000082147, -0.0000001406, -0.0000148280, 0.0000342585, -0.0000007181, 0.0000283064, -0.0000565934, -0.0000104859, -0.0000105619, 0.0000019705, -0.0000191870, -0.0000013167, 0.0000013263, 0.0000009887, 0.0000085919, 0.0000003459, 0.0000019775, -0.0000172152, -0.0000209337, -0.0000012983, 0.0000084577, -0.0000081611, 0.0000036646, 0.0000047367, 0.0000121077, 0.0000287918, 0.0000240905, 0.0000266178, 0.0000414054, 0.0000499634, -0.0000077739, -0.0000050009, -0.0000013931, 0.0000019225, 0.0000036416, 0.0000048253, -0.0000073045, 0.0000327649, -0.0000049134, -0.0000218023, -0.0000034291, -0.0000307692, 0.0000640301, -0.0000026599, -0.0000028633, 0.0000116721, -0.0000123425, 0.0000108923, -0.0000024835, -0.0000004522, 0.0000358797, 0.0000262031, -0.0000015156, -0.0000073653, 0.0000050833, -0.0000016889, -0.0000086497, -0.0000007802, 0.0000311238, 0.0000138357, 0.0000494743, -0.0000023882, -0.0000125807, 0.0000002297, 0.0000125058, 0.0000067521, -0.0000027948, -0.0000383649, 0.0000083938, 0.0000720057, 0.0000238202, 0.0000225366, 0.0000246837, 0.0000217036, 0.0000431341, -0.0000045972, -0.0000025866, -0.0000035298, 0.0000441492, 0.0000025807, -0.0000033689, -0.0000121178, 0.0000105971, -0.0000041632, 0.0000298632, -0.0000139100, 0.0000161252, 0.0000465570, -0.0000317612, 0.0000237998, 0.0000245469, 0.0000262442, 0.0000334597, -0.0000153553, 0.0000375170, 0.0000042006, 0.0000027363, -0.0000086514, 0.0000021314, -0.0000515411, 0.0000263715, -0.0000829679, -0.0000048834, 0.0000296731, 0.0000035763, -0.0000852522, 0.0000431135, 0.0000193270, 0.0000033559, -0.0000038825, -0.0000072939, 0.0000414761, -0.0000021374, 0.0000026581, 0.0000502338, -0.0000798948, -0.0000644279, 0.0000921517, 0.0001324160, 0.0000014085, -0.0000452557, -0.0000465739, -0.0001193375, -0.0000939205, -0.0001595430, -0.0000107070, 0.0000089655, 0.0000093410, 0.0000507491, 0.0000041888, 0.0000292330, -0.0000117860, 0.0000546511, -0.0001023341, 0.0000214294, 0.0000375065, -0.0000138682, 0.0000303065, -0.0000070636, -0.0000005782, 0.0000053194, 0.0000163438, 0.0000341346, 0.0000086946, 0.0000063040, 0.0000416165, -0.0000241161, 0.0000093912, 0.0000513493, -0.0000210376, 0.0000132438, 0.0000316918, -0.0000384084, 0.0000718455, 0.0000152692, 0.0000102023, 0.0000005292, -0.0000358151, 0.0000360236, -0.0000037348, 0.0000048299, 0.0000135672, 0.0000285326, -0.0000364577, 0.0000048055, -0.0000193167, -0.0000028139, 0.0000486231, 0.0000003229, -0.0000629159, 0.0000988500, 0.0000115474, -0.0000002964, 0.0000153978, 0.0000143505, 0.0000040411, -0.0000022878, 0.0000064739, 0.0000238506, 0.0000307813, 0.0000332346, 0.0001000985, 0.0001643214, 0.0000026666, 0.0000639986, 0.0000232460, -0.0000151194, -0.0000098510, -0.0000039426, -0.0000110411, 0.0000240342, 0.0000051639, 0.0000199117, -0.0000209383, 0.0000718527, 0.0001431215, 0.0000270848, -0.0000389965, 0.0000583584, 0.0001653915, 0.0000008172, 0.0000156492, 0.0000481104, -0.0000081726, 0.0000052014, 0.0000121662, 0.0000681396, -0.0000103729, 0.0000089071, 0.0000095371, 0.0000931258, 0.0000063946, 0.0000318969, -0.0000202129, 0.0000032604, 0.0000724268, -0.0000295438, 0.0001126417, -0.0000070856, 0.0000339362, 0.0000019778, 0.0000140597, -0.0000427241, -0.0000053357, 0.0000034720, -0.0000086502, 0.0000016687, -0.0000404773, -0.0000284351, -0.0000065699, -0.0000037079, -0.0000071547, 0.0000025440, 0.0000058480, 0.0001743156, -0.0000063470, 0.0000028281, -0.0000026185, -0.0000110158, 0.0000575377, -0.0000072319, 0.0000083975, 0.0000395852, 0.0000412277, 0.0000658419, 0.0000171294, 0.0000848245, 0.0000004361, 0.0000484503, 0.0000364090, 0.0000240594, 0.0000033917, 0.0000752836, -0.0000156733, -0.0000030401, 0.0000036611, 0.0000236206, -0.0000109350, 0.0000496929, -0.0001275297, 0.0000459861, -0.0000126430, 0.0000717327, 0.0001077939, 0.0000335760, 0.0000389722, 0.0000507926, -0.0000100038, 0.0000056190, 0.0000124432, 0.0000613489, 0.0000116135, 0.0000030338, -0.0000984374, 0.0001200689, -0.0000071310, 0.0000468609, -0.0000434155, 0.0000254754, 0.0000371266, -0.0000071601, 0.0000790176, 0.0000121524, 0.0000139253, -0.0000141149, 0.0000156654, 0.0000168298, -0.0000012898, -0.0000038014, -0.0000289905, -0.0000147311, -0.0000496822, 0.0000000729, -0.0001409184, -0.0000025916, -0.0000201414, 0.0000004937, -0.0001940988, -0.0000828443, 0.0000167674, 0.0000036606, -0.0000100376, -0.0000265565, -0.0000475371, -0.0000025602, 0.0000039797, 0.0000378810, -0.0002441236, -0.0000844340, 0.0000177828, 0.0000391079, 0.0000007575, -0.0000363548, -0.0001286607, -0.0001337989, -0.0002321856, -0.0002748455, 0.0000033661, -0.0000446622, 0.0000105889, -0.0000334151, -0.0000165363, 0.0000311283, -0.0000206773, 0.0000347612, -0.0000866900, -0.0001800037, -0.0000314576, -0.0000530300, -0.0000281891, -0.0001008956, -0.0000019351, -0.0000024570, 0.0000221912, 0.0001017925, 0.0000013440, 0.0000046669, -0.0000164573, -0.0000778841, 0.0000097450, 0.0000104050, -0.0000151991, -0.0000260819, 0.0000226704, 0.0000005354, 0.0000136968, 0.0000700997, 0.0000255051, -0.0000236349, 0.0000262357, 0.0000459272, -0.0000045683, -0.0000018538, 0.0000089986, 0.0000020530, 0.0000033547, 0.0000058978, -0.0000472984, -0.0000033803, 0.0000664426, -0.0000064088, -0.0000951195, -0.0000778388, 0.0000072531, 0.0000011258, -0.0000134734, -0.0000193737, -0.0000307642, 0.0000010569, 0.0000023867, 0.0000184984, -0.0000452455, 0.0000055044, 0.0001132861, 0.0001040466, 0.0000013734, 0.0000378910, -0.0000388289, -0.0000516190, -0.0000820084, -0.0001624087, -0.0000027836, -0.0000094474, -0.0000000129, -0.0000108173, -0.0000077886, 0.0000868247, 0.0001312730, -0.0000064797, -0.0000571083, -0.0000809460, 0.0000879393, -0.0000264382, 0.0000090587, -0.0000267537, -0.0000089610, -0.0000052329, 0.0000167456, 0.0000141108, -0.0000107962, 0.0000039576, 0.0000905036, -0.0000068867, 0.0000057303, 0.0000002031, 0.0000017077, -0.0000264049, 0.0000447722, 0.0000119480, -0.0000183671, 0.0000772096, 0.0000122929, 0.0000084740, 0.0000066771, -0.0000095639, -0.0000065294, -0.0000028131, 0.0000124936, -0.0000033621, -0.0000132420, -0.0000212231, 0.0000092573, -0.0000033071, 0.0000078058, -0.0000032367, 0.0000189235, 0.0000451663, -0.0000095043, 0.0000042420, -0.0000029029, -0.0000190948, 0.0000183599, -0.0000000671, 0.0000084535, 0.0000134577, 0.0000181782, 0.0000099902, 0.0000250871, 0.0000595575, -0.0000006311, -0.0000162990, -0.0000065301, 0.0000677392, -0.0000116373, -0.0000598178, -0.0000110534, -0.0000191751, 0.0000009493, 0.0000141940, 0.0000053694, 0.0000764992, -0.0000727595, -0.0000064845, 0.0000254578, 0.0000501673, 0.0000228905, 0.0000147581, 0.0000273542, 0.0000242036, -0.0000066888, -0.0000022883, 0.0000103275, -0.0000187295, 0.0000036977, -0.0000000842, 0.0000508826, -0.0000075896, -0.0000029212, 0.0000178188, -0.0000307443, 0.0000103911, -0.0000245213, -0.0000664981, -0.0000414424, -0.0003505968, -0.0000706852, -0.0001070280, -0.0000050143, 0.0000376581, 0.0000017901, 0.0000025739, -0.0000125335, -0.0000000629, -0.0000043827, 0.0000568770, -0.0000680044, 0.0000012060, 0.0000805707, 0.0000071963, -0.0001732933, -0.0001759268, 0.0000313111, 0.0000182096, -0.0000289282, 0.0000779930, -0.0001611066, 0.0000068910, 0.0000134990, -0.0000985935, -0.0000133889, 0.0000080526, 0.0001316363, 0.0000518270, 0.0000064002, 0.0000332301, -0.0000209499, -0.0001815901, 0.0000580304, -0.0002826284, 0.0000036461, 0.0000034254, 0.0000113746, -0.0001009457, -0.0000426833, -0.0000249919, 0.0000038648, -0.0001590028, -0.0002444454, -0.0001344510, 0.0000054152, -0.0000819182, -0.0000855746, -0.0003595012, 0.0000125359, 0.0000068384, 0.0000087603, 0.0001368948, -0.0000309246, 0.0000093760, 0.0001824295, -0.0000282879, 0.0000186947, -0.0001300033, 0.0000891094, -0.0000476049, -0.0000927168, 0.0000004957, 0.0000780419, -0.0003267787, -0.0000044631, 0.0000010204, 0.0000349025, 0.0000133305, 0.0000018752, 0.0000048164, 0.0000206295, 0.0000151633, 0.0000037866, 0.0000219727, -0.0000811317, 0.0000016879, 0.0000519025, 0.0000020337, -0.0002106178, -0.0000507748, 0.0000158859, 0.0000133907, 0.0000103876, 0.0000384065, -0.0000846712, 0.0000062433, 0.0000092172, 0.0000048072, 0.0000174289, -0.0000182900, 0.0000854449, 0.0000644878, 0.0000071240, -0.0000086272, -0.0000370441, -0.0000730806, 0.0000443286, -0.0001358412, -0.0000007603, -0.0000055299, 0.0000023113, -0.0000443539, 0.0000057477, -0.0001072227, 0.0000790663, -0.0000756653, -0.0001436328, -0.0001451708, -0.0000253051, -0.0000113466, -0.0000103607, -0.0002295919, 0.0000067842, 0.0000036528, 0.0000096202, 0.0001400612, -0.0000079284, 0.0000103191, 0.0001335867, -0.0000404404, 0.0000159834, -0.0000118073, 0.0000679682, 0.0000008645, -0.0001039576, 0.0000561723, 0.0001524294, -0.0001299995, 0.0000746288, 0.0000615542, -0.0000604589, -0.0000703950, -0.0000007938, 0.0000000235, 0.0000126973, -0.0000095355, -0.0000136897, -0.0000427758, -0.0000887140, 0.0000025725, -0.0000512326, 0.0000027885, -0.0001026069, 0.0001000766, -0.0000079530, 0.0000102220, 0.0000247551, -0.0000260500, -0.0000492962, 0.0000006178, 0.0000092421, 0.0000995827, -0.0000533791, -0.0000545665, -0.0000602512, -0.0000358338, 0.0000022513, -0.0000845755, -0.0000849764, 0.0001299690, -0.0000367878, -0.0000179580, -0.0000041380, -0.0000323313, 0.0000029419, 0.0000309037, 0.0000406684, -0.0001478659, -0.0000478778, 0.0000509522, 0.0000184143, -0.0000488942, -0.0001372118, 0.0000431975, 0.0000648234, 0.0000035763, 0.0000029501, 0.0000014529, 0.0000092087, 0.0001043199, 0.0000142792, 0.0000038722, -0.0000555920, -0.0000873845, 0.0000017799, 0.0000822562, -0.0000067705, 0.0000539322, 0.0001763639, 0.0000327456, 0.0001289775, 0.0000359216, 0.0001224888, 0.0001558326, 0.0000666202, -0.0000689330, -0.0000077572, -0.0000140404, -0.0000411242, -0.0000168244, -0.0000139644, -0.0000255533, -0.0001642631, 0.0000182570, -0.0001006858, 0.0000013088, -0.0000649745, 0.0001040091, 0.0000294127, -0.0000161558, -0.0000579637, 0.0000004266, 0.0001705949, -0.0000034232, -0.0000104475, 0.0001742157, -0.0000479619, -0.0001070742, -0.0000403923, 0.0000252685, 0.0000007437, -0.0001325661, -0.0000599031, 0.0001109225, -0.0000570968, -0.0000741798, 0.0000054942, -0.0000160633, -0.0000057222, 0.0001781557, 0.0000458612, -0.0002271201, -0.0003856336, 0.0001757102, 0.0000553839, 0.0000483958, -0.0000875885, 0.0000914469, 0.0001749434, 0.0001092556, 0.0000038841, 0.0000005688, 0.0000081169, 0.0002443848, 0.0000339978, -0.0000047944, -0.0001803238, 0.0000143451, 0.0000077235, 0.0001523895, -0.0000700901, 0.0000575674, 0.0002008237, -0.0001105055, 0.0000614849, 0.0000140556, -0.0000311662, -0.0001152949, 0.0001857339, -0.0000085350, -0.0000403999, -0.0000180312, -0.0000656506, -0.0000358129, -0.0000626968, 0.0000578319, -0.0000411325, -0.0000033332, -0.0001013941, -0.0000047521, 0.0000750859, 0.0001251507, 0.0000420779, -0.0000085388, -0.0000390450, 0.0000406225, 0.0001948650, -0.0000074838, -0.0000096126, -0.0000356311, -0.0000753811, -0.0000053477, 0.0001944514, 0.0000690926, -0.0000046041, 0.0000372893, -0.0000332682, 0.0000804387, -0.0000345850, -0.0001110468, 0.0000067618, 0.0000122540, -0.0000031818, 0.0000739521, -0.0000284790, 0.0001621759, -0.0001217697, 0.0000850737, -0.0001484556, -0.0000573822, 0.0001205268, -0.0001018223, 0.0000217856, 0.0000070212, -0.0000121200, -0.0000011274, -0.0000398570, 0.0002145902, -0.0000362004, -0.0000082941, -0.0000875845, 0.0000661281, 0.0000104942, -0.0000045066, 0.0000307510, -0.0000804552, 0.0000888290, -0.0001985420, -0.0000368015, -0.0001776200, -0.0001894044, -0.0003336871, -0.0000430662, 0.0001074284, -0.0000258308, 0.0000097039, -0.0000261822, 0.0000525442, -0.0000232623, 0.0000802013, -0.0001946257, -0.0000199984, 0.0000735257, 0.0000081079, -0.0001083367, -0.0001752282, 0.0000641239, 0.0000174731, 0.0000218162, 0.0001330674, 0.0000200424, 0.0000024979, 0.0000212053, -0.0003042406, -0.0001547633, -0.0001078102, 0.0001420629, 0.0001647096, 0.0000140054, 0.0000121083, -0.0001086598, -0.0001500247, -0.0001120549, -0.0003218351, 0.0000194793, 0.0000183172, 0.0000219170, -0.0001826102, -0.0001219462, 0.0000726149, 0.0001220474, -0.0002254950, -0.0001840426, -0.0003287503, 0.0000418489, -0.0002837095, -0.0002450459, -0.0001529811, 0.0000063698, 0.0000135275, -0.0000265705, 0.0001488074, -0.0000605401, 0.0000085609, 0.0000385107, -0.0000600854, 0.0000313737, -0.0002695992, 0.0000672718, -0.0001876254, 0.0000247815, 0.0000316901, 0.0000455473, 0.0000647828, 0.0000717526, 0.0001014041, 0.0000864062, -0.0001084944, 0.0000018416, -0.0000160816, -0.0000089316, -0.0000088494, -0.0000329772, 0.0000383849, 0.0000069174, 0.0000215764, -0.0000656462, 0.0000011389, 0.0000880234, 0.0000841234, 0.0000217889, -0.0000170242, -0.0000128945, 0.0000309042, 0.0000184430, 0.0000083370, -0.0000047100, 0.0000922300, 0.0000818673, 0.0000671541, -0.0001506372, 0.0000861737, 0.0000041322, 0.0000021439, 0.0000536366, 0.0001263840, 0.0000018186, 0.0002347852, -0.0000162137, 0.0000599266, 0.0000113595, 0.0000621506, 0.0000306348, -0.0001631363, -0.0002200694, 0.0000477609, 0.0001516500, 0.0000657679, -0.0000363816, 0.0000736302, 0.0000467069, 0.0001370066, 0.0000123148, -0.0000148702, 0.0000157493, 0.0002436306, 0.0000432212, -0.0000046626, -0.0001594089, 0.0000765561, 0.0000028436, 0.0000708176, -0.0000177997, 0.0000191369, -0.0000341303, -0.0000640381, -0.0000810155, -0.0000267622, -0.0000344260, -0.0000184465, 0.0001564576, -0.0000824775, -0.0000334258, -0.0000199995, -0.0000277512, -0.0000075435, 0.0000540062, 0.0000593421, 0.0001841416, -0.0000003515, -0.0000751904, -0.0000064205, 0.0001668281, -0.0000612158, 0.0000240519, -0.0000143947, 0.0000030120, 0.0000157141, 0.0000129639, 0.0000015847, -0.0000011165, -0.0000043771, 0.0000164674, 0.0001290064, 0.0000491226, 0.0001702948, -0.0000055060, 0.0001837832, 0.0000823657, 0.0000560453, 0.0000255484, 0.0002517752, -0.0000093591, 0.0000611378, 0.0000056461, -0.0000154128, -0.0000501980, 0.0002185961, 0.0003902764, 0.0000547022, -0.0000951885, -0.0000742646, 0.0001185268, -0.0000468325, -0.0000958024, -0.0000224157, -0.0000049141, -0.0000198703, -0.0000280494, 0.0002524472, -0.0000199534, -0.0000050037, 0.0000140869, 0.0001001227, 0.0000024968, 0.0000039443, -0.0000219186, -0.0000841394, -0.0000266756, -0.0001441861, -0.0002317936, -0.0002488763, -0.0002541350, -0.0002634074, -0.0001633846, 0.0000246224, -0.0000159129, 0.0000053200, -0.0000259132, 0.0000250156, 0.0000386625, 0.0000991704, -0.0000052529, -0.0000134235, 0.0000994929, 0.0000125561, -0.0000086849, -0.0002884750, 0.0000399846, 0.0000088788, 0.0000195391, 0.0001307038, -0.0000610239, 0.0000121390, 0.0000219066, -0.0003558416, -0.0001186385, -0.0000265447, 0.0000486637, 0.0001139633, 0.0000113149, 0.0001091330, -0.0000156889, -0.0001626413, -0.0000849870, -0.0000191217, 0.0000011961, 0.0000159916, 0.0000186586, -0.0002456151, -0.0001529374, 0.0001579660, 0.0002072532, -0.0001933531, -0.0002417081, -0.0002436309, 0.0000039402, -0.0002617565, -0.0003228371, -0.0003291633, 0.0000173786, 0.0000071634, -0.0000088044, 0.0001278980, -0.0000408363, 0.0000113560, -0.0000186969, 0.0000066795, 0.0000219094, -0.0002867371, 0.0001037557, -0.0001942755, 0.0000879745, 0.0000917881, -0.0000246709, 0.0001605681, 0.0000862615, 0.0001447183, -0.0000686818, -0.0000461966, 0.0000370034, -0.0000027467, 0.0000057162, -0.0000112302, -0.0000562474, 0.0000087552, -0.0000162518, 0.0000414690, -0.0000290636, 0.0000122732, 0.0001868575, 0.0002865386, -0.0000087205, 0.0000087477, -0.0000212265, -0.0000365413, 0.0001218734, 0.0000141229, -0.0000043539, 0.0001413359, -0.0000483727, -0.0000779133, -0.0001531061, -0.0000621824, 0.0000053017, -0.0000906345, 0.0000010551, 0.0002510189, -0.0000882681, 0.0002086894, -0.0000159380, 0.0000232180, 0.0000187683, 0.0001289949, 0.0000675702, -0.0001022450, -0.0001569268, 0.0001350824, 0.0001913764, 0.0001460304, -0.0002102805, 0.0000722702, 0.0000963413, 0.0002637631, 0.0000194307, 0.0000004063, 0.0000260042, -0.0000330077, 0.0000431676, -0.0000017348, -0.0000893044, -0.0001028074, -0.0000108497, 0.0001553865, 0.0000504292, 0.0000731577, 0.0000626449, 0.0000217188, -0.0002006493, 0.0000357567, -0.0000239492, -0.0000714740, -0.0000183718, 0.0000127632, 0.0000312648, -0.0000062725, 0.0000358825, -0.0000010595, 0.0000690696, 0.0000507345, 0.0000542329, 0.0000367395, 0.0000545815, 0.0000131996, 0.0001509560, 0.0000597297, -0.0000003484, 0.0000075972, -0.0000096131, 0.0000188930, 0.0000538907, 0.0000117912, -0.0000061033, -0.0000059321, -0.0000196986, -0.0000037535, 0.0000105795, -0.0000604326, -0.0000042982, 0.0001241787, 0.0000397787, -0.0000557558, -0.0000314263, -0.0000044692, -0.0000072471, -0.0000031856, 0.0000150427, 0.0000427434, 0.0000218196, 0.0000697288, 0.0003005335, 0.0001124284, -0.0001695614, 0.0000858033, -0.0001396423, -0.0000514612, 0.0000104209, -0.0000856965, 0.0000186205, 0.0000006724, 0.0000078788, 0.0000655207, 0.0000082126, 0.0000006734, -0.0000002395, -0.0000439121, -0.0000067894, 0.0000211217, 0.0000456452, -0.0000099163, -0.0001379496, -0.0000529694, -0.0002526939, -0.0002691924, -0.0002378051, -0.0003771586, -0.0003088836, 0.0001723455, 0.0000514290, 0.0000142269, -0.0000048587, -0.0000014305, -0.0000313876, 0.0000684949, -0.0000801592, 0.0000292646, 0.0002922101, 0.0000291794, 0.0000783691, -0.0003349535, 0.0000135533, 0.0000181556, -0.0000047661, 0.0001948955, -0.0000825076, 0.0000196640, 0.0000117112, -0.0003878100, -0.0000103837, 0.0000489654, -0.0000471028, -0.0001368535, 0.0000083112, 0.0001179173, 0.0000772785, -0.0002357811, 0.0000476118, -0.0001799699, 0.0000133712, 0.0000045420, 