//Numpy array shape [5, 5, 4, 16]
//Min -215.268875122070
//Max 252.725051879883
//Number of zeros 0

#ifndef W4_H_
#define W4_H_

#ifndef __SYNTHESIS__
model_default_t w4[1600];
#else
model_default_t w4[1600] = {0.1191451624, -0.5352808237, -0.0577350520, -0.6661184430, 0.6011922359, 0.2356079966, 0.3297433853, -0.6502484083, 0.7754787803, 0.6194631457, 0.4603677094, -0.6157541275, 0.7319630980, 0.7214533687, 0.3415744901, -0.5920823216, 0.5701756477, 0.5787519813, 0.5835821033, -0.6402896643, 0.8467906117, -0.4679912031, -0.0052459654, -0.5813761353, 1.5267944336, 0.0635596588, 0.3315649033, -0.4439423382, 1.6529835463, 0.4325326979, 0.3202660084, -0.1531678736, 1.8497523069, 0.6171848178, 0.2711196542, -0.3194512129, 1.6275582314, 0.4228307903, 0.3362606466, -0.5047603846, 1.1826926470, -0.2995941639, -0.0588943809, -0.4921622872, 1.6781162024, 0.1683023125, 0.2821570933, -0.1345183849, 1.8719383478, 0.4865613282, 0.3133475184, 7.8567676544, 1.8516514301, 0.6033342481, 0.2175230980, 0.0641060099, 1.7657713890, 0.3533729613, 0.3121133149, -0.3728066981, 0.4914654791, -0.3356842697, 0.1017307863, -0.6119174957, 0.9382609725, 0.1091358364, 0.6280965805, -0.5032978654, 1.1854692698, 0.4834590852, 0.5955705047, -0.2950268686, 1.1824111938, 0.6696389914, 0.5808305144, -0.3984274566, 1.1401360035, 0.3898126185, 0.6520357728, -0.5457416773, -0.4469547570, -0.4105626643, -0.0427181423, -0.6997367144, -0.2513126135, 0.2978800237, 0.7599812746, -0.7102438211, 0.0481101274, 0.5427297354, 0.6171324253, -0.6938139200, -0.1327345371, 0.6885836124, 0.5593397021, -0.6719561815, -0.0635009855, 0.4903628528, 0.6425487995, -0.7011035681, 0.0055892980, 0.0074206139, 0.0005796903, -0.0002207560, -0.0018133359, 0.0039247288, 0.0013482694, 0.0002015187, -0.0014068005, 0.0023889972, 0.0015462940, -0.0066430368, -0.0080270534, -0.0026866691, -0.0035814075, 0.0101626767, -0.0026972902, -0.0030008669, 0.0042695692, -0.0019477506, 0.0060885921, 0.0005741498, 0.0014174269, -0.0056053614, -0.0021577070, 0.0011879163, 0.0021044626, -0.0086147087, 0.0000131642, 0.0019292032, 0.0034585744, -0.0156684127, -0.0082499674, -0.0068957540, -0.0041284049, 0.0355425254, -0.0001536270, -0.0064979759, 0.0064685382, -0.0045416416, 0.0062916107, -0.0021479151, -0.0050894907, 0.0118238153, 0.0007083407, -0.0023042045, -0.0029876605, 0.0156814922, 0.0025926968, -0.0002745895, -0.0042979610, 0.0327666402, -0.0051121423, -0.0028719006, -0.0101288762, 0.1993524879, 0.0039177523, 0.0002271892, 0.0012780922, 0.0209173579, -0.0041149305, -0.0016622485, -0.0037378666, -0.0074982871, -0.0071949610, -0.0034077612, -0.0026559664, -0.0129506299, -0.0045923898, -0.0010622601, -0.0048669530, -0.0215897989, -0.0096322224, -0.0010376964, -0.0103484364, 0.0370578729, -0.0014209619, 0.0032419676, 0.0034395130, -0.0037586114, 0.0037618612, -0.0002720690, -0.0017690292, -0.0019716080, 0.0006064380, 0.0003100465, -0.0007469056, 0.0018768989, 0.0040982137, 0.0001448660, 0.0002593228, -0.0076994682, 0.0004883143, -0.0006176690, -0.0041885558, 0.0129032331, 0.0045650802, 0.0019806691, 0.0079946956, -0.0027279179, -0.3860235810, -0.4836846888, -0.1733811349, -0.2036703378, -0.0641565844, -0.6500416994, -0.1779784560, -0.2763278484, 0.0591450259, -0.5685523748, -0.1643560529, -0.2678143680, -0.0636794418, -0.7184322476, -0.2401255518, -0.2516328990, -0.2198599279, -0.5955737233, -0.1837498993, -0.2695840597, -0.1029248834, -0.6023169756, -0.4178640544, -0.1186552942, 0.2291253209, -0.8609303832, -0.2333680242, -0.2085359842, 0.3028236926, -0.8438650370, -0.1364160478, -0.1571337432, 0.2527250350, -1.0779603720, -0.3019560277, -0.0718744248, 0.1086034626, -1.0244879723, -0.1480589211, -0.1546214968, 0.3448052704, -0.5636442900, -0.3410397768, 0.0425346680, 0.6696705818, -0.6610302925, -0.1345015466, 0.1712244600, 0.7942870855, -0.5689903498, -0.0147359585, 0.8296399117, 0.7310090065, -0.7243590951, -0.2884946764, 0.2429390699, 0.6042240262, -0.6370218396, -0.1202773228, 0.1119659021, 0.1988052428, -0.4838075638, -0.1746485084, -0.0457540266, 0.5778113604, -0.6719897389, 0.0980368406, -0.1195101961, 0.6977475286, -0.5267239809, 0.1397957802, -0.0846429914, 0.6624707580, -0.7764137983, -0.0068227719, 0.0373589322, 0.5509868264, -0.7202811241, 0.1085699871, -0.0806812271, -0.2120780349, -0.6633605361, -0.0665849745, -0.1965375543, 0.1556452811, -0.8263349533, -0.0052604522, -0.2444429994, 0.3373208046, -0.7259297371, 0.0118544642, -0.2366145104, 0.2423644066, -0.7913788557, -0.0127925919, -0.2185757607, 0.1715468764, -0.7055988908, 0.0056369812, -0.2442029864, -0.6471363902, -0.8537659049, -0.2555069029, -0.2726341784, -0.6361745596, -0.7412186265, -0.4393686950, -0.1700233817, -0.7553652525, -0.7500395775, -0.5357027650, 0.1045978069, -0.7696008086, -0.7550286651, -0.4843783975, -0.6370190978, 0.0058474345, -0.7346521616, -0.6085727215, 0.3166982830, -0.9413907528, -0.5320087671, -0.3957038820, -0.4928609133, -0.9954000115, -0.5057975054, -0.5604556203, -0.5589860082, -0.9961702824, -0.4002026618, -0.5829873085, -0.0444713011, -1.0577307940, -0.4352078736, -0.5668066740, -0.7874473929, -0.1467637122, -0.1170745045, -0.7630182505, 0.3363413513, -0.9201900959, 0.1692857295, -0.5779823065, -0.2044484019, -0.8485192060, 0.1135759652, -0.7229624391, 0.0551273860, -0.8440210223, 0.0998997465, -0.8199970126, 2.0806255341, -0.7589420080, 0.0676365942, -0.6883249283, -0.1944552660, 0.1511656344, 0.5346510410, -1.0123444796, 0.4453201890, -0.9179835916, 0.2682718039, -0.5286445618, -0.4865876734, -0.8798187375, 0.1776537746, -0.6480330229, -0.5807748437, -0.9256821275, 0.2273036689, -0.6745724082, -0.4856519997, -0.9065477252, 0.0468758531, -0.6105459929, -0.8215180635, -0.0383450985, 0.3288567364, -0.8139661551, 0.3029182851, -0.4850844145, 0.0717234164, -0.3602437377, 0.1874148101, -0.3131714463, -0.0350805633, -0.5793158412, 0.1807408184, -0.3430324793, 0.0577428490, -0.5055140853, 0.2340200543, -0.2310216278, -0.0159964468, -0.4462868869, 0.2061065733, 0.3859280646, 0.2437574267, -0.1647826135, 0.3328091800, 0.0026251655, 0.0006301482, -0.0008749678, -0.0016099763, -0.0014899524, 0.0003942238, 0.0000883873, -0.0010681505, 0.0020432319, 0.0004829863, 0.0004272165, -0.0055470690, -0.0073329797, -0.0003890689, -0.0020682153, 0.0109420838, -0.0005453227, -0.0000145111, 0.0026639905, -0.0023871919, 0.0038096551, 0.0018427782, -0.0007193531, -0.0014088515, 0.0003366536, 0.0004813074, 0.0001536147, -0.0025257717, 0.0053231097, 0.0008653077, 0.0007991130, -0.0096761174, -0.0052443240, -0.0017168578, -0.0030267420, 0.0177489277, 0.0024681047, -0.0021124051, 0.0022906130, -0.0044080010, 0.0029489237, 0.0003648892, -0.0024492366, 0.0084710093, -0.0012634337, 0.0000414155, -0.0015718784, 0.0099188369, 0.0042040553, 0.0005007713, -0.0006749658, 0.0035299566, -0.0098368172, -0.0004870820, -0.0032765465, 0.1528138518, 0.0001132079, 0.0006545156, 0.0009595927, 0.0159613919, 0.0018368165, -0.0018645204, -0.0012025610, -0.0045615756, 0.0007705278, -0.0026000503, -0.0004126080, -0.0060296389, 0.0045298878, -0.0007341212, -0.0004466414, -0.0152951172, -0.0052276901, -0.0024183905, -0.0020299531, 0.0279139355, 0.0034197408, -0.0017551740, 0.0002848372, -0.0043041687, -0.0011206602, -0.0001259889, -0.0006763132, -0.0032271922, -0.0009994893, 0.0013143771, -0.0005903470, -0.0028667867, 0.0024253507, 0.0008998303, 0.0002986855, -0.0088697635, -0.0062998026, 0.0010124217, -0.0012017559, 0.0153630264, 0.0008771436, 0.0007799790, 0.0002142121, -0.0036911271, -0.0219887458, -0.0200776793, 0.0082559763, 0.0095942132, 0.0038632255, -0.0638398454, 0.0131362956, 0.0037018270, -0.0091410410, -0.0371639617, -0.0031359298, 0.0120013542, -0.0053968146, -0.0206591617, 0.0489342287, -0.0160864517, 0.0021099858, -0.0221336745, 0.0407246202, -0.0212749876, -0.0158840120, 0.0421918109, -0.0336677246, -0.0229345858, 0.0066561778, 0.0108747054, -0.0342850275, -0.0596231632, -0.0065831738, 0.0299108773, -0.0602406971, -0.1346663833, 0.0058678431, 0.0615694709, -0.0133863138, -0.4228474200, 0.0107061649, 0.0520804636, -0.0317170732, -0.4087166786, -0.0245247427, -0.0765299797, 0.0024917871, -0.0252425242, -0.0129951611, -0.0765443295, 0.0000870851, -0.1463190168, -0.0186347291, -0.0477826260, -0.0226579588, -0.1968185604, -0.0073769474, 0.0044791172, 0.0121240364, -0.5545963645, -0.0226816665, -0.0138621302, 0.0106462827, -0.5219518542, 0.0150630185, 0.0536980331, -0.0064334664, -0.0256677065, 0.0331434645, 0.0432773568, -0.0146380663, -0.0986781493, 0.0265606046, 0.0344193950, -0.0319535881, -0.1841211617, 0.0371792391, 0.0700821728, 0.0131360786, -0.4814724028, 0.0307553951, 0.0526786931, 0.0056398264, -0.4436081946, -0.0171363540, -0.0587435067, -0.0016512774, -0.0035706270, -0.0003561953, -0.0456970707, -0.0017649863, 0.0037614023, -0.0045852172, -0.0567828193, -0.0203000922, 0.0102466810, -0.0022502828, -0.0130254226, 0.0189311840, -0.0234499201, -0.0143104447, -0.0382136181, 0.0192211978, -0.0285798628, -0.0020862864, 0.0059546093, 0.0006851183, -0.0020150449, -0.0029221529, 0.0014781506, 0.0020951317, -0.0020373752, 0.0027837460, -0.0006137100, 0.0024395385, -0.0073739979, -0.0066665080, -0.0030286757, -0.0006295096, 0.0148153258, 0.0034281581, -0.0010572668, 0.0057444950, -0.0021732398, -0.0000680798, -0.0007090200, -0.0016012049, -0.0034947898, 0.0008718140, -0.0022367870, -0.0000143317, -0.0051267943, 0.0050077182, -0.0012374120, 0.0003404238, -0.0130167641, -0.0083271870, -0.0012083430, -0.0026729656, 0.0244472623, 0.0024145802, -0.0002138824, 0.0025611506, -0.0045961286, -0.0000530809, -0.0015722985, -0.0055376776, 0.0125512583, 0.0003311177, -0.0042669117, -0.0035781157, 0.0153945526, 0.0042300439, -0.0013469128, -0.0034291823, 0.0077617741, -0.0140075237, -0.0014265982, -0.0060569318, 0.2144149095, 0.0007764169, 0.0001615987, 0.0011956795, 0.0208897218, 0.0042624413, 0.0014390686, -0.0002869976, -0.0055755358, 0.0039480147, -0.0014130014, -0.0003351866, -0.0075547122, 0.0078812558, -0.0005483464, 0.0000645822, -0.0210649930, -0.0091253994, 0.0012024827, -0.0046655862, 0.0397757515, 0.0028889854, 0.0037871918, 0.0026032268, -0.0055944412, -0.0014398687, -0.0022195298, -0.0029491025, -0.0035811260, -0.0004527623, -0.0024838911, -0.0009590667, -0.0028806892, 0.0029677993, -0.0007372286, 0.0000511609, -0.0137362788, -0.0118147684, -0.0006773060, -0.0036097912, 0.0200343356, -0.0033553732, -0.0008482969, 0.0000425756, -0.0051231510, -0.6210091114, -0.2716114521, 0.0155218784, -0.2879827917, -0.5813439488, -0.1477400362, 0.0661076754, -0.2928374410, -0.5217837691, -0.1664346159, 0.1200811118, -0.3609668314, -0.4666498005, -0.1779383123, 0.1581024975, -0.2951587141, -0.4074052572, 0.0356448852, 0.2111276984, -0.2655270100, -0.2385723442, 0.2626315057, 0.2451675981, -0.4218920469, -0.1983432770, 0.3984136283, 0.2591857314, -0.4980608523, -0.1250720918, 0.3359693587, 0.2746253312, -0.9127394557, -0.1368361562, 0.3877950609, 0.3421116471, -0.4999203086, -0.0934845284, 0.5231226087, 0.2883122861, -0.4183960259, -0.0250541959, 0.1003024653, 0.1917442083, -0.5506330132, -0.0767778456, 0.2175063342, 0.1775541604, -0.8277518749, -0.0162349343, 0.1496831030, 0.2002117485, -2.3944880962, -0.0729359537, 0.2184597105, 0.2394066155, -0.8306499720, -0.0103972293, 0.3002848923, 0.2007181048, -0.6054667234, -0.2856845856, 0.3208799064, 0.3325062096, -0.4066902697, -0.3031534255, 0.3861797154, 0.2825310826, -0.4751871824, -0.2604513764, 0.4084974229, 0.2362523675, -0.8321875930, -0.3013044894, 0.4678708017, 0.3050295711, -0.4732580781, -0.2422993183, 0.4919641316, 0.2536925375, -0.3952230215, -0.1662852764, 0.0236325841, 0.3157811165, -0.2467317283, -0.2440575361, 0.0841634348, 0.2627071440, -0.2287808210, -0.1884282678, 0.0862214193, 0.2194009274, -0.2875539064, -0.2491401732, 0.1566591859, 0.2734344900, -0.2230030894, -0.1916748434, 0.0507352650, 0.1980500072, -0.1921492666, 0.2380890399, -1.2125427723, -0.0387545265, 0.2700252235, 0.1952716708, -1.4606056213, -0.7014685869, -0.5046131015, 0.6129023433, -1.5498492718, 0.0408984944, -0.4881511629, 0.1445994079, -2.4983522892, 0.4016101062, -0.3701708615, 0.5294739008, -1.7753618956, 0.0563253537, -0.0084091807, 0.1879152805, -3.1568138599, 0.3978814781, 0.3268827200, 0.2984464467, -2.9943683147, -0.3183375001, -0.9425312281, 0.6266838312, -2.9998333454, 0.5270705819, -0.8577638268, 0.0406599566, -3.8157885075, 0.9467441440, -0.5701323748, 0.4806103110, -3.0647907257, 0.5905289650, 0.0013764674, -0.2436407804, -1.0100781918, 0.5437471867, 0.8091185689, 0.0754014924, -1.0996565819, -0.3532543778, 0.4620277584, 0.2459876537, -1.2053061724, 0.2766143680, 3.5847418308, -0.5317688584, -1.9377923012, 0.7243935466, 1.4300091267, 0.0037463845, -0.8520019650, 0.4669684768, 0.6838306189, -0.8213033676, 1.5469381809, 0.5601825714, 0.5524393916, -0.1006330177, 1.1537935734, -0.3407306075, -0.3946050107, 0.0023029319, 1.2521952391, 0.2403401136, -0.1310028285, -0.8744881153, 0.6104127169, 0.6098384261, 0.0342656747, 0.1407238245, 1.6076598167, 0.4149011970, 0.2240212709, 0.0014545557, 1.0401674509, 0.0053729163, 0.3278856277, 0.8117969632, 0.5692035556, -0.8399080634, -0.1454995722, 0.6158956885, 0.6530566812, -0.1489379406, -0.0667375922, -0.2893635333, 0.1235040575, 0.1068210304, 0.0028049070, 0.6892293692, 0.6785858870, -0.1263036281, 0.1492577493, -0.0011331559, 0.0008763035, 0.0001757253, -0.0002395303, -0.0008634278, 0.0004871763, 0.0002075502, -0.0001265639, 0.0000192053, 0.0003012950, 0.0003449880, -0.0015153224, -0.0012759102, 0.0000813287, -0.0008222319, 0.0031060455, 0.0005624756, -0.0004725768, 0.0004970558, -0.0010009336, 0.0001470984, 0.0000578064, 0.0000376801, -0.0010816533, 0.0004804988, 0.0002283265, -0.0000760927, -0.0008713995, 0.0014703529, -0.0003733648, 0.0001636181, -0.0037406210, -0.0005086925, -0.0000943752, -0.0009351202, 0.0065199547, 0.0012757758, -0.0005113782, 0.0004359301, -0.0010938408, -0.0003276580, -0.0007439911, -0.0001155061, 0.0020196815, 0.0002131077, -0.0004968189, 0.0001632082, 0.0029393043, 0.0010207172, -0.0004289898, -0.0001934590, -0.0007644413, -0.0013593420, -0.0002619775, -0.0007594143, 0.0369430110, 0.0003439323, -0.0000638744, 0.0001986327, 0.0051841936, 0.0003195076, -0.0011925130, -0.0001666917, -0.0016043835, 0.0006905815, -0.0004811107, -0.0002659969, -0.0016675929, 0.0010431462, -0.0006137191, -0.0002917919, -0.0056640799, -0.0010521184, -0.0003375715, -0.0011465371, 0.0095181456, 0.0005668076, -0.0001448485, 0.0005747469, -0.0012778157, -0.0009795233, 0.0005838203, 0.0001237259, -0.0007170106, -0.0007049110, 0.0005590772, -0.0000070109, -0.0005562337, -0.0007512741, 0.0004511518, 0.0000044721, -0.0022087907, -0.0020702719, 0.0005437476, -0.0009233618, 0.0046983901, -0.0009279671, 0.0005424593, 0.0001618773, -0.0016160666, -0.0006932050, -0.0016561227, 0.0007315397, -0.0021652437, 0.0000861575, -0.0018501794, 0.0004370349, -0.0021378440, 0.0010319124, -0.0009618796, 0.0025362009, -0.0079847490, -0.0045894035, 0.0002737607, -0.0025673655, 0.0124057503, 0.0031980155, 0.0004784832, 0.0006052326, -0.0023197536, 0.0015584104, -0.0024753106, -0.0017156042, -0.0041022198, 0.0021583526, -0.0012042213, -0.0026129126, -0.0036422675, 0.0043160617, -0.0001655291, -0.0010654416, -0.0149554303, -0.0036266535, 0.0018375115, -0.0041975803, 0.0236325748, 0.0035114917, 0.0020887521, 0.0003937635, -0.0025711805, -0.0020998451, -0.0018391621, 0.0000412276, 0.0075268857, -0.0011318759, -0.0011266477, -0.0007225717, 0.0105754826, 0.0004861517, -0.0005146639, -0.0004912942, -0.0060568624, -0.0081090638, 0.0010789117, -0.0020162808, 0.1462479085, 0.0008090562, -0.0003234393, 0.0009315985, 0.0152256684, 0.0019682101, -0.0010661980, -0.0021619138, -0.0048270151, 0.0024988858, -0.0006878453, -0.0020252911, -0.0044976287, 0.0046941447, -0.0000729806, -0.0007308563, -0.0179919917, -0.0039275573, 0.0005322418, -0.0011448284, 0.0306695886, 0.0023369708, -0.0000533089, 0.0021676978, -0.0043465965, -0.0023894922, -0.0027216452, -0.0014522658, -0.0030612596, -0.0009783788, 0.0000298818, -0.0001730622, -0.0030237718, 0.0013598036, 0.0001993369, 0.0003394485, -0.0103775058, -0.0048693242, -0.0002278465, -0.0011042712, 0.0172004253, 0.0003822329, 0.0014519637, 0.0003736989, -0.0045507462, 0.2031300813, 1.6271100044, 0.1519592106, 0.5483421087, 0.2997856140, 0.4738256037, -0.2700892687, 0.4267405272, 0.0179418717, 0.5517329574, -0.2919530272, 0.5773478746, 0.2362032980, 0.7498441339, 0.3888600171, 0.5979439020, 0.3437838256, 1.3069137335, 0.5044958591, 0.5140042901, -0.0215775557, -0.1121621728, 0.6121772528, 0.2070087492, -0.0750853792, -1.8843684196, -0.7660970688, -1.0774598122, -0.3044399619, -1.9888380766, -0.7444161773, 0.7753704190, -0.1574249715, -2.2040770054, 1.1561225653, 0.2277916968, -0.1303160042, -1.1921037436, 1.1046017408, -0.3369888663, 0.4014506936, -2.7934234142, -1.7311630249, 0.6337541938, 0.3993164599, -3.2638301849, -1.6819525957, 0.3844465613, -0.0189070497, -3.4094426632, -1.9470523596, 8.5654315948, 0.1995034516, -3.7308402061, -0.1075352132, 4.2509298325, 0.1633293033, -3.3674252033, 0.4758163989, 0.8784490824, 0.3539547920, -2.3273310661, -1.5111137629, 0.0191973373, 0.4936844110, -2.3711130619, -1.7742838860, -1.9426815510, 0.0785569698, -2.5540633202, -2.0126113892, -0.2336443961, 0.3408506215, -2.8754985332, -0.3426140249, -0.5796251893, 0.3187263906, -2.9440295696, 0.2684259415, -1.0870745182, 0.1761050224, -0.3336269557, -1.1692495346, 0.1197378486, 0.3006003499, -0.7875931859, -1.2892556190, -0.7783488631, 0.0514886305, -0.9814004302, -1.2951490879, -0.2514136732, 0.0891783684, -0.9404357076, 0.1987116933, -0.2895419896, 0.0465361103, -1.1042346954, 0.3580698073, -0.5066776276, 0.2701514363, 0.5255775452, 0.3574801385, 0.0406122021, -0.2747389972, 0.0360560007, -0.6357570291, -0.4312018454, -0.1481472999, 0.3729540110, -0.9585408568, -0.3734413087, -0.0803983808, 0.2808216810, -0.8702213168, -0.3982313573, -0.1230323166, 0.2119444609, -0.6537483931, -0.4842541516, 0.5384571552, 0.8150910735, -0.2115208656, 0.1823848337, -0.0655492097, 0.4384877384, -1.8940703869, -1.0549849272, -0.0216730256, 0.3036178648, -2.1620848179, -0.6968989372, -0.0132405106, 0.3238775730, -2.1748788357, -0.8619357347, -0.0994686782, 0.3441259563, -1.9670504332, -1.0613007545, 0.3745735586, 0.0788522139, -0.2253564000, 0.2833294570, -0.2829792202, -0.8969137073, -1.8943680525, -1.1835675240, -0.1124526188, -0.7286663651, -2.2124123573, 0.7627828717, -0.0122598764, -0.1299639493, -2.2658915520, -0.6207036376, -0.0946415663, -0.1764310747, -2.2233886719, -0.9424118996, 0.4326524734, -0.2783907056, -0.4620228708, 0.1968524605, -0.0271673519, -0.6709067225, -2.0409064293, -1.3738467693, 0.1510311514, -0.6661779284, -2.2420244217, -1.2835303545, 0.2971394360, 0.1237513945, -2.1742956638, -1.0899627209, 0.2006664872, -0.0193633977, -1.9578273296, -1.2053391933, 0.0596987568, 0.2990468740, -0.0556609333, 0.2298959792, -0.2241218388, 0.1330881864, -0.7001039982, 0.1008679494, 0.0020483900, 0.3539136052, -0.7931311727, 0.1685445309, 0.0475087985, 0.5839693546, -0.8320287466, 0.1417188644, -0.0491483063, 0.5230092406, -0.4931864738, 0.0803653523, 0.7338881493, -0.6695148945, 0.5962796807, -0.0160485618, 0.8688094020, 0.1154899821, -0.0889951736, -0.3986586034, 0.6408775449, -0.1484138817, -1.3968267441, -0.4066865444, 0.8461821079, -0.6639903188, -2.0589761734, -0.5835714340, 0.7889124155, -0.2942509651, -2.1004738808, -0.7543572187, 0.4709101021, -1.5054911375, 1.1271222830, 0.0312638283, 0.9106241465, -0.2126781940, 0.0554494523, -1.4091196060, 0.5393536091, -0.5603431463, -2.5351328850, -2.6090593338, 0.8618552089, -0.5728189349, -3.3252875805, -1.9066309929, 0.9429953098, -0.2105865180, -3.1310136318, -1.7984210253, -0.0279328618, -1.5689967871, 1.5690977573, 0.4743243456, 0.4355953932, -0.8556842208, 0.1914538592, -0.9444354773, -0.2315883040, -1.4453520775, -1.8062944412, -3.6270766258, -0.1082928032, -1.6385571957, -3.4571251869, -1.6082184315, 0.0038320862, -0.4668559730, -3.2556891441, -1.5795414448, -1.9715844393, 1.8587634563, 1.3025007248, 0.1824492663, -1.1416786909, 2.3694357872, 1.1963016987, -0.8292860389, -1.7191091776, 1.7494590282, 1.3189120293, -1.2836273909, -1.8565771580, 0.6351104975, 1.0076881647, -1.1756466627, -1.3819445372, 1.2652423382, 1.3648926020, -1.3122112751, -0.8580237031, 1.7761383057, 1.3525055647, 0.5528588295, -0.1774231344, 1.6756410599, 0.9510837197, 0.2525125742, -0.1960354000, 1.0314719677, 0.6322755218, 0.2369940132, -0.5131561756, 0.0905460566, 0.3334324658, 0.1453028023, -0.2770010233, -0.0938710198, 0.2452258766, -0.0830893666, -0.6805763841, -0.0664744228, 0.8439756036, 0.1688035727, -1.0436712503, 0.5729697347, 1.3207702637, 0.2724834979, -0.5743336678, 0.2946927845, 1.0819014311, 0.3759439588, 0.0820198134, 0.9644443393, 1.0263087749, 0.2068032920, 0.6354369521, 1.1819003820, 0.0985348895, 0.2268148512, -0.9957546592, 0.3648115098, 1.2133984566, -0.9890828729, -1.7494744062, 1.1658480167, 1.9709192514, -1.3376473188, -0.9924833179, 0.9823749661, 1.5292801857, -1.2133593559, -0.4077912271, 1.5056129694, 1.4184684753, -1.1324369907, 0.0441904403, 1.7691560984, 0.4774426520, -0.9404296279, -0.4899733365, -1.1376072168, -1.0640146732, 0.1238219365, -1.3286564350, -0.2074073255, -0.6009188294, 0.4976066947, -0.9919030070, 0.7895148396, -0.5757802129, 10.6656818390, 0.0286413021, 0.8222451210, -0.4815164208, 0.0217323676, 0.2213605791, 1.7128975391, -1.1126589775, 0.1690521687, 0.4619517028, -1.6570008993, -1.7806875706, -0.5605615377, 0.1216185242, -1.3716399670, -1.5619273186, -0.9326183796, 0.4553320110, -0.7686238885, -1.0678627491, -0.3119939566, 1.4127775431, -1.0615782738, -1.1443271637, -0.8587338924, 1.2636590004, -0.0592848286, -1.3381918669, -0.5752508640, 0.8656247854, -1.1310685873, -1.7149767876, -0.4550933540, 0.7632625699, -1.0913833380, -1.4571903944, -0.6257755160, 0.9568213224, -0.5080524683, -0.8738385439, -0.4752295911, 1.4362992048, -0.8026050329, -0.9214137197, -0.6321505904, 0.9411578178, -0.3578032553, -0.5318636894, -0.5167584419, 0.4254553616, -0.0949109048, 0.0188808553, 0.5247933865, 0.2013876736, -0.0827633142, -0.0740067139, 0.5027704835, 0.1050482318, -0.1775211245, -0.0896343663, 0.5717720985, 0.0241993312, -0.0461751334, -0.1561939120, 0.5452387333, 0.3437741101, -0.0382129066, -0.1005140394, 0.5180491805, -1.0415718555, -0.5387802124, -0.2389959842, -0.5884302855, -1.2458413839, -0.5039560199, -0.3378390074, -0.8053704500, -1.3427611589, -0.5226067305, -0.3161650896, -0.7280138731, -1.3386094570, -0.4223053455, -0.4091203511, -0.7979411483, -1.0696848631, -0.3667356372, -0.3485437036, -0.5468088984, -1.1537299156, -0.8383669257, -0.2360038757, -0.2238241583, -1.3057796955, -0.8442329764, -0.3195841312, -0.3572721481, -1.4712069035, -0.8718770146, -0.3173750341, 0.7394418120, -1.3995393515, -0.8862153888, -0.3497207761, -0.2983334959, -1.2100853920, -0.7925179601, -0.2831616402, -0.1719489247, -0.9782407284, -0.2997665107, -0.3465595245, -0.2799875736, -1.1636528969, -0.3232719004, -0.4170239866, -0.4496479928, -1.3048926592, -0.3015908897, -0.3721503913, -0.1494626850, -1.2692201138, -0.3251549006, -0.4108255506, -0.5816063285, -1.0207695961, -0.2407042682, -0.3358475566, -0.1965651065, -0.6013877988, -0.1244023666, -0.3915026188, -0.0891462639, -0.7231435180, -0.1403614730, -0.4303413033, -0.0549714863, -0.9154680967, -0.1438977420, -0.4189573228, 0.1205726042, -0.8604299426, -0.1466167420, -0.3975530267, -0.1342348754, -0.6483563781, -0.0825680941, -0.3416784108, -0.0103747807};
#endif

#endif
